<?xml version="1.0"?>
<MethodSetup Method="BDT::BDTG_1p1_2022EE">
  <GeneralInfo>
    <Info name="TMVA Release" value="4.2.1 [262657]"/>
    <Info name="ROOT Release" value="6.30/07 [400903]"/>
    <Info name="Creator" value="xinlongl"/>
    <Info name="Date" value="Mon Mar 16 13:39:27 2026"/>
    <Info name="Host" value="Linux cmsbuild117.cern.ch 4.18.0-513.11.1.el8_9.x86_64 #1 SMP Wed Jan 17 02:00:40 EST 2024 x86_64 x86_64 x86_64 GNU/Linux"/>
    <Info name="Dir" value="/uscms_data/d3/xinlongl/projects/XHY4bRun3/X_HY_4b_Run3_BDT/Auxilary/DiscreteBDT_datasetPreparation"/>
    <Info name="Training events" value="60065"/>
    <Info name="TrainingTime" value="2.54566700e+01"/>
    <Info name="AnalysisType" value="Classification"/>
  </GeneralInfo>
  <Options>
    <Option name="V" modified="Yes">False</Option>
    <Option name="VerbosityLevel" modified="No">Default</Option>
    <Option name="VarTransform" modified="No">None</Option>
    <Option name="H" modified="Yes">False</Option>
    <Option name="CreateMVAPdfs" modified="No">False</Option>
    <Option name="IgnoreNegWeightsInTraining" modified="No">False</Option>
    <Option name="NTrees" modified="Yes">2000</Option>
    <Option name="MaxDepth" modified="Yes">2</Option>
    <Option name="MinNodeSize" modified="Yes">2.000000%</Option>
    <Option name="nCuts" modified="Yes">90</Option>
    <Option name="BoostType" modified="Yes">Grad</Option>
    <Option name="AdaBoostR2Loss" modified="No">quadratic</Option>
    <Option name="UseBaggedBoost" modified="Yes">True</Option>
    <Option name="Shrinkage" modified="Yes">3.000000e-02</Option>
    <Option name="AdaBoostBeta" modified="No">5.000000e-01</Option>
    <Option name="UseRandomisedTrees" modified="No">False</Option>
    <Option name="UseNvars" modified="No">2</Option>
    <Option name="UsePoissonNvars" modified="No">True</Option>
    <Option name="BaggedSampleFraction" modified="Yes">5.000000e-01</Option>
    <Option name="UseYesNoLeaf" modified="No">True</Option>
    <Option name="NegWeightTreatment" modified="No">pray</Option>
    <Option name="Css" modified="No">1.000000e+00</Option>
    <Option name="Cts_sb" modified="No">1.000000e+00</Option>
    <Option name="Ctb_ss" modified="No">1.000000e+00</Option>
    <Option name="Cbb" modified="No">1.000000e+00</Option>
    <Option name="NodePurityLimit" modified="No">5.000000e-01</Option>
    <Option name="SeparationType" modified="No">giniindex</Option>
    <Option name="RegressionLossFunctionBDTG" modified="No">huber</Option>
    <Option name="HuberQuantile" modified="No">7.000000e-01</Option>
    <Option name="DoBoostMonitor" modified="No">False</Option>
    <Option name="UseFisherCuts" modified="No">False</Option>
    <Option name="MinLinCorrForFisher" modified="No">8.000000e-01</Option>
    <Option name="UseExclusiveVars" modified="No">False</Option>
    <Option name="DoPreselection" modified="No">False</Option>
    <Option name="SigToBkgFraction" modified="No">1.000000e+00</Option>
    <Option name="PruneMethod" modified="No">nopruning</Option>
    <Option name="PruneStrength" modified="No">0.000000e+00</Option>
    <Option name="PruningValFraction" modified="No">5.000000e-01</Option>
    <Option name="SkipNormalization" modified="No">False</Option>
    <Option name="nEventsMin" modified="No">0</Option>
    <Option name="UseBaggedGrad" modified="No">False</Option>
    <Option name="GradBaggingFraction" modified="No">5.000000e-01</Option>
    <Option name="UseNTrainEvents" modified="No">0</Option>
    <Option name="NNodesMax" modified="No">0</Option>
  </Options>
  <Variables NVar="4">
    <Variable VarIndex="0" Expression="Delta_Y" Label="Delta_Y" Title="Delta_Y" Unit="" Internal="Delta_Y" Type="F" Min="9.46223736e-06" Max="3.94285583e+00"/>
    <Variable VarIndex="1" Expression="MassHiggsCandidate_regressed" Label="MassHiggsCandidate_regressed" Title="MassHiggsCandidate_regressed" Unit="" Internal="MassHiggsCandidate_regressed" Type="F" Min="1.00004639e+02" Max="1.49999115e+02"/>
    <Variable VarIndex="2" Expression="Tagger_H_discrete" Label="Tagger_H_discrete" Title="Tagger_H_discrete" Unit="" Internal="Tagger_H_discrete" Type="F" Min="0.00000000e+00" Max="3.00000000e+00"/>
    <Variable VarIndex="3" Expression="Tagger_Y_discrete" Label="Tagger_Y_discrete" Title="Tagger_Y_discrete" Unit="" Internal="Tagger_Y_discrete" Type="F" Min="0.00000000e+00" Max="3.00000000e+00"/>
  </Variables>
  <Spectators NSpec="0"/>
  <Classes NClass="2">
    <Class Name="Signal" Index="0"/>
    <Class Name="Background" Index="1"/>
  </Classes>
  <Transformations NTransformations="0"/>
  <MVAPdfs/>
  <Weights NTrees="2000" AnalysisType="1">
    <BinaryTree type="DecisionTree" boostWeight="1.0000000000000000e+00" itree="0">
      <Node pos="s" depth="0" NCoef="0" IVar="2" Cut="3.2967034727334976e-02" cType="1" res="4.3416190892457962e-03" rms="4.9998113512992859e-01" purity="5.0434160232543945e-01" nType="0">
        <Node pos="l" depth="1" NCoef="0" IVar="3" Cut="3.2967034727334976e-02" cType="1" res="-1.3873474299907684e-01" rms="4.8036721348762512e-01" purity="3.6126527190208435e-01" nType="0">
          <Node pos="l" depth="2" NCoef="0" IVar="-1" Cut="0.0000000000000000e+00" cType="1" res="-1.1371797882020473e-02" rms="4.6268606185913086e-01" purity="3.1047004461288452e-01" nType="-99"/>
          <Node pos="r" depth="2" NCoef="0" IVar="-1" Cut="0.0000000000000000e+00" cType="1" res="2.3564407601952553e-02" rms="3.0944335460662842e-01" purity="8.9274013042449951e-01" nType="-99"/>
        </Node>
        <Node pos="r" depth="1" NCoef="0" IVar="1" Cut="1.2091712188720703e+02" cType="1" res="4.6723979711532593e-01" rms="1.7800834774971008e-01" purity="9.6723979711532593e-01" nType="0">
          <Node pos="l" depth="2" NCoef="0" IVar="-1" Cut="0.0000000000000000e+00" cType="1" res="2.2019442170858383e-02" rms="3.3958476781845093e-01" purity="8.6699068546295166e-01" nType="-99"/>
          <Node pos="r" depth="2" NCoef="0" IVar="-1" Cut="0.0000000000000000e+00" cType="1" res="2.8895745053887367e-02" rms="1.3440813124179840e-01" purity="9.8159575462341309e-01" nType="-99"/>
        </Node>
      </Node>
    </BinaryTree>
    <BinaryTree type="DecisionTree" boostWeight="1.0000000000000000e+00" itree="1">
      <Node pos="s" depth="0" NCoef="0" IVar="2" Cut="3.2967034727334976e-02" cType="1" res="-2.6915681082755327e-03" rms="4.9480506777763367e-01" purity="4.9741438031196594e-01" nType="0">
        <Node pos="l" depth="1" NCoef="0" IVar="3" Cut="3.2967034727334976e-02" cType="1" res="-1.3942074775695801e-01" rms="4.7721728682518005e-01" purity="3.5647010803222656e-01" nType="0">
          <Node pos="l" depth="2" NCoef="0" IVar="-1" Cut="0.0000000000000000e+00" cType="1" res="-1.1458951979875565e-02" rms="4.5970788598060608e-01" purity="3.0335649847984314e-01" nType="-99"/>
          <Node pos="r" depth="2" NCoef="0" IVar="-1" Cut="0.0000000000000000e+00" cType="1" res="2.2813353687524796e-02" rms="3.1064352393150330e-01" purity="8.9179158210754395e-01" nType="-99"/>
        </Node>
        <Node pos="r" depth="1" NCoef="0" IVar="1" Cut="1.2036756896972656e+02" cType="1" res="4.4868803024291992e-01" rms="1.8923349678516388e-01" purity="9.6270918846130371e-01" nType="0">
          <Node pos="l" depth="2" NCoef="0" IVar="-1" Cut="0.0000000000000000e+00" cType="1" res="1.9863141700625420e-02" rms="3.6483490467071533e-01" purity="8.4189987182617188e-01" nType="-99"/>
          <Node pos="r" depth="2" NCoef="0" IVar="-1" Cut="0.0000000000000000e+00" cType="1" res="2.7852410450577736e-02" rms="1.4593939483165741e-01" purity="9.7822934389114380e-01" nType="-99"/>
        </Node>
      </Node>
    </BinaryTree>
    <BinaryTree type="DecisionTree" boostWeight="1.0000000000000000e+00" itree="2">
      <Node pos="s" depth="0" NCoef="0" IVar="2" Cut="3.2967034727334976e-02" cType="1" res="-3.8984473794698715e-03" rms="4.8976621031761169e-01" purity="4.9612042307853699e-01" nType="0">
        <Node pos="l" depth="1" NCoef="0" IVar="3" Cut="3.2967034727334976e-02" cType="1" res="-1.3707081973552704e-01" rms="4.7497802972793579e-01" purity="3.5473316907882690e-01" nType="0">
          <Node pos="l" depth="2" NCoef="0" IVar="-1" Cut="0.0000000000000000e+00" cType="1" res="-1.1283379048109055e-02" rms="4.5853126049041748e-01" purity="3.0062827467918396e-01" nType="-99"/>
          <Node pos="r" depth="2" NCoef="0" IVar="-1" Cut="0.0000000000000000e+00" cType="1" res="2.1590007469058037e-02" rms="3.2233220338821411e-01" purity="8.8223284482955933e-01" nType="-99"/>
        </Node>
        <Node pos="r" depth="1" NCoef="0" IVar="1" Cut="1.2091517639160156e+02" cType="1" res="4.4153559207916260e-01" rms="1.7279887199401855e-01" purity="9.6903139352798462e-01" nType="0">
          <Node pos="l" depth="2" NCoef="0" IVar="-1" Cut="0.0000000000000000e+00" cType="1" res="2.1621052175760269e-02" rms="3.2382297515869141e-01" purity="8.8090473413467407e-01" nType="-99"/>
          <Node pos="r" depth="2" NCoef="0" IVar="-1" Cut="0.0000000000000000e+00" cType="1" res="2.7241211384534836e-02" rms="1.3685947656631470e-01" purity="9.8090487718582153e-01" nType="-99"/>
        </Node>
      </Node>
    </BinaryTree>
    <BinaryTree type="DecisionTree" boostWeight="1.0000000000000000e+00" itree="3">
      <Node pos="s" depth="0" NCoef="0" IVar="2" Cut="3.2967034727334976e-02" cType="1" res="-7.1479316102340817e-04" rms="4.8503676056861877e-01" purity="4.9949988722801208e-01" nType="0">
        <Node pos="l" depth="1" NCoef="0" IVar="3" Cut="3.2967034727334976e-02" cType="1" res="-1.3041028380393982e-01" rms="4.7418975830078125e-01" purity="3.5734018683433533e-01" nType="0">
          <Node pos="l" depth="2" NCoef="0" IVar="-1" Cut="0.0000000000000000e+00" cType="1" res="-1.0806273669004440e-02" rms="4.5957854390144348e-01" purity="3.0305442214012146e-01" nType="-99"/>
          <Node pos="r" depth="2" NCoef="0" IVar="-1" Cut="0.0000000000000000e+00" cType="1" res="2.0831925794482231e-02" rms="3.2550868391990662e-01" purity="8.7953144311904907e-01" nType="-99"/>
        </Node>
        <Node pos="r" depth="1" NCoef="0" IVar="1" Cut="1.2091793823242188e+02" cType="1" res="4.2092543840408325e-01" rms="1.9136643409729004e-01" purity="9.6166145801544189e-01" nType="0">
          <Node pos="l" depth="2" NCoef="0" IVar="-1" Cut="0.0000000000000000e+00" cType="1" res="1.9333431497216225e-02" rms="3.5418713092803955e-01" purity="8.5285401344299316e-01" nType="-99"/>
          <Node pos="r" depth="2" NCoef="0" IVar="-1" Cut="0.0000000000000000e+00" cType="1" res="2.6231875643134117e-02" rms="1.5297278761863708e-01" purity="9.7602450847625732e-01" nType="-99"/>
        </Node>
      </Node>
    </BinaryTree>
    <BinaryTree type="DecisionTree" boostWeight="1.0000000000000000e+00" itree="4">
      <Node pos="s" depth="0" NCoef="0" IVar="2" Cut="3.2967034727334976e-02" cType="1" res="-3.9461017586290836e-03" rms="4.8068663477897644e-01" purity="4.9588978290557861e-01" nType="0">
        <Node pos="l" depth="1" NCoef="0" IVar="3" Cut="3.2967034727334976e-02" cType="1" res="-1.2851057946681976e-01" rms="4.7215756773948669e-01" purity="3.5513538122177124e-01" nType="0">
          <Node pos="l" depth="2" NCoef="0" IVar="-1" Cut="0.0000000000000000e+00" cType="1" res="-1.0557933710515499e-02" rms="4.5910105109214783e-01" purity="3.0194392800331116e-01" nType="-99"/>
          <Node pos="r" depth="2" NCoef="0" IVar="-1" Cut="0.0000000000000000e+00" cType="1" res="2.0584383979439735e-02" rms="3.1942522525787354e-01" purity="8.8466542959213257e-01" nType="-99"/>
        </Node>
        <Node pos="r" depth="1" NCoef="0" IVar="1" Cut="1.2044200134277344e+02" cType="1" res="4.0651777386665344e-01" rms="1.9552350044250488e-01" purity="9.5970261096954346e-01" nType="0">
          <Node pos="l" depth="2" NCoef="0" IVar="-1" Cut="0.0000000000000000e+00" cType="1" res="1.6487088054418564e-02" rms="3.8890364766120911e-01" purity="8.1424379348754883e-01" nType="-99"/>
          <Node pos="r" depth="2" NCoef="0" IVar="-1" Cut="0.0000000000000000e+00" cType="1" res="2.5781448930501938e-02" rms="1.4234314858913422e-01" purity="9.7931295633316040e-01" nType="-99"/>
        </Node>
      </Node>
    </BinaryTree>
    <BinaryTree type="DecisionTree" boostWeight="1.0000000000000000e+00" itree="5">
      <Node pos="s" depth="0" NCoef="0" IVar="2" Cut="3.2967034727334976e-02" cType="1" res="-9.3142129480838776e-03" rms="4.7617498040199280e-01" purity="4.9020418524742126e-01" nType="0">
        <Node pos="l" depth="1" NCoef="0" IVar="3" Cut="3.2967034727334976e-02" cType="1" res="-1.3236844539642334e-01" rms="4.6848255395889282e-01" purity="3.4735253453254700e-01" nType="0">
          <Node pos="l" depth="2" NCoef="0" IVar="-1" Cut="0.0000000000000000e+00" cType="1" res="-1.0650519281625748e-02" rms="4.5618909597396851e-01" purity="2.9532584547996521e-01" nType="-99"/>
          <Node pos="r" depth="2" NCoef="0" IVar="-1" Cut="0.0000000000000000e+00" cType="1" res="1.9199980422854424e-02" rms="3.3555796742439270e-01" purity="8.7067615985870361e-01" nType="-99"/>
        </Node>
        <Node pos="r" depth="1" NCoef="0" IVar="1" Cut="1.2311145019531250e+02" cType="1" res="4.0034452080726624e-01" rms="1.8084159493446350e-01" purity="9.6577036380767822e-01" nType="0">
          <Node pos="l" depth="2" NCoef="0" IVar="-1" Cut="0.0000000000000000e+00" cType="1" res="2.0395373925566673e-02" rms="3.1235444545745850e-01" purity="8.9001893997192383e-01" nType="-99"/>
          <Node pos="r" depth="2" NCoef="0" IVar="-1" Cut="0.0000000000000000e+00" cType="1" res="2.5223590433597565e-02" rms="1.3897652924060822e-01" purity="9.8029732704162598e-01" nType="-99"/>
        </Node>
      </Node>
    </BinaryTree>
    <BinaryTree type="DecisionTree" boostWeight="1.0000000000000000e+00" itree="6">
      <Node pos="s" depth="0" NCoef="0" IVar="2" Cut="3.2967034727334976e-02" cType="1" res="-1.2791565386578441e-03" rms="4.7174254059791565e-01" purity="4.9880570173263550e-01" nType="0">
        <Node pos="l" depth="1" NCoef="0" IVar="3" Cut="3.2967034727334976e-02" cType="1" res="-1.1940554529428482e-01" rms="4.6914446353912354e-01" purity="3.5710081458091736e-01" nType="0">
          <Node pos="l" depth="2" NCoef="0" IVar="-1" Cut="0.0000000000000000e+00" cType="1" res="-1.0176910087466240e-02" rms="4.5742720365524292e-01" purity="2.9810807108879089e-01" nType="-99"/>
          <Node pos="r" depth="2" NCoef="0" IVar="-1" Cut="0.0000000000000000e+00" cType="1" res="2.0422555506229401e-02" rms="3.0165991187095642e-01" purity="8.9874970912933350e-01" nType="-99"/>
        </Node>
        <Node pos="r" depth="1" NCoef="0" IVar="2" Cut="1.0219780206680298e+00" cType="1" res="3.8635423779487610e-01" rms="1.8577760457992554e-01" purity="9.6381223201751709e-01" nType="0">
          <Node pos="l" depth="2" NCoef="0" IVar="-1" Cut="0.0000000000000000e+00" cType="1" res="2.1452622488141060e-02" rms="2.5987225770950317e-01" purity="9.2621624469757080e-01" nType="-99"/>
          <Node pos="r" depth="2" NCoef="0" IVar="-1" Cut="0.0000000000000000e+00" cType="1" res="2.4959810078144073e-02" rms="1.2700381875038147e-01" purity="9.8347353935241699e-01" nType="-99"/>
        </Node>
      </Node>
    </BinaryTree>
    <BinaryTree type="DecisionTree" boostWeight="1.0000000000000000e+00" itree="7">
      <Node pos="s" depth="0" NCoef="0" IVar="2" Cut="3.2967034727334976e-02" cType="1" res="-2.9572259518317878e-04" rms="4.6888542175292969e-01" purity="4.9889689683914185e-01" nType="0">
        <Node pos="l" depth="1" NCoef="0" IVar="3" Cut="3.2967034727334976e-02" cType="1" res="-1.1065821349620819e-01" rms="4.6990314126014709e-01" purity="3.6192455887794495e-01" nType="0">
          <Node pos="l" depth="2" NCoef="0" IVar="-1" Cut="0.0000000000000000e+00" cType="1" res="-9.3706836923956871e-03" rms="4.6110227704048157e-01" purity="3.0664876103401184e-01" nType="-99"/>
          <Node pos="r" depth="2" NCoef="0" IVar="-1" Cut="0.0000000000000000e+00" cType="1" res="1.9233141094446182e-02" rms="3.1598562002182007e-01" purity="8.8749593496322632e-01" nType="-99"/>
        </Node>
        <Node pos="r" depth="1" NCoef="0" IVar="1" Cut="1.2037220001220703e+02" cType="1" res="3.7220928072929382e-01" rms="1.9172406196594238e-01" purity="9.6121782064437866e-01" nType="0">
          <Node pos="l" depth="2" NCoef="0" IVar="-1" Cut="0.0000000000000000e+00" cType="1" res="1.7111536115407944e-02" rms="3.5637193918228149e-01" purity="8.5058623552322388e-01" nType="-99"/>
          <Node pos="r" depth="2" NCoef="0" IVar="-1" Cut="0.0000000000000000e+00" cType="1" res="2.3855023086071014e-02" rms="1.5400107204914093e-01" purity="9.7564941644668579e-01" nType="-99"/>
        </Node>
      </Node>
    </BinaryTree>
    <BinaryTree type="DecisionTree" boostWeight="1.0000000000000000e+00" itree="8">
      <Node pos="s" depth="0" NCoef="0" IVar="2" Cut="3.2967034727334976e-02" cType="1" res="2.0357521716505289e-03" rms="4.6514007449150085e-01" purity="5.0180923938751221e-01" nType="0">
        <Node pos="l" depth="1" NCoef="0" IVar="3" Cut="3.2967034727334976e-02" cType="1" res="-1.0653431713581085e-01" rms="4.6887895464897156e-01" purity="3.6273199319839478e-01" nType="0">
          <Node pos="l" depth="2" NCoef="0" IVar="-1" Cut="0.0000000000000000e+00" cType="1" res="-9.0728551149368286e-03" rms="4.6131488680839539e-01" purity="3.0715659260749817e-01" nType="-99"/>
          <Node pos="r" depth="2" NCoef="0" IVar="-1" Cut="0.0000000000000000e+00" cType="1" res="1.8988335505127907e-02" rms="3.1161901354789734e-01" purity="8.9101606607437134e-01" nType="-99"/>
        </Node>
        <Node pos="r" depth="1" NCoef="0" IVar="1" Cut="1.2037220001220703e+02" cType="1" res="3.5816770792007446e-01" rms="1.9850678741931915e-01" purity="9.5801103115081787e-01" nType="0">
          <Node pos="l" depth="2" NCoef="0" IVar="-1" Cut="0.0000000000000000e+00" cType="1" res="1.4390598982572556e-02" rms="3.8951164484024048e-01" purity="8.1328874826431274e-01" nType="-99"/>
          <Node pos="r" depth="2" NCoef="0" IVar="-1" Cut="0.0000000000000000e+00" cType="1" res="2.3551743477582932e-02" rms="1.4429876208305359e-01" purity="9.7869843244552612e-01" nType="-99"/>
        </Node>
      </Node>
    </BinaryTree>
    <BinaryTree type="DecisionTree" boostWeight="1.0000000000000000e+00" itree="9">
      <Node pos="s" depth="0" NCoef="0" IVar="2" Cut="3.2967034727334976e-02" cType="1" res="5.6084338575601578e-03" rms="4.6179312467575073e-01" purity="5.0559270381927490e-01" nType="0">
        <Node pos="l" depth="1" NCoef="0" IVar="3" Cut="3.2967034727334976e-02" cType="1" res="-1.0063485801219940e-01" rms="4.6884053945541382e-01" purity="3.6538955569267273e-01" nType="0">
          <Node pos="l" depth="2" NCoef="0" IVar="-1" Cut="0.0000000000000000e+00" cType="1" res="-8.5787773132324219e-03" rms="4.6292847394943237e-01" purity="3.1106293201446533e-01" nType="-99"/>
          <Node pos="r" depth="2" NCoef="0" IVar="-1" Cut="0.0000000000000000e+00" cType="1" res="1.8095290288329124e-02" rms="3.2047209143638611e-01" purity="8.8379377126693726e-01" nType="-99"/>
        </Node>
        <Node pos="r" depth="1" NCoef="0" IVar="1" Cut="1.2037622070312500e+02" cType="1" res="3.5232651233673096e-01" rms="1.8654619157314301e-01" purity="9.6313661336898804e-01" nType="0">
          <Node pos="l" depth="2" NCoef="0" IVar="-1" Cut="0.0000000000000000e+00" cType="1" res="1.6098808497190475e-02" rms="3.5994908213615417e-01" purity="8.4682112932205200e-01" nType="-99"/>
          <Node pos="r" depth="2" NCoef="0" IVar="-1" Cut="0.0000000000000000e+00" cType="1" res="2.3053485900163651e-02" rms="1.4584182202816010e-01" purity="9.7821968793869019e-01" nType="-99"/>
        </Node>
      </Node>
    </BinaryTree>
    <BinaryTree type="DecisionTree" boostWeight="1.0000000000000000e+00" itree="10">
      <Node pos="s" depth="0" NCoef="0" IVar="2" Cut="3.2967034727334976e-02" cType="1" res="5.9344321489334106e-03" rms="4.5756018161773682e-01" purity="5.0718230009078979e-01" nType="0">
        <Node pos="l" depth="1" NCoef="0" IVar="3" Cut="3.2967034727334976e-02" cType="1" res="-1.0015580803155899e-01" rms="4.6636959910392761e-01" purity="3.6328014731407166e-01" nType="0">
          <Node pos="l" depth="2" NCoef="0" IVar="-1" Cut="0.0000000000000000e+00" cType="1" res="-8.6593814194202423e-03" rms="4.6071425080299377e-01" purity="3.0572602152824402e-01" nType="-99"/>
          <Node pos="r" depth="2" NCoef="0" IVar="-1" Cut="0.0000000000000000e+00" cType="1" res="1.8377916887402534e-02" rms="3.0657511949539185e-01" purity="8.9498317241668701e-01" nType="-99"/>
        </Node>
        <Node pos="r" depth="1" NCoef="0" IVar="0" Cut="1.1519443988800049e+00" cType="1" res="3.4205937385559082e-01" rms="1.8690679967403412e-01" purity="9.6310651302337646e-01" nType="0">
          <Node pos="l" depth="2" NCoef="0" IVar="-1" Cut="0.0000000000000000e+00" cType="1" res="2.2535499185323715e-02" rms="1.5642444789409637e-01" purity="9.7443622350692749e-01" nType="-99"/>
          <Node pos="r" depth="2" NCoef="0" IVar="-1" Cut="0.0000000000000000e+00" cType="1" res="1.6897559165954590e-02" rms="3.1470438838005066e-01" purity="8.8631713390350342e-01" nType="-99"/>
        </Node>
      </Node>
    </BinaryTree>
    <BinaryTree type="DecisionTree" boostWeight="1.0000000000000000e+00" itree="11">
      <Node pos="s" depth="0" NCoef="0" IVar="2" Cut="3.2967034727334976e-02" cType="1" res="3.2077641226351261e-03" rms="4.5590326189994812e-01" purity="5.0198030471801758e-01" nType="0">
        <Node pos="l" depth="1" NCoef="0" IVar="3" Cut="3.2967034727334976e-02" cType="1" res="-9.4107054173946381e-02" rms="4.6663832664489746e-01" purity="3.6530062556266785e-01" nType="0">
          <Node pos="l" depth="2" NCoef="0" IVar="-1" Cut="0.0000000000000000e+00" cType="1" res="-8.1015778705477715e-03" rms="4.6285876631736755e-01" purity="3.1089219450950623e-01" nType="-99"/>
          <Node pos="r" depth="2" NCoef="0" IVar="-1" Cut="0.0000000000000000e+00" cType="1" res="1.8633471801877022e-02" rms="2.9246416687965393e-01" purity="9.0554249286651611e-01" nType="-99"/>
        </Node>
        <Node pos="r" depth="1" NCoef="0" IVar="1" Cut="1.2093373107910156e+02" cType="1" res="3.3146750926971436e-01" rms="1.8639311194419861e-01" purity="9.6302467584609985e-01" nType="0">
          <Node pos="l" depth="2" NCoef="0" IVar="-1" Cut="0.0000000000000000e+00" cType="1" res="1.4841722324490547e-02" rms="3.6389532685279846e-01" purity="8.4214335680007935e-01" nType="-99"/>
          <Node pos="r" depth="2" NCoef="0" IVar="-1" Cut="0.0000000000000000e+00" cType="1" res="2.2305648773908615e-02" rms="1.4081566035747528e-01" purity="9.7971731424331665e-01" nType="-99"/>
        </Node>
      </Node>
    </BinaryTree>
    <BinaryTree type="DecisionTree" boostWeight="1.0000000000000000e+00" itree="12">
      <Node pos="s" depth="0" NCoef="0" IVar="2" Cut="3.2967034727334976e-02" cType="1" res="-6.6541950218379498e-03" rms="4.5247915387153625e-01" purity="4.9204435944557190e-01" nType="0">
        <Node pos="l" depth="1" NCoef="0" IVar="1" Cut="1.2307963562011719e+02" cType="1" res="-1.0318208485841751e-01" rms="4.6218374371528625e-01" purity="3.5291525721549988e-01" nType="0">
          <Node pos="l" depth="2" NCoef="0" IVar="-1" Cut="0.0000000000000000e+00" cType="1" res="-1.4865415170788765e-02" rms="3.9142712950706482e-01" purity="2.0827734470367432e-01" nType="-99"/>
          <Node pos="r" depth="2" NCoef="0" IVar="-1" Cut="0.0000000000000000e+00" cType="1" res="1.2993827112950385e-04" rms="4.8276191949844360e-01" purity="4.6143335103988647e-01" nType="-99"/>
        </Node>
        <Node pos="r" depth="1" NCoef="0" IVar="1" Cut="1.2037220001220703e+02" cType="1" res="3.1656962633132935e-01" rms="1.9834551215171814e-01" purity="9.5791840553283691e-01" nType="0">
          <Node pos="l" depth="2" NCoef="0" IVar="-1" Cut="0.0000000000000000e+00" cType="1" res="1.3842592947185040e-02" rms="3.7436041235923767e-01" purity="8.3107072114944458e-01" nType="-99"/>
          <Node pos="r" depth="2" NCoef="0" IVar="-1" Cut="0.0000000000000000e+00" cType="1" res="2.1599821746349335e-02" rms="1.5627221763134003e-01" purity="9.7488218545913696e-01" nType="-99"/>
        </Node>
      </Node>
    </BinaryTree>
    <BinaryTree type="DecisionTree" boostWeight="1.0000000000000000e+00" itree="13">
      <Node pos="s" depth="0" NCoef="0" IVar="2" Cut="3.2967034727334976e-02" cType="1" res="2.0905866404064000e-04" rms="4.5105496048927307e-01" purity="4.9886697530746460e-01" nType="0">
        <Node pos="l" depth="1" NCoef="0" IVar="1" Cut="1.2307899475097656e+02" cType="1" res="-9.0437322854995728e-02" rms="4.6477228403091431e-01" purity="3.6384570598602295e-01" nType="0">
          <Node pos="l" depth="2" NCoef="0" IVar="-1" Cut="0.0000000000000000e+00" cType="1" res="-1.3824927620589733e-02" rms="3.9887467026710510e-01" purity="2.2045914828777313e-01" nType="-99"/>
          <Node pos="r" depth="2" NCoef="0" IVar="-1" Cut="0.0000000000000000e+00" cType="1" res="2.4572736583650112e-04" rms="4.8378583788871765e-01" purity="4.6395707130432129e-01" nType="-99"/>
        </Node>
        <Node pos="r" depth="1" NCoef="0" IVar="1" Cut="1.2202035522460938e+02" cType="1" res="3.1145733594894409e-01" rms="1.8768469989299774e-01" purity="9.6248334646224976e-01" nType="0">
          <Node pos="l" depth="2" NCoef="0" IVar="-1" Cut="0.0000000000000000e+00" cType="1" res="1.5375268645584583e-02" rms="3.4093046188354492e-01" purity="8.6458098888397217e-01" nType="-99"/>
          <Node pos="r" depth="2" NCoef="0" IVar="-1" Cut="0.0000000000000000e+00" cType="1" res="2.1438546478748322e-02" rms="1.4606957137584686e-01" purity="9.7813320159912109e-01" nType="-99"/>
        </Node>
      </Node>
    </BinaryTree>
    <BinaryTree type="DecisionTree" boostWeight="1.0000000000000000e+00" itree="14">
      <Node pos="s" depth="0" NCoef="0" IVar="2" Cut="3.2967034727334976e-02" cType="1" res="7.4845794588327408e-03" rms="4.4686105847358704e-01" purity="5.0872474908828735e-01" nType="0">
        <Node pos="l" depth="1" NCoef="0" IVar="3" Cut="3.2967034727334976e-02" cType="1" res="-8.3945788443088531e-02" rms="4.6399945020675659e-01" purity="3.6778780817985535e-01" nType="0">
          <Node pos="l" depth="2" NCoef="0" IVar="-1" Cut="0.0000000000000000e+00" cType="1" res="-7.5202835723757744e-03" rms="4.6112823486328125e-01" purity="3.1114709377288818e-01" nType="-99"/>
          <Node pos="r" depth="2" NCoef="0" IVar="-1" Cut="0.0000000000000000e+00" cType="1" res="1.7900016158819199e-02" rms="3.0237102508544922e-01" purity="8.9733105897903442e-01" nType="-99"/>
        </Node>
        <Node pos="r" depth="1" NCoef="0" IVar="0" Cut="1.1442230939865112e+00" cType="1" res="3.0078396201133728e-01" rms="1.9174541532993317e-01" purity="9.6083623170852661e-01" nType="0">
          <Node pos="l" depth="2" NCoef="0" IVar="-1" Cut="0.0000000000000000e+00" cType="1" res="2.0782757550477982e-02" rms="1.6631890833377838e-01" purity="9.7079998254776001e-01" nType="-99"/>
          <Node pos="r" depth="2" NCoef="0" IVar="-1" Cut="0.0000000000000000e+00" cType="1" res="1.5526809729635715e-02" rms="3.0798390507698059e-01" purity="8.9142966270446777e-01" nType="-99"/>
        </Node>
      </Node>
    </BinaryTree>
    <BinaryTree type="DecisionTree" boostWeight="1.0000000000000000e+00" itree="15">
      <Node pos="s" depth="0" NCoef="0" IVar="2" Cut="3.2967034727334976e-02" cType="1" res="-3.9048870094120502e-03" rms="4.4356581568717957e-01" purity="4.9517223238945007e-01" nType="0">
        <Node pos="l" depth="1" NCoef="0" IVar="3" Cut="3.2967034727334976e-02" cType="1" res="-9.5278367400169373e-02" rms="4.5953577756881714e-01" purity="3.5251453518867493e-01" nType="0">
          <Node pos="l" depth="2" NCoef="0" IVar="-1" Cut="0.0000000000000000e+00" cType="1" res="-8.0252503976225853e-03" rms="4.5631259679794312e-01" purity="2.9943177103996277e-01" nType="-99"/>
          <Node pos="r" depth="2" NCoef="0" IVar="-1" Cut="0.0000000000000000e+00" cType="1" res="1.7310198396444321e-02" rms="3.0677399039268494e-01" purity="8.9434152841567993e-01" nType="-99"/>
        </Node>
        <Node pos="r" depth="1" NCoef="0" IVar="0" Cut="1.1198048591613770e+00" cType="1" res="2.9994094371795654e-01" rms="1.6942702233791351e-01" purity="9.6955448389053345e-01" nType="0">
          <Node pos="l" depth="2" NCoef="0" IVar="-1" Cut="0.0000000000000000e+00" cType="1" res="2.1056361496448517e-02" rms="1.3739675283432007e-01" purity="9.8037415742874146e-01" nType="-99"/>
          <Node pos="r" depth="2" NCoef="0" IVar="-1" Cut="0.0000000000000000e+00" cType="1" res="1.5887973830103874e-02" rms="2.9417070746421814e-01" purity="9.0065443515777588e-01" nType="-99"/>
        </Node>
      </Node>
    </BinaryTree>
    <BinaryTree type="DecisionTree" boostWeight="1.0000000000000000e+00" itree="16">
      <Node pos="s" depth="0" NCoef="0" IVar="2" Cut="3.2967034727334976e-02" cType="1" res="-7.3819923272822052e-05" rms="4.4306120276451111e-01" purity="4.9876776337623596e-01" nType="0">
        <Node pos="l" depth="1" NCoef="0" IVar="1" Cut="1.2527700805664062e+02" cType="1" res="-8.4684379398822784e-02" rms="4.6147200465202332e-01" purity="3.6093038320541382e-01" nType="0">
          <Node pos="l" depth="2" NCoef="0" IVar="-1" Cut="0.0000000000000000e+00" cType="1" res="-1.2895496562123299e-02" rms="4.0160772204399109e-01" purity="2.2521436214447021e-01" nType="-99"/>
          <Node pos="r" depth="2" NCoef="0" IVar="-1" Cut="0.0000000000000000e+00" cType="1" res="1.6955985920503736e-03" rms="4.8282176256179810e-01" purity="4.8360356688499451e-01" nType="-99"/>
        </Node>
        <Node pos="r" depth="1" NCoef="0" IVar="0" Cut="1.1095590591430664e+00" cType="1" res="2.8466984629631042e-01" rms="1.8731863796710968e-01" purity="9.6263808012008667e-01" nType="0">
          <Node pos="l" depth="2" NCoef="0" IVar="-1" Cut="0.0000000000000000e+00" cType="1" res="2.0387098193168640e-02" rms="1.5465207397937775e-01" purity="9.7492963075637817e-01" nType="-99"/>
          <Node pos="r" depth="2" NCoef="0" IVar="-1" Cut="0.0000000000000000e+00" cType="1" res="1.4270951971411705e-02" rms="3.1934753060340881e-01" purity="8.8185161352157593e-01" nType="-99"/>
        </Node>
      </Node>
    </BinaryTree>
    <BinaryTree type="DecisionTree" boostWeight="1.0000000000000000e+00" itree="17">
      <Node pos="s" depth="0" NCoef="0" IVar="2" Cut="3.2967034727334976e-02" cType="1" res="3.5015640314668417e-03" rms="4.4002065062522888e-01" purity="5.0467920303344727e-01" nType="0">
        <Node pos="l" depth="1" NCoef="0" IVar="1" Cut="1.2362840270996094e+02" cType="1" res="-8.1377752125263214e-02" rms="4.6124520897865295e-01" purity="3.6118710041046143e-01" nType="0">
          <Node pos="l" depth="2" NCoef="0" IVar="-1" Cut="0.0000000000000000e+00" cType="1" res="-1.3109650462865829e-02" rms="3.9358755946159363e-01" purity="2.1629498898983002e-01" nType="-99"/>
          <Node pos="r" depth="2" NCoef="0" IVar="-1" Cut="0.0000000000000000e+00" cType="1" res="9.5751119079068303e-04" rms="4.8357990384101868e-01" purity="4.6920010447502136e-01" nType="-99"/>
        </Node>
        <Node pos="r" depth="1" NCoef="0" IVar="1" Cut="1.2038543701171875e+02" cType="1" res="2.7214857935905457e-01" rms="1.9519272446632385e-01" purity="9.5883834362030029e-01" nType="0">
          <Node pos="l" depth="2" NCoef="0" IVar="-1" Cut="0.0000000000000000e+00" cType="1" res="9.7976112738251686e-03" rms="3.9812114834785461e-01" purity="8.0122983455657959e-01" nType="-99"/>
          <Node pos="r" depth="2" NCoef="0" IVar="-1" Cut="0.0000000000000000e+00" cType="1" res="2.0221695303916931e-02" rms="1.4373435080051422e-01" purity="9.7878867387771606e-01" nType="-99"/>
        </Node>
      </Node>
    </BinaryTree>
    <BinaryTree type="DecisionTree" boostWeight="1.0000000000000000e+00" itree="18">
      <Node pos="s" depth="0" NCoef="0" IVar="2" Cut="3.2967034727334976e-02" cType="1" res="1.2890233192592859e-03" rms="4.3689674139022827e-01" purity="5.0058847665786743e-01" nType="0">
        <Node pos="l" depth="1" NCoef="0" IVar="3" Cut="3.2967034727334976e-02" cType="1" res="-8.0271162092685699e-02" rms="4.5841637253761292e-01" purity="3.6025869846343994e-01" nType="0">
          <Node pos="l" depth="2" NCoef="0" IVar="-1" Cut="0.0000000000000000e+00" cType="1" res="-7.1851164102554321e-03" rms="4.5681270956993103e-01" purity="3.0493289232254028e-01" nType="-99"/>
          <Node pos="r" depth="2" NCoef="0" IVar="-1" Cut="0.0000000000000000e+00" cType="1" res="1.8169553950428963e-02" rms="2.8251463174819946e-01" purity="9.1111439466476440e-01" nType="-99"/>
        </Node>
        <Node pos="r" depth="1" NCoef="0" IVar="1" Cut="1.2036678314208984e+02" cType="1" res="2.7201673388481140e-01" rms="1.7762662470340729e-01" purity="9.6639376878738403e-01" nType="0">
          <Node pos="l" depth="2" NCoef="0" IVar="-1" Cut="0.0000000000000000e+00" cType="1" res="1.4081536792218685e-02" rms="3.3642414212226868e-01" purity="8.6922860145568848e-01" nType="-99"/>
          <Node pos="r" depth="2" NCoef="0" IVar="-1" Cut="0.0000000000000000e+00" cType="1" res="2.0004970952868462e-02" rms="1.4049781858921051e-01" purity="9.7976517677307129e-01" nType="-99"/>
        </Node>
      </Node>
    </BinaryTree>
    <BinaryTree type="DecisionTree" boostWeight="1.0000000000000000e+00" itree="19">
      <Node pos="s" depth="0" NCoef="0" IVar="2" Cut="3.2967034727334976e-02" cType="1" res="9.2528266832232475e-03" rms="4.3589252233505249e-01" purity="5.1044559478759766e-01" nType="0">
        <Node pos="l" depth="1" NCoef="0" IVar="3" Cut="3.2967034727334976e-02" cType="1" res="-6.8114377558231354e-02" rms="4.6112242341041565e-01" purity="3.7102517485618591e-01" nType="0">
          <Node pos="l" depth="2" NCoef="0" IVar="-1" Cut="0.0000000000000000e+00" cType="1" res="-6.3467463478446007e-03" rms="4.6131527423858643e-01" purity="3.1532743573188782e-01" nType="-99"/>
          <Node pos="r" depth="2" NCoef="0" IVar="-1" Cut="0.0000000000000000e+00" cType="1" res="1.6839371994137764e-02" rms="3.0366027355194092e-01" purity="8.9613330364227295e-01" nType="-99"/>
        </Node>
        <Node pos="r" depth="1" NCoef="0" IVar="1" Cut="1.2043737792968750e+02" cType="1" res="2.6045379042625427e-01" rms="1.8434731662273407e-01" purity="9.6312499046325684e-01" nType="0">
          <Node pos="l" depth="2" NCoef="0" IVar="-1" Cut="0.0000000000000000e+00" cType="1" res="1.0017041116952896e-02" rms="3.8866913318634033e-01" purity="8.1325209140777588e-01" nType="-99"/>
          <Node pos="r" depth="2" NCoef="0" IVar="-1" Cut="0.0000000000000000e+00" cType="1" res="1.9990256056189537e-02" rms="1.2728068232536316e-01" purity="9.8343807458877563e-01" nType="-99"/>
        </Node>
      </Node>
    </BinaryTree>
    <BinaryTree type="DecisionTree" boostWeight="1.0000000000000000e+00" itree="20">
      <Node pos="s" depth="0" NCoef="0" IVar="2" Cut="3.2967034727334976e-02" cType="1" res="1.5049765352159739e-03" rms="4.3366563320159912e-01" purity="5.0240892171859741e-01" nType="0">
        <Node pos="l" depth="1" NCoef="0" IVar="1" Cut="1.2527639007568359e+02" cType="1" res="-7.5857043266296387e-02" rms="4.5818293094635010e-01" purity="3.6046254634857178e-01" nType="0">
          <Node pos="l" depth="2" NCoef="0" IVar="-1" Cut="0.0000000000000000e+00" cType="1" res="-1.2293455190956593e-02" rms="3.9599978923797607e-01" purity="2.2091116011142731e-01" nType="-99"/>
          <Node pos="r" depth="2" NCoef="0" IVar="-1" Cut="0.0000000000000000e+00" cType="1" res="1.6482153441756964e-03" rms="4.8186007142066956e-01" purity="4.7905790805816650e-01" nType="-99"/>
        </Node>
        <Node pos="r" depth="1" NCoef="0" IVar="1" Cut="1.1981838989257812e+02" cType="1" res="2.5212028622627258e-01" rms="1.8717740476131439e-01" purity="9.6224617958068848e-01" nType="0">
          <Node pos="l" depth="2" NCoef="0" IVar="-1" Cut="0.0000000000000000e+00" cType="1" res="1.1207796633243561e-02" rms="3.7131795287132263e-01" purity="8.3418345451354980e-01" nType="-99"/>
          <Node pos="r" depth="2" NCoef="0" IVar="-1" Cut="0.0000000000000000e+00" cType="1" res="1.9382039085030556e-02" rms="1.4481951296329498e-01" purity="9.7842895984649658e-01" nType="-99"/>
        </Node>
      </Node>
    </BinaryTree>
    <BinaryTree type="DecisionTree" boostWeight="1.0000000000000000e+00" itree="21">
      <Node pos="s" depth="0" NCoef="0" IVar="2" Cut="3.2967034727334976e-02" cType="1" res="-8.1493183970451355e-03" rms="4.3127813935279846e-01" purity="4.9162074923515320e-01" nType="0">
        <Node pos="l" depth="1" NCoef="0" IVar="3" Cut="3.2967034727334976e-02" cType="1" res="-8.2661911845207214e-02" rms="4.5402455329895020e-01" purity="3.5154777765274048e-01" nType="0">
          <Node pos="l" depth="2" NCoef="0" IVar="-1" Cut="0.0000000000000000e+00" cType="1" res="-7.1837445721030235e-03" rms="4.5276764035224915e-01" purity="2.9663053154945374e-01" nType="-99"/>
          <Node pos="r" depth="2" NCoef="0" IVar="-1" Cut="0.0000000000000000e+00" cType="1" res="1.5495895408093929e-02" rms="3.2280251383781433e-01" purity="8.7938874959945679e-01" nType="-99"/>
        </Node>
        <Node pos="r" depth="1" NCoef="0" IVar="0" Cut="1.1515978574752808e+00" cType="1" res="2.3981736600399017e-01" rms="1.9754059612751007e-01" purity="9.5776247978210449e-01" nType="0">
          <Node pos="l" depth="2" NCoef="0" IVar="-1" Cut="0.0000000000000000e+00" cType="1" res="1.8763167783617973e-02" rms="1.6465105116367340e-01" purity="9.7148251533508301e-01" nType="-99"/>
          <Node pos="r" depth="2" NCoef="0" IVar="-1" Cut="0.0000000000000000e+00" cType="1" res="1.0885660536587238e-02" rms="3.4036877751350403e-01" purity="8.5857498645782471e-01" nType="-99"/>
        </Node>
      </Node>
    </BinaryTree>
    <BinaryTree type="DecisionTree" boostWeight="1.0000000000000000e+00" itree="22">
      <Node pos="s" depth="0" NCoef="0" IVar="2" Cut="3.2967034727334976e-02" cType="1" res="-8.2065528258681297e-03" rms="4.3166935443878174e-01" purity="4.8998382687568665e-01" nType="0">
        <Node pos="l" depth="1" NCoef="0" IVar="1" Cut="1.2252960205078125e+02" cType="1" res="-7.8202731907367706e-02" rms="4.5542353391647339e-01" purity="3.5289660096168518e-01" nType="0">
          <Node pos="l" depth="2" NCoef="0" IVar="-1" Cut="0.0000000000000000e+00" cType="1" res="-1.2637398205697536e-02" rms="3.8677510619163513e-01" purity="2.0534774661064148e-01" nType="-99"/>
          <Node pos="r" depth="2" NCoef="0" IVar="-1" Cut="0.0000000000000000e+00" cType="1" res="8.2476792158558965e-05" rms="4.7860595583915710e-01" purity="4.4906696677207947e-01" nType="-99"/>
        </Node>
        <Node pos="r" depth="1" NCoef="0" IVar="1" Cut="1.2310964202880859e+02" cType="1" res="2.2867056727409363e-01" rms="2.0575703680515289e-01" purity="9.5390671491622925e-01" nType="0">
          <Node pos="l" depth="2" NCoef="0" IVar="-1" Cut="0.0000000000000000e+00" cType="1" res="1.0145791806280613e-02" rms="3.6614641547203064e-01" purity="8.3763206005096436e-01" nType="-99"/>
          <Node pos="r" depth="2" NCoef="0" IVar="-1" Cut="0.0000000000000000e+00" cType="1" res="1.8653733655810356e-02" rms="1.5392926335334778e-01" purity="9.7550016641616821e-01" nType="-99"/>
        </Node>
      </Node>
    </BinaryTree>
    <BinaryTree type="DecisionTree" boostWeight="1.0000000000000000e+00" itree="23">
      <Node pos="s" depth="0" NCoef="0" IVar="2" Cut="3.2967034727334976e-02" cType="1" res="7.4518225155770779e-03" rms="4.2947444319725037e-01" purity="5.0700378417968750e-01" nType="0">
        <Node pos="l" depth="1" NCoef="0" IVar="1" Cut="1.2747381591796875e+02" cType="1" res="-6.0766793787479401e-02" rms="4.5869448781013489e-01" purity="3.6819285154342651e-01" nType="0">
          <Node pos="l" depth="2" NCoef="0" IVar="-1" Cut="0.0000000000000000e+00" cType="1" res="-1.0345822200179100e-02" rms="4.0931928157806396e-01" purity="2.4258166551589966e-01" nType="-99"/>
          <Node pos="r" depth="2" NCoef="0" IVar="-1" Cut="0.0000000000000000e+00" cType="1" res="2.5673459749668837e-03" rms="4.8162809014320374e-01" purity="4.9285268783569336e-01" nType="-99"/>
        </Node>
        <Node pos="r" depth="1" NCoef="0" IVar="2" Cut="1.0219780206680298e+00" cType="1" res="2.3231062293052673e-01" rms="1.8167121708393097e-01" purity="9.6454542875289917e-01" nType="0">
          <Node pos="l" depth="2" NCoef="0" IVar="-1" Cut="0.0000000000000000e+00" cType="1" res="1.4938906766474247e-02" rms="2.5703474879264832e-01" purity="9.2597979307174683e-01" nType="-99"/>
          <Node pos="r" depth="2" NCoef="0" IVar="-1" Cut="0.0000000000000000e+00" cType="1" res="1.9357383251190186e-02" rms="1.1842405050992966e-01" purity="9.8539966344833374e-01" nType="-99"/>
        </Node>
      </Node>
    </BinaryTree>
    <BinaryTree type="DecisionTree" boostWeight="1.0000000000000000e+00" itree="24">
      <Node pos="s" depth="0" NCoef="0" IVar="2" Cut="3.2967034727334976e-02" cType="1" res="1.1419579386711121e-03" rms="4.2833593487739563e-01" purity="5.0044584274291992e-01" nType="0">
        <Node pos="l" depth="1" NCoef="0" IVar="1" Cut="1.2362782287597656e+02" cType="1" res="-6.4637489616870880e-02" rms="4.5651286840438843e-01" purity="3.6214855313301086e-01" nType="0">
          <Node pos="l" depth="2" NCoef="0" IVar="-1" Cut="0.0000000000000000e+00" cType="1" res="-1.1429945006966591e-02" rms="3.9418634772300720e-01" purity="2.1596896648406982e-01" nType="-99"/>
          <Node pos="r" depth="2" NCoef="0" IVar="-1" Cut="0.0000000000000000e+00" cType="1" res="1.4044474810361862e-03" rms="4.8065313696861267e-01" purity="4.7319301962852478e-01" nType="-99"/>
        </Node>
        <Node pos="r" depth="1" NCoef="0" IVar="1" Cut="1.2037220001220703e+02" cType="1" res="2.1821750700473785e-01" rms="1.9948135316371918e-01" purity="9.5683401823043823e-01" nType="0">
          <Node pos="l" depth="2" NCoef="0" IVar="-1" Cut="0.0000000000000000e+00" cType="1" res="9.4351731240749359e-03" rms="3.7703719735145569e-01" purity="8.2746309041976929e-01" nType="-99"/>
          <Node pos="r" depth="2" NCoef="0" IVar="-1" Cut="0.0000000000000000e+00" cType="1" res="1.8131626769900322e-02" rms="1.5717445313930511e-01" purity="9.7449958324432373e-01" nType="-99"/>
        </Node>
      </Node>
    </BinaryTree>
    <BinaryTree type="DecisionTree" boostWeight="1.0000000000000000e+00" itree="25">
      <Node pos="s" depth="0" NCoef="0" IVar="2" Cut="3.2967034727334976e-02" cType="1" res="-3.1428483780473471e-03" rms="4.2493441700935364e-01" purity="4.9616789817810059e-01" nType="0">
        <Node pos="l" depth="1" NCoef="0" IVar="3" Cut="3.2967034727334976e-02" cType="1" res="-7.0287138223648071e-02" rms="4.5340093970298767e-01" purity="3.5345599055290222e-01" nType="0">
          <Node pos="l" depth="2" NCoef="0" IVar="-1" Cut="0.0000000000000000e+00" cType="1" res="-6.3133393414318562e-03" rms="4.5345845818519592e-01" purity="3.0147197842597961e-01" nType="-99"/>
          <Node pos="r" depth="2" NCoef="0" IVar="-1" Cut="0.0000000000000000e+00" cType="1" res="1.6154251992702484e-02" rms="3.0838114023208618e-01" purity="8.9029961824417114e-01" nType="-99"/>
        </Node>
        <Node pos="r" depth="1" NCoef="0" IVar="1" Cut="1.1982797241210938e+02" cType="1" res="2.1512266993522644e-01" rms="1.9234493374824524e-01" purity="9.6008044481277466e-01" nType="0">
          <Node pos="l" depth="2" NCoef="0" IVar="-1" Cut="0.0000000000000000e+00" cType="1" res="1.0382641106843948e-02" rms="3.6211621761322021e-01" purity="8.4362119436264038e-01" nType="-99"/>
          <Node pos="r" depth="2" NCoef="0" IVar="-1" Cut="0.0000000000000000e+00" cType="1" res="1.8002703785896301e-02" rms="1.5441532433032990e-01" purity="9.7546839714050293e-01" nType="-99"/>
        </Node>
      </Node>
    </BinaryTree>
    <BinaryTree type="DecisionTree" boostWeight="1.0000000000000000e+00" itree="26">
      <Node pos="s" depth="0" NCoef="0" IVar="2" Cut="3.2967034727334976e-02" cType="1" res="2.0015726331621408e-03" rms="4.2454054951667786e-01" purity="5.0337082147598267e-01" nType="0">
        <Node pos="l" depth="1" NCoef="0" IVar="1" Cut="1.2033206176757812e+02" cType="1" res="-6.0767833143472672e-02" rms="4.5492655038833618e-01" purity="3.6429563164710999e-01" nType="0">
          <Node pos="l" depth="2" NCoef="0" IVar="-1" Cut="0.0000000000000000e+00" cType="1" res="-1.2555622495710850e-02" rms="3.7582588195800781e-01" purity="1.9234439730644226e-01" nType="-99"/>
          <Node pos="r" depth="2" NCoef="0" IVar="-1" Cut="0.0000000000000000e+00" cType="1" res="1.0307916672900319e-03" rms="4.7779071331024170e-01" purity="4.6298113465309143e-01" nType="-99"/>
        </Node>
        <Node pos="r" depth="1" NCoef="0" IVar="1" Cut="1.1982117462158203e+02" cType="1" res="2.0747637748718262e-01" rms="1.9400578737258911e-01" purity="9.5863169431686401e-01" nType="0">
          <Node pos="l" depth="2" NCoef="0" IVar="-1" Cut="0.0000000000000000e+00" cType="1" res="7.6760957017540932e-03" rms="3.9154776930809021e-01" purity="8.0862015485763550e-01" nType="-99"/>
          <Node pos="r" depth="2" NCoef="0" IVar="-1" Cut="0.0000000000000000e+00" cType="1" res="1.8055699765682220e-02" rms="1.4375664293766022e-01" purity="9.7866648435592651e-01" nType="-99"/>
        </Node>
      </Node>
    </BinaryTree>
    <BinaryTree type="DecisionTree" boostWeight="1.0000000000000000e+00" itree="27">
      <Node pos="s" depth="0" NCoef="0" IVar="2" Cut="3.2967034727334976e-02" cType="1" res="2.1916124969720840e-03" rms="4.2082619667053223e-01" purity="5.0241714715957642e-01" nType="0">
        <Node pos="l" depth="1" NCoef="0" IVar="3" Cut="3.2967034727334976e-02" cType="1" res="-6.1277665197849274e-02" rms="4.5258930325508118e-01" purity="3.6000213027000427e-01" nType="0">
          <Node pos="l" depth="2" NCoef="0" IVar="-1" Cut="0.0000000000000000e+00" cType="1" res="-5.8125420473515987e-03" rms="4.5376354455947876e-01" purity="3.0477851629257202e-01" nType="-99"/>
          <Node pos="r" depth="2" NCoef="0" IVar="-1" Cut="0.0000000000000000e+00" cType="1" res="1.5757130458950996e-02" rms="3.0959472060203552e-01" purity="8.8938671350479126e-01" nType="-99"/>
        </Node>
        <Node pos="r" depth="1" NCoef="0" IVar="1" Cut="1.2036876678466797e+02" cType="1" res="2.0926249027252197e-01" rms="1.7482304573059082e-01" purity="9.6705126762390137e-01" nType="0">
          <Node pos="l" depth="2" NCoef="0" IVar="-1" Cut="0.0000000000000000e+00" cType="1" res="1.1121582239866257e-02" rms="3.4673377871513367e-01" purity="8.5951942205429077e-01" nType="-99"/>
          <Node pos="r" depth="2" NCoef="0" IVar="-1" Cut="0.0000000000000000e+00" cType="1" res="1.8075892701745033e-02" rms="1.3415479660034180e-01" purity="9.8156124353408813e-01" nType="-99"/>
        </Node>
      </Node>
    </BinaryTree>
    <BinaryTree type="DecisionTree" boostWeight="1.0000000000000000e+00" itree="28">
      <Node pos="s" depth="0" NCoef="0" IVar="2" Cut="3.2967034727334976e-02" cType="1" res="-3.9853155612945557e-03" rms="4.1996267437934875e-01" purity="4.9562785029411316e-01" nType="0">
        <Node pos="l" depth="1" NCoef="0" IVar="3" Cut="3.2967034727334976e-02" cType="1" res="-6.4879417419433594e-02" rms="4.5035010576248169e-01" purity="3.5349401831626892e-01" nType="0">
          <Node pos="l" depth="2" NCoef="0" IVar="-1" Cut="0.0000000000000000e+00" cType="1" res="-5.9952032752335072e-03" rms="4.5174074172973633e-01" purity="2.9979142546653748e-01" nType="-99"/>
          <Node pos="r" depth="2" NCoef="0" IVar="-1" Cut="0.0000000000000000e+00" cType="1" res="1.6499517485499382e-02" rms="2.8888288140296936e-01" purity="9.0524369478225708e-01" nType="-99"/>
        </Node>
        <Node pos="r" depth="1" NCoef="0" IVar="0" Cut="8.9590090513229370e-01" cType="1" res="1.9428816437721252e-01" rms="1.9715881347656250e-01" purity="9.5842081308364868e-01" nType="0">
          <Node pos="l" depth="2" NCoef="0" IVar="-1" Cut="0.0000000000000000e+00" cType="1" res="1.7450500279664993e-02" rms="1.5654212236404419e-01" purity="9.7394686937332153e-01" nType="-99"/>
          <Node pos="r" depth="2" NCoef="0" IVar="-1" Cut="0.0000000000000000e+00" cType="1" res="1.2025612406432629e-02" rms="2.9171699285507202e-01" purity="9.0525144338607788e-01" nType="-99"/>
        </Node>
      </Node>
    </BinaryTree>
    <BinaryTree type="DecisionTree" boostWeight="1.0000000000000000e+00" itree="29">
      <Node pos="s" depth="0" NCoef="0" IVar="2" Cut="3.2967034727334976e-02" cType="1" res="2.7200885233469307e-04" rms="4.1761326789855957e-01" purity="4.9955910444259644e-01" nType="0">
        <Node pos="l" depth="1" NCoef="0" IVar="1" Cut="1.2692514801025391e+02" cType="1" res="-6.0251988470554352e-02" rms="4.5065394043922424e-01" purity="3.5664120316505432e-01" nType="0">
          <Node pos="l" depth="2" NCoef="0" IVar="-1" Cut="0.0000000000000000e+00" cType="1" res="-1.0142995975911617e-02" rms="3.9654991030693054e-01" purity="2.2943031787872314e-01" nType="-99"/>
          <Node pos="r" depth="2" NCoef="0" IVar="-1" Cut="0.0000000000000000e+00" cType="1" res="2.2912870626896620e-03" rms="4.7990792989730835e-01" purity="4.8428681492805481e-01" nType="-99"/>
        </Node>
        <Node pos="r" depth="1" NCoef="0" IVar="1" Cut="1.2037220001220703e+02" cType="1" res="1.9888880848884583e-01" rms="1.6966897249221802e-01" purity="9.6856129169464111e-01" nType="0">
          <Node pos="l" depth="2" NCoef="0" IVar="-1" Cut="0.0000000000000000e+00" cType="1" res="9.4888014718890190e-03" rms="3.6022636294364929e-01" purity="8.4509563446044922e-01" nType="-99"/>
          <Node pos="r" depth="2" NCoef="0" IVar="-1" Cut="0.0000000000000000e+00" cType="1" res="1.8053211271762848e-02" rms="1.1901902407407761e-01" purity="9.8549348115921021e-01" nType="-99"/>
        </Node>
      </Node>
    </BinaryTree>
    <BinaryTree type="DecisionTree" boostWeight="1.0000000000000000e+00" itree="30">
      <Node pos="s" depth="0" NCoef="0" IVar="2" Cut="3.2967034727334976e-02" cType="1" res="7.8866630792617798e-03" rms="4.1854852437973022e-01" purity="5.0888603925704956e-01" nType="0">
        <Node pos="l" depth="1" NCoef="0" IVar="1" Cut="1.2527491760253906e+02" cType="1" res="-4.9005299806594849e-02" rms="4.5422682166099548e-01" purity="3.6775320768356323e-01" nType="0">
          <Node pos="l" depth="2" NCoef="0" IVar="-1" Cut="0.0000000000000000e+00" cType="1" res="-9.4296522438526154e-03" rms="4.0258485078811646e-01" purity="2.3309944570064545e-01" nType="-99"/>
          <Node pos="r" depth="2" NCoef="0" IVar="-1" Cut="0.0000000000000000e+00" cType="1" res="2.0756174344569445e-03" rms="4.7921887040138245e-01" purity="4.8330551385879517e-01" nType="-99"/>
        </Node>
        <Node pos="r" depth="1" NCoef="0" IVar="2" Cut="1.0219780206680298e+00" cType="1" res="1.9348783791065216e-01" rms="1.6908366978168488e-01" purity="9.6930998563766479e-01" nType="0">
          <Node pos="l" depth="2" NCoef="0" IVar="-1" Cut="0.0000000000000000e+00" cType="1" res="1.4350255951285362e-02" rms="2.3261220753192902e-01" purity="9.4029724597930908e-01" nType="-99"/>
          <Node pos="r" depth="2" NCoef="0" IVar="-1" Cut="0.0000000000000000e+00" cType="1" res="1.7928369343280792e-02" rms="1.2406180799007416e-01" purity="9.8374533653259277e-01" nType="-99"/>
        </Node>
      </Node>
    </BinaryTree>
    <BinaryTree type="DecisionTree" boostWeight="1.0000000000000000e+00" itree="31">
      <Node pos="s" depth="0" NCoef="0" IVar="1" Cut="1.2033156585693359e+02" cType="1" res="-6.2478339532390237e-04" rms="4.1805273294448853e-01" purity="4.9985346198081970e-01" nType="0">
        <Node pos="l" depth="1" NCoef="0" IVar="2" Cut="3.2967034727334976e-02" cType="1" res="-1.4739908277988434e-01" rms="3.8518980145454407e-01" purity="2.5483131408691406e-01" nType="0">
          <Node pos="l" depth="2" NCoef="0" IVar="-1" Cut="0.0000000000000000e+00" cType="1" res="-1.1440907604992390e-02" rms="3.7720316648483276e-01" purity="1.9461236894130707e-01" nType="-99"/>
          <Node pos="r" depth="2" NCoef="0" IVar="-1" Cut="0.0000000000000000e+00" cType="1" res="8.4297414869070053e-03" rms="3.6538609862327576e-01" purity="8.3874762058258057e-01" nType="-99"/>
        </Node>
        <Node pos="r" depth="1" NCoef="0" IVar="0" Cut="1.5165367126464844e+00" cType="1" res="6.4152449369430542e-02" rms="4.1558915376663208e-01" purity="6.0799133777618408e-01" nType="0">
          <Node pos="l" depth="2" NCoef="0" IVar="-1" Cut="0.0000000000000000e+00" cType="1" res="6.3812541775405407e-03" rms="4.0824261307716370e-01" purity="6.4503073692321777e-01" nType="-99"/>
          <Node pos="r" depth="2" NCoef="0" IVar="-1" Cut="0.0000000000000000e+00" cType="1" res="-1.2858157046139240e-02" rms="3.9099150896072388e-01" purity="2.5691345334053040e-01" nType="-99"/>
        </Node>
      </Node>
    </BinaryTree>
    <BinaryTree type="DecisionTree" boostWeight="1.0000000000000000e+00" itree="32">
      <Node pos="s" depth="0" NCoef="0" IVar="2" Cut="3.2967034727334976e-02" cType="1" res="4.6128481626510620e-03" rms="4.1608992218971252e-01" purity="5.0594598054885864e-01" nType="0">
        <Node pos="l" depth="1" NCoef="0" IVar="3" Cut="3.2967034727334976e-02" cType="1" res="-4.9799509346485138e-02" rms="4.5152655243873596e-01" purity="3.6394205689430237e-01" nType="0">
          <Node pos="l" depth="2" NCoef="0" IVar="-1" Cut="0.0000000000000000e+00" cType="1" res="-4.9411351792514324e-03" rms="4.5426985621452332e-01" purity="3.0979394912719727e-01" nType="-99"/>
          <Node pos="r" depth="2" NCoef="0" IVar="-1" Cut="0.0000000000000000e+00" cType="1" res="1.4642714522778988e-02" rms="3.1880211830139160e-01" purity="8.8046538829803467e-01" nType="-99"/>
        </Node>
        <Node pos="r" depth="1" NCoef="0" IVar="2" Cut="1.0219780206680298e+00" cType="1" res="1.7977707087993622e-01" rms="1.8423272669315338e-01" purity="9.6308505535125732e-01" nType="0">
          <Node pos="l" depth="2" NCoef="0" IVar="-1" Cut="0.0000000000000000e+00" cType="1" res="1.2903679162263870e-02" rms="2.5387954711914062e-01" purity="9.2709124088287354e-01" nType="-99"/>
          <Node pos="r" depth="2" NCoef="0" IVar="-1" Cut="0.0000000000000000e+00" cType="1" res="1.7499392852187157e-02" rms="1.3237090408802032e-01" purity="9.8149448633193970e-01" nType="-99"/>
        </Node>
      </Node>
    </BinaryTree>
    <BinaryTree type="DecisionTree" boostWeight="1.0000000000000000e+00" itree="33">
      <Node pos="s" depth="0" NCoef="0" IVar="2" Cut="3.2967034727334976e-02" cType="1" res="3.8324005436152220e-03" rms="4.1667088866233826e-01" purity="5.0535064935684204e-01" nType="0">
        <Node pos="l" depth="1" NCoef="0" IVar="1" Cut="1.1923637390136719e+02" cType="1" res="-4.7165088355541229e-02" rms="4.5196005702018738e-01" purity="3.6471059918403625e-01" nType="0">
          <Node pos="l" depth="2" NCoef="0" IVar="-1" Cut="0.0000000000000000e+00" cType="1" res="-1.0882181115448475e-02" rms="3.7695541977882385e-01" purity="1.9682501256465912e-01" nType="-99"/>
          <Node pos="r" depth="2" NCoef="0" IVar="-1" Cut="0.0000000000000000e+00" cType="1" res="8.1206922186538577e-04" rms="4.7498196363449097e-01" purity="4.5104026794433594e-01" nType="-99"/>
        </Node>
        <Node pos="r" depth="1" NCoef="0" IVar="1" Cut="1.1982568359375000e+02" cType="1" res="1.6716416180133820e-01" rms="2.0108072459697723e-01" purity="9.5578420162200928e-01" nType="0">
          <Node pos="l" depth="2" NCoef="0" IVar="-1" Cut="0.0000000000000000e+00" cType="1" res="7.0431418716907501e-03" rms="3.7693807482719421e-01" purity="8.2751643657684326e-01" nType="-99"/>
          <Node pos="r" depth="2" NCoef="0" IVar="-1" Cut="0.0000000000000000e+00" cType="1" res="1.6344159841537476e-02" rms="1.6172173619270325e-01" purity="9.7271335124969482e-01" nType="-99"/>
        </Node>
      </Node>
    </BinaryTree>
    <BinaryTree type="DecisionTree" boostWeight="1.0000000000000000e+00" itree="34">
      <Node pos="s" depth="0" NCoef="0" IVar="2" Cut="3.2967034727334976e-02" cType="1" res="2.4522291496396065e-03" rms="4.1258668899536133e-01" purity="5.0422722101211548e-01" nType="0">
        <Node pos="l" depth="1" NCoef="0" IVar="3" Cut="3.2967034727334976e-02" cType="1" res="-4.9849715083837509e-02" rms="4.4896444678306580e-01" purity="3.6126971244812012e-01" nType="0">
          <Node pos="l" depth="2" NCoef="0" IVar="-1" Cut="0.0000000000000000e+00" cType="1" res="-4.9921292811632156e-03" rms="4.5220318436622620e-01" purity="3.0684605240821838e-01" nType="-99"/>
          <Node pos="r" depth="2" NCoef="0" IVar="-1" Cut="0.0000000000000000e+00" cType="1" res="1.6084769740700722e-02" rms="2.8782379627227783e-01" purity="9.0649801492691040e-01" nType="-99"/>
        </Node>
        <Node pos="r" depth="1" NCoef="0" IVar="1" Cut="1.2036756896972656e+02" cType="1" res="1.7105855047702789e-01" rms="1.7873457074165344e-01" purity="9.6508067846298218e-01" nType="0">
          <Node pos="l" depth="2" NCoef="0" IVar="-1" Cut="0.0000000000000000e+00" cType="1" res="7.6702912338078022e-03" rms="3.6658725142478943e-01" purity="8.3803391456604004e-01" nType="-99"/>
          <Node pos="r" depth="2" NCoef="0" IVar="-1" Cut="0.0000000000000000e+00" cType="1" res="1.6994537785649300e-02" rms="1.3363985717296600e-01" purity="9.8159110546112061e-01" nType="-99"/>
        </Node>
      </Node>
    </BinaryTree>
    <BinaryTree type="DecisionTree" boostWeight="1.0000000000000000e+00" itree="35">
      <Node pos="s" depth="0" NCoef="0" IVar="2" Cut="3.2967034727334976e-02" cType="1" res="3.8229865022003651e-03" rms="4.1431209444999695e-01" purity="5.0552892684936523e-01" nType="0">
        <Node pos="l" depth="1" NCoef="0" IVar="3" Cut="3.2967034727334976e-02" cType="1" res="-4.4807475060224533e-02" rms="4.5100250840187073e-01" purity="3.6386090517044067e-01" nType="0">
          <Node pos="l" depth="2" NCoef="0" IVar="-1" Cut="0.0000000000000000e+00" cType="1" res="-4.5269723050296307e-03" rms="4.5487520098686218e-01" purity="3.1168860197067261e-01" nType="-99"/>
          <Node pos="r" depth="2" NCoef="0" IVar="-1" Cut="0.0000000000000000e+00" cType="1" res="1.5298443846404552e-02" rms="2.9888918995857239e-01" purity="8.9848226308822632e-01" nType="-99"/>
        </Node>
        <Node pos="r" depth="1" NCoef="0" IVar="2" Cut="1.0219780206680298e+00" cType="1" res="1.5906275808811188e-01" rms="1.9661208987236023e-01" purity="9.5776635408401489e-01" nType="0">
          <Node pos="l" depth="2" NCoef="0" IVar="-1" Cut="0.0000000000000000e+00" cType="1" res="1.1270312592387199e-02" rms="2.7106389403343201e-01" purity="9.1633397340774536e-01" nType="-99"/>
          <Node pos="r" depth="2" NCoef="0" IVar="-1" Cut="0.0000000000000000e+00" cType="1" res="1.6807559877634048e-02" rms="1.3986229896545410e-01" purity="9.7924339771270752e-01" nType="-99"/>
        </Node>
      </Node>
    </BinaryTree>
    <BinaryTree type="DecisionTree" boostWeight="1.0000000000000000e+00" itree="36">
      <Node pos="s" depth="0" NCoef="0" IVar="1" Cut="1.1978557586669922e+02" cType="1" res="-1.5172902494668961e-03" rms="4.1213625669479370e-01" purity="4.9974662065505981e-01" nType="0">
        <Node pos="l" depth="1" NCoef="0" IVar="0" Cut="1.6349506378173828e+00" cType="1" res="-1.3426858186721802e-01" rms="3.8295978307723999e-01" purity="2.5265184044837952e-01" nType="0">
          <Node pos="l" depth="2" NCoef="0" IVar="-1" Cut="0.0000000000000000e+00" cType="1" res="-7.8350389376282692e-03" rms="3.9399674534797668e-01" purity="2.7665689587593079e-01" nType="-99"/>
          <Node pos="r" depth="2" NCoef="0" IVar="-1" Cut="0.0000000000000000e+00" cType="1" res="-2.0185787230730057e-02" rms="2.0738075673580170e-01" purity="4.7539126127958298e-02" nType="-99"/>
        </Node>
        <Node pos="r" depth="1" NCoef="0" IVar="0" Cut="1.3608984947204590e+00" cType="1" res="5.6050617247819901e-02" rms="4.1104733943939209e-01" purity="6.0689985752105713e-01" nType="0">
          <Node pos="l" depth="2" NCoef="0" IVar="-1" Cut="0.0000000000000000e+00" cType="1" res="6.0656606219708920e-03" rms="4.0180653333663940e-01" purity="6.4739507436752319e-01" nType="-99"/>
          <Node pos="r" depth="2" NCoef="0" IVar="-1" Cut="0.0000000000000000e+00" cType="1" res="-8.6481729522347450e-03" rms="4.2109194397926331e-01" purity="3.4538528323173523e-01" nType="-99"/>
        </Node>
      </Node>
    </BinaryTree>
    <BinaryTree type="DecisionTree" boostWeight="1.0000000000000000e+00" itree="37">
      <Node pos="s" depth="0" NCoef="0" IVar="1" Cut="1.1703788757324219e+02" cType="1" res="5.1408484578132629e-03" rms="4.0860432386398315e-01" purity="5.0760519504547119e-01" nType="0">
        <Node pos="l" depth="1" NCoef="0" IVar="0" Cut="1.6205295324325562e+00" cType="1" res="-1.5190714597702026e-01" rms="3.6821323633193970e-01" purity="2.2052243351936340e-01" nType="0">
          <Node pos="l" depth="2" NCoef="0" IVar="-1" Cut="0.0000000000000000e+00" cType="1" res="-8.9841438457369804e-03" rms="3.8179975748062134e-01" purity="2.4526244401931763e-01" nType="-99"/>
          <Node pos="r" depth="2" NCoef="0" IVar="-1" Cut="0.0000000000000000e+00" cType="1" res="-2.0813252776861191e-02" rms="1.8043425679206848e-01" purity="3.4399319440126419e-02" nType="-99"/>
        </Node>
        <Node pos="r" depth="1" NCoef="0" IVar="0" Cut="1.7331671714782715e+00" cType="1" res="5.9954881668090820e-02" rms="4.0779373049736023e-01" purity="6.0780483484268188e-01" nType="0">
          <Node pos="l" depth="2" NCoef="0" IVar="-1" Cut="0.0000000000000000e+00" cType="1" res="5.7078283280134201e-03" rms="4.0382719039916992e-01" purity="6.3569360971450806e-01" nType="-99"/>
          <Node pos="r" depth="2" NCoef="0" IVar="-1" Cut="0.0000000000000000e+00" cType="1" res="-1.7047099769115448e-02" rms="3.2865008711814880e-01" purity="1.5632586181163788e-01" nType="-99"/>
        </Node>
      </Node>
    </BinaryTree>
    <BinaryTree type="DecisionTree" boostWeight="1.0000000000000000e+00" itree="38">
      <Node pos="s" depth="0" NCoef="0" IVar="2" Cut="3.2967034727334976e-02" cType="1" res="-2.7956862468272448e-03" rms="4.1022697091102600e-01" purity="4.9801826477050781e-01" nType="0">
        <Node pos="l" depth="1" NCoef="0" IVar="3" Cut="3.2967034727334976e-02" cType="1" res="-5.0584159791469574e-02" rms="4.4568216800689697e-01" purity="3.5655438899993896e-01" nType="0">
          <Node pos="l" depth="2" NCoef="0" IVar="-1" Cut="0.0000000000000000e+00" cType="1" res="-4.8840553499758244e-03" rms="4.4922125339508057e-01" purity="3.0358839035034180e-01" nType="-99"/>
          <Node pos="r" depth="2" NCoef="0" IVar="-1" Cut="0.0000000000000000e+00" cType="1" res="1.4401007443666458e-02" rms="3.0716758966445923e-01" purity="8.8999474048614502e-01" nType="-99"/>
        </Node>
        <Node pos="r" depth="1" NCoef="0" IVar="2" Cut="1.0219780206680298e+00" cType="1" res="1.5263658761978149e-01" rms="1.9492857158184052e-01" purity="9.5813030004501343e-01" nType="0">
          <Node pos="l" depth="2" NCoef="0" IVar="-1" Cut="0.0000000000000000e+00" cType="1" res="1.0709491558372974e-02" rms="2.7379125356674194e-01" purity="9.1342657804489136e-01" nType="-99"/>
          <Node pos="r" depth="2" NCoef="0" IVar="-1" Cut="0.0000000000000000e+00" cType="1" res="1.6603156924247742e-02" rms="1.3968089222908020e-01" purity="9.7923159599304199e-01" nType="-99"/>
        </Node>
      </Node>
    </BinaryTree>
    <BinaryTree type="DecisionTree" boostWeight="1.0000000000000000e+00" itree="39">
      <Node pos="s" depth="0" NCoef="0" IVar="2" Cut="3.2967034727334976e-02" cType="1" res="2.1896266844123602e-03" rms="4.0757533907890320e-01" purity="5.0381278991699219e-01" nType="0">
        <Node pos="l" depth="1" NCoef="0" IVar="1" Cut="1.2967204284667969e+02" cType="1" res="-4.5508448034524918e-02" rms="4.4560873508453369e-01" purity="3.5990920662879944e-01" nType="0">
          <Node pos="l" depth="2" NCoef="0" IVar="-1" Cut="0.0000000000000000e+00" cType="1" res="-7.8760255128145218e-03" rms="4.0679115056991577e-01" purity="2.5019264221191406e-01" nType="-99"/>
          <Node pos="r" depth="2" NCoef="0" IVar="-1" Cut="0.0000000000000000e+00" cType="1" res="3.1058453023433685e-03" rms="4.7521966695785522e-01" purity="5.0298351049423218e-01" nType="-99"/>
        </Node>
        <Node pos="r" depth="1" NCoef="0" IVar="1" Cut="1.2036756896972656e+02" cType="1" res="1.5539696812629700e-01" rms="1.7637731134891510e-01" purity="9.6603465080261230e-01" nType="0">
          <Node pos="l" depth="2" NCoef="0" IVar="-1" Cut="0.0000000000000000e+00" cType="1" res="8.2832537591457367e-03" rms="3.5255855321884155e-01" purity="8.5314333438873291e-01" nType="-99"/>
          <Node pos="r" depth="2" NCoef="0" IVar="-1" Cut="0.0000000000000000e+00" cType="1" res="1.6386760398745537e-02" rms="1.3619649410247803e-01" purity="9.8077023029327393e-01" nType="-99"/>
        </Node>
      </Node>
    </BinaryTree>
    <BinaryTree type="DecisionTree" boostWeight="1.0000000000000000e+00" itree="40">
      <Node pos="s" depth="0" NCoef="0" IVar="2" Cut="3.2967034727334976e-02" cType="1" res="-4.8987232148647308e-03" rms="4.0741556882858276e-01" purity="4.9810299277305603e-01" nType="0">
        <Node pos="l" depth="1" NCoef="0" IVar="3" Cut="3.2967034727334976e-02" cType="1" res="-5.0871014595031738e-02" rms="4.4362297654151917e-01" purity="3.5560539364814758e-01" nType="0">
          <Node pos="l" depth="2" NCoef="0" IVar="-1" Cut="0.0000000000000000e+00" cType="1" res="-4.9488418735563755e-03" rms="4.4741243124008179e-01" purity="3.0003774166107178e-01" nType="-99"/>
          <Node pos="r" depth="2" NCoef="0" IVar="-1" Cut="0.0000000000000000e+00" cType="1" res="1.4035885222256184e-02" rms="3.0964344739913940e-01" purity="8.8945561647415161e-01" nType="-99"/>
        </Node>
        <Node pos="r" depth="1" NCoef="0" IVar="1" Cut="1.2201781463623047e+02" cType="1" res="1.4355655014514923e-01" rms="1.9395458698272705e-01" purity="9.5826107263565063e-01" nType="0">
          <Node pos="l" depth="2" NCoef="0" IVar="-1" Cut="0.0000000000000000e+00" cType="1" res="6.4181988127529621e-03" rms="3.6358001828193665e-01" purity="8.3862525224685669e-01" nType="-99"/>
          <Node pos="r" depth="2" NCoef="0" IVar="-1" Cut="0.0000000000000000e+00" cType="1" res="1.5945231541991234e-02" rms="1.4562153816223145e-01" purity="9.7796654701232910e-01" nType="-99"/>
        </Node>
      </Node>
    </BinaryTree>
    <BinaryTree type="DecisionTree" boostWeight="1.0000000000000000e+00" itree="41">
      <Node pos="s" depth="0" NCoef="0" IVar="2" Cut="3.2967034727334976e-02" cType="1" res="-8.5104787722229958e-03" rms="4.0395498275756836e-01" purity="4.8978900909423828e-01" nType="0">
        <Node pos="l" depth="1" NCoef="0" IVar="3" Cut="3.2967034727334976e-02" cType="1" res="-5.4946709424257278e-02" rms="4.4007149338722229e-01" purity="3.4678190946578979e-01" nType="0">
          <Node pos="l" depth="2" NCoef="0" IVar="-1" Cut="0.0000000000000000e+00" cType="1" res="-5.2355621010065079e-03" rms="4.4389748573303223e-01" purity="2.9150447249412537e-01" nType="-99"/>
          <Node pos="r" depth="2" NCoef="0" IVar="-1" Cut="0.0000000000000000e+00" cType="1" res="1.4788859523832798e-02" rms="2.9079487919807434e-01" purity="9.0442234277725220e-01" nType="-99"/>
        </Node>
        <Node pos="r" depth="1" NCoef="0" IVar="1" Cut="1.2145933532714844e+02" cType="1" res="1.4626605808734894e-01" rms="1.7444978654384613e-01" purity="9.6644556522369385e-01" nType="0">
          <Node pos="l" depth="2" NCoef="0" IVar="-1" Cut="0.0000000000000000e+00" cType="1" res="7.3902374133467674e-03" rms="3.5305401682853699e-01" purity="8.5044676065444946e-01" nType="-99"/>
          <Node pos="r" depth="2" NCoef="0" IVar="-1" Cut="0.0000000000000000e+00" cType="1" res="1.6273140907287598e-02" rms="1.2970665097236633e-01" purity="9.8257011175155640e-01" nType="-99"/>
        </Node>
      </Node>
    </BinaryTree>
    <BinaryTree type="DecisionTree" boostWeight="1.0000000000000000e+00" itree="42">
      <Node pos="s" depth="0" NCoef="0" IVar="2" Cut="3.2967034727334976e-02" cType="1" res="4.5207738876342773e-03" rms="4.0774753689765930e-01" purity="5.0370860099792480e-01" nType="0">
        <Node pos="l" depth="1" NCoef="0" IVar="1" Cut="1.2692471313476562e+02" cType="1" res="-3.7254638969898224e-02" rms="4.4680500030517578e-01" purity="3.6364498734474182e-01" nType="0">
          <Node pos="l" depth="2" NCoef="0" IVar="-1" Cut="0.0000000000000000e+00" cType="1" res="-7.4906968511641026e-03" rms="4.0229189395904541e-01" purity="2.4363903701305389e-01" nType="-99"/>
          <Node pos="r" depth="2" NCoef="0" IVar="-1" Cut="0.0000000000000000e+00" cType="1" res="2.2929275874048471e-03" rms="4.7631192207336426e-01" purity="4.8435786366462708e-01" nType="-99"/>
        </Node>
        <Node pos="r" depth="1" NCoef="0" IVar="2" Cut="1.0219780206680298e+00" cType="1" res="1.4242997765541077e-01" rms="1.7690323293209076e-01" purity="9.6608710289001465e-01" nType="0">
          <Node pos="l" depth="2" NCoef="0" IVar="-1" Cut="0.0000000000000000e+00" cType="1" res="1.1476279236376286e-02" rms="2.4832160770893097e-01" purity="9.3103587627410889e-01" nType="-99"/>
          <Node pos="r" depth="2" NCoef="0" IVar="-1" Cut="0.0000000000000000e+00" cType="1" res="1.6683368012309074e-02" rms="1.1713463068008423e-01" purity="9.8554617166519165e-01" nType="-99"/>
        </Node>
      </Node>
    </BinaryTree>
    <BinaryTree type="DecisionTree" boostWeight="1.0000000000000000e+00" itree="43">
      <Node pos="s" depth="0" NCoef="0" IVar="1" Cut="1.2912438964843750e+02" cType="1" res="-1.4115531230345368e-03" rms="4.0480786561965942e-01" purity="4.9758601188659668e-01" nType="0">
        <Node pos="l" depth="1" NCoef="0" IVar="2" Cut="3.2967034727334976e-02" cType="1" res="-8.3471320569515228e-02" rms="3.9104005694389343e-01" purity="3.3838859200477600e-01" nType="0">
          <Node pos="l" depth="2" NCoef="0" IVar="-1" Cut="0.0000000000000000e+00" cType="1" res="-7.9497108235955238e-03" rms="3.9971959590911865e-01" purity="2.4140655994415283e-01" nType="-99"/>
          <Node pos="r" depth="2" NCoef="0" IVar="-1" Cut="0.0000000000000000e+00" cType="1" res="1.1964230798184872e-02" rms="2.4724321067333221e-01" purity="9.2962127923965454e-01" nType="-99"/>
        </Node>
        <Node pos="r" depth="1" NCoef="0" IVar="0" Cut="1.7764567136764526e+00" cType="1" res="7.8071914613246918e-02" rms="4.0204784274101257e-01" purity="6.5178537368774414e-01" nType="0">
          <Node pos="l" depth="2" NCoef="0" IVar="-1" Cut="0.0000000000000000e+00" cType="1" res="6.9336034357547760e-03" rms="3.9805981516838074e-01" purity="6.7536294460296631e-01" nType="-99"/>
          <Node pos="r" depth="2" NCoef="0" IVar="-1" Cut="0.0000000000000000e+00" cType="1" res="-1.5457182191312313e-02" rms="3.4519380331039429e-01" purity="1.9273258745670319e-01" nType="-99"/>
        </Node>
      </Node>
    </BinaryTree>
    <BinaryTree type="DecisionTree" boostWeight="1.0000000000000000e+00" itree="44">
      <Node pos="s" depth="0" NCoef="0" IVar="1" Cut="1.2747345733642578e+02" cType="1" res="-2.9624372837133706e-04" rms="4.0350019931793213e-01" purity="5.0006997585296631e-01" nType="0">
        <Node pos="l" depth="1" NCoef="0" IVar="3" Cut="3.2967034727334976e-02" cType="1" res="-9.0273723006248474e-02" rms="3.8741797208786011e-01" purity="3.1572377681732178e-01" nType="0">
          <Node pos="l" depth="2" NCoef="0" IVar="-1" Cut="0.0000000000000000e+00" cType="1" res="-8.0772014334797859e-03" rms="3.8380935788154602e-01" purity="2.6428189873695374e-01" nType="-99"/>
          <Node pos="r" depth="2" NCoef="0" IVar="-1" Cut="0.0000000000000000e+00" cType="1" res="1.2113202363252640e-02" rms="3.2969409227371216e-01" purity="8.6489212512969971e-01" nType="-99"/>
        </Node>
        <Node pos="r" depth="1" NCoef="0" IVar="0" Cut="1.8570511341094971e+00" cType="1" res="7.1981191635131836e-02" rms="4.0162491798400879e-01" purity="6.4815229177474976e-01" nType="0">
          <Node pos="l" depth="2" NCoef="0" IVar="-1" Cut="0.0000000000000000e+00" cType="1" res="6.2722293660044670e-03" rms="3.9882382750511169e-01" purity="6.6757994890213013e-01" nType="-99"/>
          <Node pos="r" depth="2" NCoef="0" IVar="-1" Cut="0.0000000000000000e+00" cType="1" res="-1.7579125240445137e-02" rms="3.1215631961822510e-01" purity="1.5153858065605164e-01" nType="-99"/>
        </Node>
      </Node>
    </BinaryTree>
    <BinaryTree type="DecisionTree" boostWeight="1.0000000000000000e+00" itree="45">
      <Node pos="s" depth="0" NCoef="0" IVar="1" Cut="1.1977913665771484e+02" cType="1" res="3.2685001497156918e-04" rms="4.0627077221870422e-01" purity="5.0095450878143311e-01" nType="0">
        <Node pos="l" depth="1" NCoef="0" IVar="0" Cut="1.5102219581604004e+00" cType="1" res="-1.1265496909618378e-01" rms="3.7873387336730957e-01" purity="2.5407245755195618e-01" nType="0">
          <Node pos="l" depth="2" NCoef="0" IVar="-1" Cut="0.0000000000000000e+00" cType="1" res="-6.5917181782424450e-03" rms="3.9072397351264954e-01" purity="2.8079679608345032e-01" nType="-99"/>
          <Node pos="r" depth="2" NCoef="0" IVar="-1" Cut="0.0000000000000000e+00" cType="1" res="-1.7944015562534332e-02" rms="2.4003328382968903e-01" purity="6.9132626056671143e-02" nType="-99"/>
        </Node>
        <Node pos="r" depth="1" NCoef="0" IVar="0" Cut="1.5598168373107910e+00" cType="1" res="4.7001458704471588e-02" rms="4.0808603167533875e-01" purity="6.0294550657272339e-01" nType="0">
          <Node pos="l" depth="2" NCoef="0" IVar="-1" Cut="0.0000000000000000e+00" cType="1" res="5.2303676493465900e-03" rms="4.0334391593933105e-01" purity="6.3984692096710205e-01" nType="-99"/>
          <Node pos="r" depth="2" NCoef="0" IVar="-1" Cut="0.0000000000000000e+00" cType="1" res="-1.3131851330399513e-02" rms="3.7450951337814331e-01" purity="2.2759971022605896e-01" nType="-99"/>
        </Node>
      </Node>
    </BinaryTree>
    <BinaryTree type="DecisionTree" boostWeight="1.0000000000000000e+00" itree="46">
      <Node pos="s" depth="0" NCoef="0" IVar="1" Cut="1.1428877258300781e+02" cType="1" res="-1.6698195831850171e-03" rms="4.0371662378311157e-01" purity="4.9818652868270874e-01" nType="0">
        <Node pos="l" depth="1" NCoef="0" IVar="0" Cut="1.4887337684631348e+00" cType="1" res="-1.5037910640239716e-01" rms="3.5680535435676575e-01" purity="2.0151212811470032e-01" nType="0">
          <Node pos="l" depth="2" NCoef="0" IVar="-1" Cut="0.0000000000000000e+00" cType="1" res="-9.0394420549273491e-03" rms="3.7343823909759521e-01" purity="2.3138935863971710e-01" nType="-99"/>
          <Node pos="r" depth="2" NCoef="0" IVar="-1" Cut="0.0000000000000000e+00" cType="1" res="-1.9648052752017975e-02" rms="2.1820151805877686e-01" purity="4.8045586794614792e-02" nType="-99"/>
        </Node>
        <Node pos="r" depth="1" NCoef="0" IVar="0" Cut="1.4433766603469849e+00" cType="1" res="3.8788978010416031e-02" rms="4.0625131130218506e-01" purity="5.7890164852142334e-01" nType="0">
          <Node pos="l" depth="2" NCoef="0" IVar="-1" Cut="0.0000000000000000e+00" cType="1" res="4.7497362829744816e-03" rms="4.0136677026748657e-01" purity="6.1988961696624756e-01" nType="-99"/>
          <Node pos="r" depth="2" NCoef="0" IVar="-1" Cut="0.0000000000000000e+00" cType="1" res="-1.0620099492371082e-02" rms="3.9006322622299194e-01" purity="2.6944965124130249e-01" nType="-99"/>
        </Node>
      </Node>
    </BinaryTree>
    <BinaryTree type="DecisionTree" boostWeight="1.0000000000000000e+00" itree="47">
      <Node pos="s" depth="0" NCoef="0" IVar="2" Cut="3.2967034727334976e-02" cType="1" res="-1.7394883616361767e-04" rms="4.0458577871322632e-01" purity="4.9943569302558899e-01" nType="0">
        <Node pos="l" depth="1" NCoef="0" IVar="3" Cut="3.2967034727334976e-02" cType="1" res="-3.7598889321088791e-02" rms="4.4206279516220093e-01" purity="3.6155736446380615e-01" nType="0">
          <Node pos="l" depth="2" NCoef="0" IVar="-1" Cut="0.0000000000000000e+00" cType="1" res="-4.0018670260906219e-03" rms="4.4802948832511902e-01" purity="3.0682718753814697e-01" nType="-99"/>
          <Node pos="r" depth="2" NCoef="0" IVar="-1" Cut="0.0000000000000000e+00" cType="1" res="1.4518507756292820e-02" rms="2.8584828972816467e-01" purity="9.0736860036849976e-01" nType="-99"/>
        </Node>
        <Node pos="r" depth="1" NCoef="0" IVar="0" Cut="1.0055371522903442e+00" cType="1" res="1.2395449727773666e-01" rms="1.9595126807689667e-01" purity="9.5674109458923340e-01" nType="0">
          <Node pos="l" depth="2" NCoef="0" IVar="-1" Cut="0.0000000000000000e+00" cType="1" res="1.5066466294229031e-02" rms="1.5727937221527100e-01" purity="9.7287458181381226e-01" nType="-99"/>
          <Node pos="r" depth="2" NCoef="0" IVar="-1" Cut="0.0000000000000000e+00" cType="1" res="5.9137335047125816e-03" rms="3.1671404838562012e-01" purity="8.7742787599563599e-01" nType="-99"/>
        </Node>
      </Node>
    </BinaryTree>
    <BinaryTree type="DecisionTree" boostWeight="1.0000000000000000e+00" itree="48">
      <Node pos="s" depth="0" NCoef="0" IVar="2" Cut="3.2967034727334976e-02" cType="1" res="1.9138242350891232e-04" rms="4.0375566482543945e-01" purity="5.0058776140213013e-01" nType="0">
        <Node pos="l" depth="1" NCoef="0" IVar="0" Cut="1.5311532020568848e+00" cType="1" res="-3.8079932332038879e-02" rms="4.4282591342926025e-01" purity="3.5994088649749756e-01" nType="0">
          <Node pos="l" depth="2" NCoef="0" IVar="-1" Cut="0.0000000000000000e+00" cType="1" res="-8.4670231444761157e-04" rms="4.5142590999603271e-01" purity="3.9372298121452332e-01" nType="-99"/>
          <Node pos="r" depth="2" NCoef="0" IVar="-1" Cut="0.0000000000000000e+00" cType="1" res="-1.4335047453641891e-02" rms="3.3190208673477173e-01" purity="1.3061811029911041e-01" nType="-99"/>
        </Node>
        <Node pos="r" depth="1" NCoef="0" IVar="1" Cut="1.2036756896972656e+02" cType="1" res="1.2586052715778351e-01" rms="1.8386475741863251e-01" purity="9.6242117881774902e-01" nType="0">
          <Node pos="l" depth="2" NCoef="0" IVar="-1" Cut="0.0000000000000000e+00" cType="1" res="6.2566199339926243e-03" rms="3.6082935333251953e-01" purity="8.4141498804092407e-01" nType="-99"/>
          <Node pos="r" depth="2" NCoef="0" IVar="-1" Cut="0.0000000000000000e+00" cType="1" res="1.5277695842087269e-02" rms="1.4335405826568604e-01" purity="9.7856128215789795e-01" nType="-99"/>
        </Node>
      </Node>
    </BinaryTree>
    <BinaryTree type="DecisionTree" boostWeight="1.0000000000000000e+00" itree="49">
      <Node pos="s" depth="0" NCoef="0" IVar="1" Cut="1.1374002075195312e+02" cType="1" res="2.4093033280223608e-03" rms="4.0233734250068665e-01" purity="5.0283223390579224e-01" nType="0">
        <Node pos="l" depth="1" NCoef="0" IVar="0" Cut="1.5312181711196899e+00" cType="1" res="-1.3631309568881989e-01" rms="3.5977306962013245e-01" purity="2.0778506994247437e-01" nType="0">
          <Node pos="l" depth="2" NCoef="0" IVar="-1" Cut="0.0000000000000000e+00" cType="1" res="-8.2976743578910828e-03" rms="3.7577632069587708e-01" purity="2.3661585152149200e-01" nType="-99"/>
          <Node pos="r" depth="2" NCoef="0" IVar="-1" Cut="0.0000000000000000e+00" cType="1" res="-1.8791567534208298e-02" rms="2.2250555455684662e-01" purity="5.0020270049571991e-02" nType="-99"/>
        </Node>
        <Node pos="r" depth="1" NCoef="0" IVar="0" Cut="1.6464728116989136e+00" cType="1" res="3.9162915199995041e-02" rms="4.0499430894851685e-01" purity="5.8100306987762451e-01" nType="0">
          <Node pos="l" depth="2" NCoef="0" IVar="-1" Cut="0.0000000000000000e+00" cType="1" res="4.4095087796449661e-03" rms="4.0389853715896606e-01" purity="6.1427944898605347e-01" nType="-99"/>
          <Node pos="r" depth="2" NCoef="0" IVar="-1" Cut="0.0000000000000000e+00" cType="1" res="-1.4259176328778267e-02" rms="3.2977584004402161e-01" purity="1.7548829317092896e-01" nType="-99"/>
        </Node>
      </Node>
    </BinaryTree>
    <BinaryTree type="DecisionTree" boostWeight="1.0000000000000000e+00" itree="50">
      <Node pos="s" depth="0" NCoef="0" IVar="1" Cut="1.2363105010986328e+02" cType="1" res="5.1927397726103663e-04" rms="4.0009403228759766e-01" purity="5.0278234481811523e-01" nType="0">
        <Node pos="l" depth="1" NCoef="0" IVar="3" Cut="3.2967034727334976e-02" cType="1" res="-9.4647936522960663e-02" rms="3.7761601805686951e-01" purity="2.8209611773490906e-01" nType="0">
          <Node pos="l" depth="2" NCoef="0" IVar="-1" Cut="0.0000000000000000e+00" cType="1" res="-8.5080461576581001e-03" rms="3.7170016765594482e-01" purity="2.3446024954319000e-01" nType="-99"/>
          <Node pos="r" depth="2" NCoef="0" IVar="-1" Cut="0.0000000000000000e+00" cType="1" res="1.1841484345495701e-02" rms="3.4760588407516479e-01" purity="8.4871560335159302e-01" nType="-99"/>
        </Node>
        <Node pos="r" depth="1" NCoef="0" IVar="0" Cut="1.6031854152679443e+00" cType="1" res="5.6664943695068359e-02" rms="4.0235945582389832e-01" purity="6.3298022747039795e-01" nType="0">
          <Node pos="l" depth="2" NCoef="0" IVar="-1" Cut="0.0000000000000000e+00" cType="1" res="5.6530400179326534e-03" rms="3.9928159117698669e-01" purity="6.6523253917694092e-01" nType="-99"/>
          <Node pos="r" depth="2" NCoef="0" IVar="-1" Cut="0.0000000000000000e+00" cType="1" res="-1.1516638100147247e-02" rms="3.6920568346977234e-01" purity="2.4614612758159637e-01" nType="-99"/>
        </Node>
      </Node>
    </BinaryTree>
    <BinaryTree type="DecisionTree" boostWeight="1.0000000000000000e+00" itree="51">
      <Node pos="s" depth="0" NCoef="0" IVar="2" Cut="3.2967034727334976e-02" cType="1" res="-9.2321116244420409e-04" rms="3.9679640531539917e-01" purity="5.0043451786041260e-01" nType="0">
        <Node pos="l" depth="1" NCoef="0" IVar="3" Cut="3.2967034727334976e-02" cType="1" res="-4.0339760482311249e-02" rms="4.3696030974388123e-01" purity="3.5514590144157410e-01" nType="0">
          <Node pos="l" depth="2" NCoef="0" IVar="-1" Cut="0.0000000000000000e+00" cType="1" res="-4.2048669420182705e-03" rms="4.4311264157295227e-01" purity="2.9920372366905212e-01" nType="-99"/>
          <Node pos="r" depth="2" NCoef="0" IVar="-1" Cut="0.0000000000000000e+00" cType="1" res="1.4308516867458820e-02" rms="2.7993229031562805e-01" purity="9.0965002775192261e-01" nType="-99"/>
        </Node>
        <Node pos="r" depth="1" NCoef="0" IVar="2" Cut="1.0219780206680298e+00" cType="1" res="1.2618483603000641e-01" rms="1.6820871829986572e-01" purity="9.6895205974578857e-01" nType="0">
          <Node pos="l" depth="2" NCoef="0" IVar="-1" Cut="0.0000000000000000e+00" cType="1" res="1.1386589147150517e-02" rms="2.3208172619342804e-01" purity="9.3833011388778687e-01" nType="-99"/>
          <Node pos="r" depth="2" NCoef="0" IVar="-1" Cut="0.0000000000000000e+00" cType="1" res="1.5914797782897949e-02" rms="1.2471508234739304e-01" purity="9.8379796743392944e-01" nType="-99"/>
        </Node>
      </Node>
    </BinaryTree>
    <BinaryTree type="DecisionTree" boostWeight="1.0000000000000000e+00" itree="52">
      <Node pos="s" depth="0" NCoef="0" IVar="2" Cut="3.2967034727334976e-02" cType="1" res="-4.0419335709884763e-04" rms="4.0126425027847290e-01" purity="5.0120097398757935e-01" nType="0">
        <Node pos="l" depth="1" NCoef="0" IVar="3" Cut="3.2967034727334976e-02" cType="1" res="-3.5789672285318375e-02" rms="4.4042068719863892e-01" purity="3.6048835515975952e-01" nType="0">
          <Node pos="l" depth="2" NCoef="0" IVar="-1" Cut="0.0000000000000000e+00" cType="1" res="-3.7201060913503170e-03" rms="4.4673520326614380e-01" purity="3.0599009990692139e-01" nType="-99"/>
          <Node pos="r" depth="2" NCoef="0" IVar="-1" Cut="0.0000000000000000e+00" cType="1" res="1.2011970393359661e-02" rms="3.1364443898200989e-01" purity="8.7967276573181152e-01" nType="-99"/>
        </Node>
        <Node pos="r" depth="1" NCoef="0" IVar="2" Cut="2.0109889507293701e+00" cType="1" res="1.1503466218709946e-01" rms="1.8995882570743561e-01" purity="9.6025097370147705e-01" nType="0">
          <Node pos="l" depth="2" NCoef="0" IVar="-1" Cut="0.0000000000000000e+00" cType="1" res="1.1684417724609375e-02" rms="2.2048446536064148e-01" purity="9.4555836915969849e-01" nType="-99"/>
          <Node pos="r" depth="2" NCoef="0" IVar="-1" Cut="0.0000000000000000e+00" cType="1" res="1.6754396259784698e-02" rms="9.2040821909904480e-02" purity="9.9135071039199829e-01" nType="-99"/>
        </Node>
      </Node>
    </BinaryTree>
    <BinaryTree type="DecisionTree" boostWeight="1.0000000000000000e+00" itree="53">
      <Node pos="s" depth="0" NCoef="0" IVar="1" Cut="1.1648690795898438e+02" cType="1" res="6.2780984444543719e-04" rms="3.9849114418029785e-01" purity="4.9948039650917053e-01" nType="0">
        <Node pos="l" depth="1" NCoef="0" IVar="0" Cut="1.4670357704162598e+00" cType="1" res="-1.1618836969137192e-01" rms="3.5960847139358521e-01" purity="2.2657316923141479e-01" nType="0">
          <Node pos="l" depth="2" NCoef="0" IVar="-1" Cut="0.0000000000000000e+00" cType="1" res="-6.9278669543564320e-03" rms="3.7504056096076965e-01" purity="2.5831201672554016e-01" nType="-99"/>
          <Node pos="r" depth="2" NCoef="0" IVar="-1" Cut="0.0000000000000000e+00" cType="1" res="-1.7475517466664314e-02" rms="2.3711290955543518e-01" purity="6.3967101275920868e-02" nType="-99"/>
        </Node>
        <Node pos="r" depth="1" NCoef="0" IVar="0" Cut="1.5164887905120850e+00" cType="1" res="3.8003109395503998e-02" rms="4.0306746959686279e-01" purity="5.8679699897766113e-01" nType="0">
          <Node pos="l" depth="2" NCoef="0" IVar="-1" Cut="0.0000000000000000e+00" cType="1" res="4.3624555692076683e-03" rms="4.0038457512855530e-01" purity="6.2378668785095215e-01" nType="-99"/>
          <Node pos="r" depth="2" NCoef="0" IVar="-1" Cut="0.0000000000000000e+00" cType="1" res="-9.8122097551822662e-03" rms="3.8238695263862610e-01" purity="2.5756600499153137e-01" nType="-99"/>
        </Node>
      </Node>
    </BinaryTree>
    <BinaryTree type="DecisionTree" boostWeight="1.0000000000000000e+00" itree="54">
      <Node pos="s" depth="0" NCoef="0" IVar="2" Cut="3.2967034727334976e-02" cType="1" res="7.5587269384413958e-04" rms="3.9634218811988831e-01" purity="5.0369858741760254e-01" nType="0">
        <Node pos="l" depth="1" NCoef="0" IVar="3" Cut="3.2967034727334976e-02" cType="1" res="-3.6084271967411041e-02" rms="4.3763944506645203e-01" purity="3.5818693041801453e-01" nType="0">
          <Node pos="l" depth="2" NCoef="0" IVar="-1" Cut="0.0000000000000000e+00" cType="1" res="-3.7633713800460100e-03" rms="4.4378557801246643e-01" purity="3.0255421996116638e-01" nType="-99"/>
          <Node pos="r" depth="2" NCoef="0" IVar="-1" Cut="0.0000000000000000e+00" cType="1" res="1.2144371867179871e-02" rms="3.1319156289100647e-01" purity="8.8554692268371582e-01" nType="-99"/>
        </Node>
        <Node pos="r" depth="1" NCoef="0" IVar="1" Cut="1.2037622070312500e+02" cType="1" res="1.1814293265342712e-01" rms="1.7099674046039581e-01" purity="9.6735548973083496e-01" nType="0">
          <Node pos="l" depth="2" NCoef="0" IVar="-1" Cut="0.0000000000000000e+00" cType="1" res="6.0131829231977463e-03" rms="3.5856115818023682e-01" purity="8.4436088800430298e-01" nType="-99"/>
          <Node pos="r" depth="2" NCoef="0" IVar="-1" Cut="0.0000000000000000e+00" cType="1" res="1.5492519363760948e-02" rms="1.2409683316946030e-01" purity="9.8404932022094727e-01" nType="-99"/>
        </Node>
      </Node>
    </BinaryTree>
    <BinaryTree type="DecisionTree" boostWeight="1.0000000000000000e+00" itree="55">
      <Node pos="s" depth="0" NCoef="0" IVar="0" Cut="1.4461103677749634e+00" cType="1" res="3.0116417910903692e-03" rms="4.0038794279098511e-01" purity="5.0366395711898804e-01" nType="0">
        <Node pos="l" depth="1" NCoef="0" IVar="1" Cut="1.1428767395019531e+02" cType="1" res="2.7200456708669662e-02" rms="4.0303847193717957e-01" purity="5.4735463857650757e-01" nType="0">
          <Node pos="l" depth="2" NCoef="0" IVar="-1" Cut="0.0000000000000000e+00" cType="1" res="-7.5602494180202484e-03" rms="3.7856906652450562e-01" purity="2.4632343649864197e-01" nType="-99"/>
          <Node pos="r" depth="2" NCoef="0" IVar="-1" Cut="0.0000000000000000e+00" cType="1" res="4.5713810250163078e-03" rms="4.0244784951210022e-01" purity="6.2441074848175049e-01" nType="-99"/>
        </Node>
        <Node pos="r" depth="1" NCoef="0" IVar="0" Cut="1.8457164764404297e+00" cType="1" res="-1.7002949118614197e-01" rms="3.3308795094490051e-01" purity="1.9111129641532898e-01" nType="0">
          <Node pos="l" depth="2" NCoef="0" IVar="-1" Cut="0.0000000000000000e+00" cType="1" res="-7.4998848140239716e-03" rms="3.9001682400703430e-01" purity="2.8571000695228577e-01" nType="-99"/>
          <Node pos="r" depth="2" NCoef="0" IVar="-1" Cut="0.0000000000000000e+00" cType="1" res="-1.8693801015615463e-02" rms="2.1296390891075134e-01" purity="6.9523088634014130e-02" nType="-99"/>
        </Node>
      </Node>
    </BinaryTree>
    <BinaryTree type="DecisionTree" boostWeight="1.0000000000000000e+00" itree="56">
      <Node pos="s" depth="0" NCoef="0" IVar="1" Cut="1.1374098205566406e+02" cType="1" res="7.1263387799263000e-03" rms="4.0260955691337585e-01" purity="5.0685107707977295e-01" nType="0">
        <Node pos="l" depth="1" NCoef="0" IVar="1" Cut="1.0815090942382812e+02" cType="1" res="-1.2213368713855743e-01" rms="3.6160460114479065e-01" purity="2.0567753911018372e-01" nType="0">
          <Node pos="l" depth="2" NCoef="0" IVar="-1" Cut="0.0000000000000000e+00" cType="1" res="-1.1064624413847923e-02" rms="3.4307843446731567e-01" purity="1.7693753540515900e-01" nType="-99"/>
          <Node pos="r" depth="2" NCoef="0" IVar="-1" Cut="0.0000000000000000e+00" cType="1" res="-6.4100269228219986e-03" rms="3.8408622145652771e-01" purity="2.4764487147331238e-01" nType="-99"/>
        </Node>
        <Node pos="r" depth="1" NCoef="0" IVar="0" Cut="1.8552196025848389e+00" cType="1" res="3.8576494902372360e-02" rms="4.0578883886337280e-01" purity="5.8012938499450684e-01" nType="0">
          <Node pos="l" depth="2" NCoef="0" IVar="-1" Cut="0.0000000000000000e+00" cType="1" res="3.9227944798767567e-03" rms="4.0662321448326111e-01" purity="6.0353136062622070e-01" nType="-99"/>
          <Node pos="r" depth="2" NCoef="0" IVar="-1" Cut="0.0000000000000000e+00" cType="1" res="-1.7409535124897957e-02" rms="2.5977098941802979e-01" purity="9.5326766371726990e-02" nType="-99"/>
        </Node>
      </Node>
    </BinaryTree>
    <BinaryTree type="DecisionTree" boostWeight="1.0000000000000000e+00" itree="57">
      <Node pos="s" depth="0" NCoef="0" IVar="1" Cut="1.2088334655761719e+02" cType="1" res="-3.6998093128204346e-03" rms="3.9771527051925659e-01" purity="4.9434551596641541e-01" nType="0">
        <Node pos="l" depth="1" NCoef="0" IVar="2" Cut="3.2967034727334976e-02" cType="1" res="-9.5432266592979431e-02" rms="3.6746153235435486e-01" purity="2.5202375650405884e-01" nType="0">
          <Node pos="l" depth="2" NCoef="0" IVar="-1" Cut="0.0000000000000000e+00" cType="1" res="-8.4282290190458298e-03" rms="3.6581835150718689e-01" purity="1.8928821384906769e-01" nType="-99"/>
          <Node pos="r" depth="2" NCoef="0" IVar="-1" Cut="0.0000000000000000e+00" cType="1" res="7.4364589527249336e-03" rms="3.3334204554557800e-01" purity="8.6532026529312134e-01" nType="-99"/>
        </Node>
        <Node pos="r" depth="1" NCoef="0" IVar="0" Cut="1.8631126880645752e+00" cType="1" res="3.9363265037536621e-02" rms="4.0402978658676147e-01" purity="6.0810154676437378e-01" nType="0">
          <Node pos="l" depth="2" NCoef="0" IVar="-1" Cut="0.0000000000000000e+00" cType="1" res="3.8316345307976007e-03" rms="4.0428501367568970e-01" purity="6.2929362058639526e-01" nType="-99"/>
          <Node pos="r" depth="2" NCoef="0" IVar="-1" Cut="0.0000000000000000e+00" cType="1" res="-1.5514864586293697e-02" rms="2.9773971438407898e-01" purity="1.2435292452573776e-01" nType="-99"/>
        </Node>
      </Node>
    </BinaryTree>
    <BinaryTree type="DecisionTree" boostWeight="1.0000000000000000e+00" itree="58">
      <Node pos="s" depth="0" NCoef="0" IVar="2" Cut="3.2967034727334976e-02" cType="1" res="-5.0374064594507217e-03" rms="3.9766049385070801e-01" purity="4.9242815375328064e-01" nType="0">
        <Node pos="l" depth="1" NCoef="0" IVar="3" Cut="3.2967034727334976e-02" cType="1" res="-3.8871806114912033e-02" rms="4.3660947680473328e-01" purity="3.5305619239807129e-01" nType="0">
          <Node pos="l" depth="2" NCoef="0" IVar="-1" Cut="0.0000000000000000e+00" cType="1" res="-3.8000051863491535e-03" rms="4.4226905703544617e-01" purity="3.0099713802337646e-01" nType="-99"/>
          <Node pos="r" depth="2" NCoef="0" IVar="-1" Cut="0.0000000000000000e+00" cType="1" res="1.0989011265337467e-02" rms="3.2410788536071777e-01" purity="8.7407821416854858e-01" nType="-99"/>
        </Node>
        <Node pos="r" depth="1" NCoef="0" IVar="0" Cut="1.0878186225891113e+00" cType="1" res="1.0972889512777328e-01" rms="1.7567004263401031e-01" purity="9.6517795324325562e-01" nType="0">
          <Node pos="l" depth="2" NCoef="0" IVar="-1" Cut="0.0000000000000000e+00" cType="1" res="1.4756021089851856e-02" rms="1.4421044290065765e-01" purity="9.7724151611328125e-01" nType="-99"/>
          <Node pos="r" depth="2" NCoef="0" IVar="-1" Cut="0.0000000000000000e+00" cType="1" res="6.7459121346473694e-03" rms="2.9040557146072388e-01" purity="8.9769446849822998e-01" nType="-99"/>
        </Node>
      </Node>
    </BinaryTree>
    <BinaryTree type="DecisionTree" boostWeight="1.0000000000000000e+00" itree="59">
      <Node pos="s" depth="0" NCoef="0" IVar="1" Cut="1.1429164886474609e+02" cType="1" res="-2.0759233739227057e-03" rms="3.9560890197753906e-01" purity="4.9517366290092468e-01" nType="0">
        <Node pos="l" depth="1" NCoef="0" IVar="0" Cut="1.4036328792572021e+00" cType="1" res="-1.2077626585960388e-01" rms="3.4605115652084351e-01" purity="1.9764257967472076e-01" nType="0">
          <Node pos="l" depth="2" NCoef="0" IVar="-1" Cut="0.0000000000000000e+00" cType="1" res="-7.7392505481839180e-03" rms="3.6381664872169495e-01" purity="2.2676582634449005e-01" nType="-99"/>
          <Node pos="r" depth="2" NCoef="0" IVar="-1" Cut="0.0000000000000000e+00" cType="1" res="-1.6873557120561600e-02" rms="2.2337986528873444e-01" purity="5.8680817484855652e-02" nType="-99"/>
        </Node>
        <Node pos="r" depth="1" NCoef="0" IVar="0" Cut="1.7764993906021118e+00" cType="1" res="2.9656931757926941e-02" rms="4.0194362401962280e-01" purity="5.7471436262130737e-01" nType="0">
          <Node pos="l" depth="2" NCoef="0" IVar="-1" Cut="0.0000000000000000e+00" cType="1" res="3.2099308446049690e-03" rms="4.0334159135818481e-01" purity="5.9895873069763184e-01" nType="-99"/>
          <Node pos="r" depth="2" NCoef="0" IVar="-1" Cut="0.0000000000000000e+00" cType="1" res="-1.4825781807303429e-02" rms="2.9029554128646851e-01" purity="1.3355886936187744e-01" nType="-99"/>
        </Node>
      </Node>
    </BinaryTree>
    <BinaryTree type="DecisionTree" boostWeight="1.0000000000000000e+00" itree="60">
      <Node pos="s" depth="0" NCoef="0" IVar="1" Cut="1.1373937225341797e+02" cType="1" res="1.2142064515501261e-03" rms="3.9709708094596863e-01" purity="5.0182116031646729e-01" nType="0">
        <Node pos="l" depth="1" NCoef="0" IVar="0" Cut="1.6402862071990967e+00" cType="1" res="-1.1059407144784927e-01" rms="3.5554420948028564e-01" purity="2.0937900245189667e-01" nType="0">
          <Node pos="l" depth="2" NCoef="0" IVar="-1" Cut="0.0000000000000000e+00" cType="1" res="-7.3295831680297852e-03" rms="3.7164056301116943e-01" purity="2.3389199376106262e-01" nType="-99"/>
          <Node pos="r" depth="2" NCoef="0" IVar="-1" Cut="0.0000000000000000e+00" cType="1" res="-1.7387315630912781e-02" rms="1.8400157988071442e-01" purity="3.9116863161325455e-02" nType="-99"/>
        </Node>
        <Node pos="r" depth="1" NCoef="0" IVar="0" Cut="1.4190888404846191e+00" cType="1" res="3.0531313270330429e-02" rms="4.0218046307563782e-01" purity="5.7850205898284912e-01" nType="0">
          <Node pos="l" depth="2" NCoef="0" IVar="-1" Cut="0.0000000000000000e+00" cType="1" res="3.9572757668793201e-03" rms="4.0002509951591492e-01" purity="6.2183487415313721e-01" nType="-99"/>
          <Node pos="r" depth="2" NCoef="0" IVar="-1" Cut="0.0000000000000000e+00" cType="1" res="-8.7745850905776024e-03" rms="3.8462743163108826e-01" purity="2.6923513412475586e-01" nType="-99"/>
        </Node>
      </Node>
    </BinaryTree>
    <BinaryTree type="DecisionTree" boostWeight="1.0000000000000000e+00" itree="61">
      <Node pos="s" depth="0" NCoef="0" IVar="1" Cut="1.2637689971923828e+02" cType="1" res="2.6685022749006748e-03" rms="3.9394792914390564e-01" purity="5.0257170200347900e-01" nType="0">
        <Node pos="l" depth="1" NCoef="0" IVar="3" Cut="3.2967034727334976e-02" cType="1" res="-6.7690759897232056e-02" rms="3.8234588503837585e-01" purity="3.1182953715324402e-01" nType="0">
          <Node pos="l" depth="2" NCoef="0" IVar="-1" Cut="0.0000000000000000e+00" cType="1" res="-6.5544983372092247e-03" rms="3.8179287314414978e-01" purity="2.6208046078681946e-01" nType="-99"/>
          <Node pos="r" depth="2" NCoef="0" IVar="-1" Cut="0.0000000000000000e+00" cType="1" res="1.1480843648314476e-02" rms="3.1811887025833130e-01" purity="8.7349110841751099e-01" nType="-99"/>
        </Node>
        <Node pos="r" depth="1" NCoef="0" IVar="0" Cut="1.7764567136764526e+00" cType="1" res="5.6142039597034454e-02" rms="3.9423125982284546e-01" purity="6.4753705263137817e-01" nType="0">
          <Node pos="l" depth="2" NCoef="0" IVar="-1" Cut="0.0000000000000000e+00" cType="1" res="5.3181904368102551e-03" rms="3.9367434382438660e-01" purity="6.7474311590194702e-01" nType="-99"/>
          <Node pos="r" depth="2" NCoef="0" IVar="-1" Cut="0.0000000000000000e+00" cType="1" res="-1.1726072058081627e-02" rms="3.3476975560188293e-01" purity="1.8143293261528015e-01" nType="-99"/>
        </Node>
      </Node>
    </BinaryTree>
    <BinaryTree type="DecisionTree" boostWeight="1.0000000000000000e+00" itree="62">
      <Node pos="s" depth="0" NCoef="0" IVar="1" Cut="1.1648740386962891e+02" cType="1" res="2.2783383610658348e-04" rms="3.9539539813995361e-01" purity="4.9991476535797119e-01" nType="0">
        <Node pos="l" depth="1" NCoef="0" IVar="0" Cut="1.6396052837371826e+00" cType="1" res="-1.0480506718158722e-01" rms="3.5853642225265503e-01" purity="2.1658715605735779e-01" nType="0">
          <Node pos="l" depth="2" NCoef="0" IVar="-1" Cut="0.0000000000000000e+00" cType="1" res="-7.2415559552609921e-03" rms="3.7083625793457031e-01" purity="2.3608563840389252e-01" nType="-99"/>
          <Node pos="r" depth="2" NCoef="0" IVar="-1" Cut="0.0000000000000000e+00" cType="1" res="-1.6930501908063889e-02" rms="1.9605350494384766e-01" purity="4.1851025074720383e-02" nType="-99"/>
        </Node>
        <Node pos="r" depth="1" NCoef="0" IVar="0" Cut="1.9382830858230591e+00" cType="1" res="3.4804988652467728e-02" rms="4.0082225203514099e-01" purity="5.9318709373474121e-01" nType="0">
          <Node pos="l" depth="2" NCoef="0" IVar="-1" Cut="0.0000000000000000e+00" cType="1" res="3.4692599438130856e-03" rms="4.0271443128585815e-01" purity="6.1447036266326904e-01" nType="-99"/>
          <Node pos="r" depth="2" NCoef="0" IVar="-1" Cut="0.0000000000000000e+00" cType="1" res="-1.6329849138855934e-02" rms="2.4155928194522858e-01" purity="9.0405248105525970e-02" nType="-99"/>
        </Node>
      </Node>
    </BinaryTree>
    <BinaryTree type="DecisionTree" boostWeight="1.0000000000000000e+00" itree="63">
