<?xml version="1.0"?>
<MethodSetup Method="BDT::BDTG">
  <GeneralInfo>
    <Info name="TMVA Release" value="4.2.1 [262657]"/>
    <Info name="ROOT Release" value="6.24/07 [399367]"/>
    <Info name="Creator" value="xinlongl"/>
    <Info name="Date" value="Thu Jan  1 13:30:50 2026"/>
    <Info name="Host" value="Linux cmsbuild03.cern.ch 3.10.0-1160.45.1.el7.x86_64 #1 SMP Wed Oct 13 17:20:51 UTC 2021 x86_64 x86_64 x86_64 GNU/Linux"/>
    <Info name="Dir" value="/uscms_data/d3/xinlongl/projects/XHY4bRun3/X_HY_4b_Run3_BDT/Auxilary/BDT_datasetPreparation"/>
    <Info name="Training events" value="40000"/>
    <Info name="TrainingTime" value="8.49018884e+00"/>
    <Info name="AnalysisType" value="Classification"/>
  </GeneralInfo>
  <Options>
    <Option name="V" modified="Yes">False</Option>
    <Option name="VerbosityLevel" modified="No">Default</Option>
    <Option name="VarTransform" modified="No">None</Option>
    <Option name="H" modified="Yes">False</Option>
    <Option name="CreateMVAPdfs" modified="No">False</Option>
    <Option name="IgnoreNegWeightsInTraining" modified="No">False</Option>
    <Option name="NTrees" modified="Yes">1000</Option>
    <Option name="MaxDepth" modified="Yes">2</Option>
    <Option name="MinNodeSize" modified="Yes">2.5%</Option>
    <Option name="nCuts" modified="Yes">20</Option>
    <Option name="BoostType" modified="Yes">Grad</Option>
    <Option name="AdaBoostR2Loss" modified="No">quadratic</Option>
    <Option name="UseBaggedBoost" modified="Yes">True</Option>
    <Option name="Shrinkage" modified="Yes">1.000000e-01</Option>
    <Option name="AdaBoostBeta" modified="No">5.000000e-01</Option>
    <Option name="UseRandomisedTrees" modified="No">False</Option>
    <Option name="UseNvars" modified="No">2</Option>
    <Option name="UsePoissonNvars" modified="No">True</Option>
    <Option name="BaggedSampleFraction" modified="Yes">5.000000e-01</Option>
    <Option name="UseYesNoLeaf" modified="No">True</Option>
    <Option name="NegWeightTreatment" modified="No">pray</Option>
    <Option name="Css" modified="No">1.000000e+00</Option>
    <Option name="Cts_sb" modified="No">1.000000e+00</Option>
    <Option name="Ctb_ss" modified="No">1.000000e+00</Option>
    <Option name="Cbb" modified="No">1.000000e+00</Option>
    <Option name="NodePurityLimit" modified="No">5.000000e-01</Option>
    <Option name="SeparationType" modified="No">giniindex</Option>
    <Option name="RegressionLossFunctionBDTG" modified="No">huber</Option>
    <Option name="HuberQuantile" modified="No">7.000000e-01</Option>
    <Option name="DoBoostMonitor" modified="No">False</Option>
    <Option name="UseFisherCuts" modified="No">False</Option>
    <Option name="MinLinCorrForFisher" modified="No">8.000000e-01</Option>
    <Option name="UseExclusiveVars" modified="No">False</Option>
    <Option name="DoPreselection" modified="No">False</Option>
    <Option name="SigToBkgFraction" modified="No">1.000000e+00</Option>
    <Option name="PruneMethod" modified="No">nopruning</Option>
    <Option name="PruneStrength" modified="No">0.000000e+00</Option>
    <Option name="PruningValFraction" modified="No">5.000000e-01</Option>
    <Option name="SkipNormalization" modified="No">False</Option>
    <Option name="nEventsMin" modified="No">0</Option>
    <Option name="UseBaggedGrad" modified="No">False</Option>
    <Option name="GradBaggingFraction" modified="No">5.000000e-01</Option>
    <Option name="UseNTrainEvents" modified="No">0</Option>
    <Option name="NNodesMax" modified="No">0</Option>
  </Options>
  <Variables NVar="4">
    <Variable VarIndex="0" Expression="DeltaY" Label="DeltaY" Title="DeltaY" Unit="" Internal="DeltaY" Type="F" Min="2.39610672e-05" Max="4.44759607e+00"/>
    <Variable VarIndex="1" Expression="MassHiggsCandidate" Label="MassHiggsCandidate" Title="MassHiggsCandidate" Unit="" Internal="MassHiggsCandidate" Type="F" Min="1.00002235e+02" Max="1.49999939e+02"/>
    <Variable VarIndex="2" Expression="PNet_H" Label="PNet_H" Title="PNet_H" Unit="" Internal="PNet_H" Type="F" Min="3.00048828e-01" Max="9.99511719e-01"/>
    <Variable VarIndex="3" Expression="PNet_Y" Label="PNet_Y" Title="PNet_Y" Unit="" Internal="PNet_Y" Type="F" Min="3.00048828e-01" Max="9.99511719e-01"/>
  </Variables>
  <Spectators NSpec="3">
    <Spectator SpecIndex="0" Expression="BDT_weight" Label="BDT_weight" Title="F" Unit="" Internal="BDT_weight" Type="F" Min="-1.14588469e-01" Max="1.04349594e+01"/>
    <Spectator SpecIndex="1" Expression="minPNet" Label="minPNet" Title="F" Unit="" Internal="minPNet" Type="F" Min="3.00048828e-01" Max="9.98046875e-01"/>
    <Spectator SpecIndex="2" Expression="sample_ID" Label="sample_ID" Title="I" Unit="" Internal="sample_ID" Type="F" Min="0.00000000e+00" Max="0.00000000e+00"/>
  </Spectators>
  <Classes NClass="2">
    <Class Name="Signal" Index="0"/>
    <Class Name="Background" Index="1"/>
  </Classes>
  <Transformations NTransformations="0"/>
  <MVAPdfs/>
  <Weights NTrees="1000" AnalysisType="1">
    <BinaryTree type="DecisionTree" boostWeight="1.0000000000000000e+00" itree="0">
      <Node pos="s" depth="0" NCoef="0" IVar="2" Cut="8.6628067493438721e-01" cType="1" res="-7.3830434121191502e-04" rms="4.9999946355819702e-01" purity="4.9926167726516724e-01" nType="0">
        <Node pos="l" depth="1" NCoef="0" IVar="3" Cut="9.3201267719268799e-01" cType="1" res="-2.9187512397766113e-01" rms="4.0596663951873779e-01" purity="2.0812489092350006e-01" nType="0">
          <Node pos="l" depth="2" NCoef="0" IVar="-1" Cut="0.0000000000000000e+00" cType="1" res="-7.9678267240524292e-02" rms="3.0213296413421631e-01" purity="1.0160864889621735e-01" nType="-99"/>
          <Node pos="r" depth="2" NCoef="0" IVar="-1" Cut="0.0000000000000000e+00" cType="1" res="3.2470632344484329e-02" rms="4.7290745377540588e-01" purity="6.6235315799713135e-01" nType="-99"/>
        </Node>
        <Node pos="r" depth="1" NCoef="0" IVar="3" Cut="8.3260089159011841e-01" cType="1" res="3.1175288558006287e-01" rms="3.9090937376022339e-01" purity="8.1175285577774048e-01" nType="0">
          <Node pos="l" depth="2" NCoef="0" IVar="-1" Cut="0.0000000000000000e+00" cType="1" res="1.5716133639216423e-03" rms="4.9993824958801270e-01" purity="5.0785809755325317e-01" nType="-99"/>
          <Node pos="r" depth="2" NCoef="0" IVar="-1" Cut="0.0000000000000000e+00" cType="1" res="8.9166946709156036e-02" rms="2.2634352743625641e-01" purity="9.4583469629287720e-01" nType="-99"/>
        </Node>
      </Node>
    </BinaryTree>
    <BinaryTree type="DecisionTree" boostWeight="1.0000000000000000e+00" itree="1">
      <Node pos="s" depth="0" NCoef="0" IVar="3" Cut="8.6628067493438721e-01" cType="1" res="1.0209764150204137e-04" rms="4.7329634428024292e-01" purity="5.0058984756469727e-01" nType="0">
        <Node pos="l" depth="1" NCoef="0" IVar="2" Cut="9.6620398759841919e-01" cType="1" res="-2.6197564601898193e-01" rms="3.9717015624046326e-01" purity="2.1249920129776001e-01" nType="0">
          <Node pos="l" depth="2" NCoef="0" IVar="-1" Cut="0.0000000000000000e+00" cType="1" res="-6.8941116333007812e-02" rms="3.2618793845176697e-01" purity="1.2672100961208344e-01" nType="-99"/>
          <Node pos="r" depth="2" NCoef="0" IVar="-1" Cut="0.0000000000000000e+00" cType="1" res="6.1149947345256805e-02" rms="3.8709256052970886e-01" purity="8.1367349624633789e-01" nType="-99"/>
        </Node>
        <Node pos="r" depth="1" NCoef="0" IVar="2" Cut="6.6643416881561279e-01" cType="1" res="2.9524585604667664e-01" rms="3.6629894375801086e-01" purity="8.2502841949462891e-01" nType="0">
          <Node pos="l" depth="2" NCoef="0" IVar="-1" Cut="0.0000000000000000e+00" cType="1" res="-2.5228293612599373e-02" rms="4.7478690743446350e-01" purity="3.6859589815139771e-01" nType="-99"/>
          <Node pos="r" depth="2" NCoef="0" IVar="-1" Cut="0.0000000000000000e+00" cType="1" res="7.6018422842025757e-02" rms="2.7385976910591125e-01" purity="9.1414350271224976e-01" nType="-99"/>
        </Node>
      </Node>
    </BinaryTree>
    <BinaryTree type="DecisionTree" boostWeight="1.0000000000000000e+00" itree="2">
      <Node pos="s" depth="0" NCoef="0" IVar="2" Cut="8.3260089159011841e-01" cType="1" res="4.4841296039521694e-03" rms="4.4979748129844666e-01" purity="5.0445097684860229e-01" nType="0">
        <Node pos="l" depth="1" NCoef="0" IVar="3" Cut="9.3201267719268799e-01" cType="1" res="-2.5494107604026794e-01" rms="3.7194913625717163e-01" purity="1.9204406440258026e-01" nType="0">
          <Node pos="l" depth="2" NCoef="0" IVar="-1" Cut="0.0000000000000000e+00" cType="1" res="-6.8580612540245056e-02" rms="2.8908362984657288e-01" purity="9.4302482903003693e-02" nType="-99"/>
          <Node pos="r" depth="2" NCoef="0" IVar="-1" Cut="0.0000000000000000e+00" cType="1" res="2.5354122743010521e-02" rms="4.6885764598846436e-01" purity="6.5164685249328613e-01" nType="-99"/>
        </Node>
        <Node pos="r" depth="1" NCoef="0" IVar="3" Cut="6.9974189996719360e-01" cType="1" res="2.4481464922428131e-01" rms="3.7613067030906677e-01" purity="7.9386359453201294e-01" nType="0">
          <Node pos="l" depth="2" NCoef="0" IVar="-1" Cut="0.0000000000000000e+00" cType="1" res="-1.6066780313849449e-02" rms="4.7465687990188599e-01" purity="4.0517529845237732e-01" nType="-99"/>
          <Node pos="r" depth="2" NCoef="0" IVar="-1" Cut="0.0000000000000000e+00" cType="1" res="6.8904772400856018e-02" rms="2.8186997771263123e-01" purity="9.0392374992370605e-01" nType="-99"/>
        </Node>
      </Node>
    </BinaryTree>
    <BinaryTree type="DecisionTree" boostWeight="1.0000000000000000e+00" itree="3">
      <Node pos="s" depth="0" NCoef="0" IVar="2" Cut="8.6628067493438721e-01" cType="1" res="1.3563245011027902e-04" rms="4.2937779426574707e-01" purity="5.0092118978500366e-01" nType="0">
        <Node pos="l" depth="1" NCoef="0" IVar="3" Cut="8.9916992187500000e-01" cType="1" res="-2.3064985871315002e-01" rms="3.6417239904403687e-01" purity="1.9681997597217560e-01" nType="0">
          <Node pos="l" depth="2" NCoef="0" IVar="-1" Cut="0.0000000000000000e+00" cType="1" res="-6.6465601325035095e-02" rms="2.6728662848472595e-01" purity="7.9548582434654236e-02" nType="-99"/>
          <Node pos="r" depth="2" NCoef="0" IVar="-1" Cut="0.0000000000000000e+00" cType="1" res="1.0115281678736210e-02" rms="4.7521930932998657e-01" purity="5.7336485385894775e-01" nType="-99"/>
        </Node>
        <Node pos="r" depth="1" NCoef="0" IVar="3" Cut="7.6611328125000000e-01" cType="1" res="2.4854972958564758e-01" rms="3.4788158535957336e-01" purity="8.2825118303298950e-01" nType="0">
          <Node pos="l" depth="2" NCoef="0" IVar="-1" Cut="0.0000000000000000e+00" cType="1" res="2.4347899015992880e-03" rms="4.8423236608505249e-01" purity="5.0323039293289185e-01" nType="-99"/>
          <Node pos="r" depth="2" NCoef="0" IVar="-1" Cut="0.0000000000000000e+00" cType="1" res="6.7694716155529022e-02" rms="2.5090914964675903e-01" purity="9.2931222915649414e-01" nType="-99"/>
        </Node>
      </Node>
    </BinaryTree>
    <BinaryTree type="DecisionTree" boostWeight="1.0000000000000000e+00" itree="4">
      <Node pos="s" depth="0" NCoef="0" IVar="2" Cut="8.9958846569061279e-01" cType="1" res="-4.8619057051837444e-03" rms="4.1283071041107178e-01" purity="4.9575465917587280e-01" nType="0">
        <Node pos="l" depth="1" NCoef="0" IVar="3" Cut="8.9916992187500000e-01" cType="1" res="-1.8547229468822479e-01" rms="3.7571781873703003e-01" purity="2.3581026494503021e-01" nType="0">
          <Node pos="l" depth="2" NCoef="0" IVar="-1" Cut="0.0000000000000000e+00" cType="1" res="-6.0668107122182846e-02" rms="2.8305804729461670e-01" purity="9.3734450638294220e-02" nType="-99"/>
          <Node pos="r" depth="2" NCoef="0" IVar="-1" Cut="0.0000000000000000e+00" cType="1" res="1.7232993617653847e-02" rms="4.5999351143836975e-01" purity="6.2982296943664551e-01" nType="-99"/>
        </Node>
        <Node pos="r" depth="1" NCoef="0" IVar="3" Cut="7.6603192090988159e-01" cType="1" res="2.3933786153793335e-01" rms="3.2597500085830688e-01" purity="8.4722030162811279e-01" nType="0">
          <Node pos="l" depth="2" NCoef="0" IVar="-1" Cut="0.0000000000000000e+00" cType="1" res="3.6203607451170683e-03" rms="4.8602539300918579e-01" purity="5.1456743478775024e-01" nType="-99"/>
          <Node pos="r" depth="2" NCoef="0" IVar="-1" Cut="0.0000000000000000e+00" cType="1" res="6.6008329391479492e-02" rms="2.2424483299255371e-01" purity="9.4362312555313110e-01" nType="-99"/>
        </Node>
      </Node>
    </BinaryTree>
    <BinaryTree type="DecisionTree" boostWeight="1.0000000000000000e+00" itree="5">
      <Node pos="s" depth="0" NCoef="0" IVar="2" Cut="7.6635742187500000e-01" cType="1" res="-1.2241196818649769e-03" rms="3.9831265807151794e-01" purity="4.9685522913932800e-01" nType="0">
        <Node pos="l" depth="1" NCoef="0" IVar="3" Cut="9.6527391672134399e-01" cType="1" res="-2.2767691314220428e-01" rms="3.1568577885627747e-01" purity="1.4466711878776550e-01" nType="0">
          <Node pos="l" depth="2" NCoef="0" IVar="-1" Cut="0.0000000000000000e+00" cType="1" res="-5.9394177049398422e-02" rms="2.6692590117454529e-01" purity="8.5544012486934662e-02" nType="-99"/>
          <Node pos="r" depth="2" NCoef="0" IVar="-1" Cut="0.0000000000000000e+00" cType="1" res="3.0629582703113556e-02" rms="4.5401790738105774e-01" purity="6.9751995801925659e-01" nType="-99"/>
        </Node>
        <Node pos="r" depth="1" NCoef="0" IVar="3" Cut="8.9958846569061279e-01" cType="1" res="1.5844671428203583e-01" rms="3.7228712439537048e-01" purity="7.4518144130706787e-01" nType="0">
          <Node pos="l" depth="2" NCoef="0" IVar="-1" Cut="0.0000000000000000e+00" cType="1" res="-3.8916597259230912e-04" rms="4.5565643906593323e-01" purity="4.8803985118865967e-01" nType="-99"/>
          <Node pos="r" depth="2" NCoef="0" IVar="-1" Cut="0.0000000000000000e+00" cType="1" res="6.3455715775489807e-02" rms="2.2355464100837708e-01" purity="9.4403845071792603e-01" nType="-99"/>
        </Node>
      </Node>
    </BinaryTree>
    <BinaryTree type="DecisionTree" boostWeight="1.0000000000000000e+00" itree="6">
      <Node pos="s" depth="0" NCoef="0" IVar="3" Cut="8.9916992187500000e-01" cType="1" res="-6.7569236271083355e-03" rms="3.8533338904380798e-01" purity="4.9273911118507385e-01" nType="0">
        <Node pos="l" depth="1" NCoef="0" IVar="2" Cut="9.6573895215988159e-01" cType="1" res="-1.5863351523876190e-01" rms="3.6199411749839783e-01" purity="2.2959740459918976e-01" nType="0">
          <Node pos="l" depth="2" NCoef="0" IVar="-1" Cut="0.0000000000000000e+00" cType="1" res="-4.9150347709655762e-02" rms="3.1974700093269348e-01" purity="1.3814017176628113e-01" nType="-99"/>
          <Node pos="r" depth="2" NCoef="0" IVar="-1" Cut="0.0000000000000000e+00" cType="1" res="4.5555558055639267e-02" rms="3.8412660360336304e-01" purity="8.0270123481750488e-01" nType="-99"/>
        </Node>
        <Node pos="r" depth="1" NCoef="0" IVar="2" Cut="5.6651085615158081e-01" cType="1" res="2.0105046033859253e-01" rms="3.1241354346275330e-01" purity="8.5278660058975220e-01" nType="0">
          <Node pos="l" depth="2" NCoef="0" IVar="-1" Cut="0.0000000000000000e+00" cType="1" res="-2.6690704748034477e-02" rms="4.6997269988059998e-01" purity="3.6067768931388855e-01" nType="-99"/>
          <Node pos="r" depth="2" NCoef="0" IVar="-1" Cut="0.0000000000000000e+00" cType="1" res="5.6360751390457153e-02" rms="2.5643253326416016e-01" purity="9.1595625877380371e-01" nType="-99"/>
        </Node>
      </Node>
    </BinaryTree>
    <BinaryTree type="DecisionTree" boostWeight="1.0000000000000000e+00" itree="7">
      <Node pos="s" depth="0" NCoef="0" IVar="2" Cut="9.3289619684219360e-01" cType="1" res="-2.5957534089684486e-03" rms="3.7367889285087585e-01" purity="4.9421259760856628e-01" nType="0">
        <Node pos="l" depth="1" NCoef="0" IVar="3" Cut="9.6620398759841919e-01" cType="1" res="-1.2309804558753967e-01" rms="3.6571687459945679e-01" purity="2.7601939439773560e-01" nType="0">
          <Node pos="l" depth="2" NCoef="0" IVar="-1" Cut="0.0000000000000000e+00" cType="1" res="-4.0899179875850677e-02" rms="3.3917662501335144e-01" purity="1.8163785338401794e-01" nType="-99"/>
          <Node pos="r" depth="2" NCoef="0" IVar="-1" Cut="0.0000000000000000e+00" cType="1" res="4.3435346335172653e-02" rms="3.5445752739906311e-01" purity="8.3559441566467285e-01" nType="-99"/>
        </Node>
        <Node pos="r" depth="1" NCoef="0" IVar="3" Cut="5.6632488965988159e-01" cType="1" res="2.1591171622276306e-01" rms="2.7610659599304199e-01" purity="8.8986343145370483e-01" nType="0">
          <Node pos="l" depth="2" NCoef="0" IVar="-1" Cut="0.0000000000000000e+00" cType="1" res="-3.5769753158092499e-03" rms="4.8623487353324890e-01" purity="4.9045783281326294e-01" nType="-99"/>
          <Node pos="r" depth="2" NCoef="0" IVar="-1" Cut="0.0000000000000000e+00" cType="1" res="5.8858640491962433e-02" rms="2.2192810475826263e-01" purity="9.3854004144668579e-01" nType="-99"/>
        </Node>
      </Node>
    </BinaryTree>
    <BinaryTree type="DecisionTree" boostWeight="1.0000000000000000e+00" itree="8">
      <Node pos="s" depth="0" NCoef="0" IVar="2" Cut="8.6628067493438721e-01" cType="1" res="-4.5806603156961501e-04" rms="3.6322790384292603e-01" purity="4.9822375178337097e-01" nType="0">
        <Node pos="l" depth="1" NCoef="0" IVar="3" Cut="9.3245440721511841e-01" cType="1" res="-1.4227870106697083e-01" rms="3.3697384595870972e-01" purity="2.0577755570411682e-01" nType="0">
          <Node pos="l" depth="2" NCoef="0" IVar="-1" Cut="0.0000000000000000e+00" cType="1" res="-4.8332039266824722e-02" rms="2.7882343530654907e-01" purity="9.3375056982040405e-02" nType="-99"/>
          <Node pos="r" depth="2" NCoef="0" IVar="-1" Cut="0.0000000000000000e+00" cType="1" res="1.7559247091412544e-02" rms="4.4560429453849792e-01" purity="6.7122411727905273e-01" nType="-99"/>
        </Node>
        <Node pos="r" depth="1" NCoef="0" IVar="3" Cut="7.6635742187500000e-01" cType="1" res="1.5524472296237946e-01" rms="3.2525658607482910e-01" purity="8.1929606199264526e-01" nType="0">
          <Node pos="l" depth="2" NCoef="0" IVar="-1" Cut="0.0000000000000000e+00" cType="1" res="-2.6191753568127751e-04" rms="4.7249668836593628e-01" purity="4.7930392622947693e-01" nType="-99"/>
          <Node pos="r" depth="2" NCoef="0" IVar="-1" Cut="0.0000000000000000e+00" cType="1" res="5.2071802318096161e-02" rms="2.4062280356884003e-01" purity="9.2799931764602661e-01" nType="-99"/>
        </Node>
      </Node>
    </BinaryTree>
    <BinaryTree type="DecisionTree" boostWeight="1.0000000000000000e+00" itree="9">
      <Node pos="s" depth="0" NCoef="0" IVar="3" Cut="8.3297294378280640e-01" cType="1" res="-2.9747933149337769e-04" rms="3.5614776611328125e-01" purity="5.0059974193572998e-01" nType="0">
        <Node pos="l" depth="1" NCoef="0" IVar="2" Cut="9.3289619684219360e-01" cType="1" res="-1.3925477862358093e-01" rms="3.3676618337631226e-01" purity="1.9307726621627808e-01" nType="0">
          <Node pos="l" depth="2" NCoef="0" IVar="-1" Cut="0.0000000000000000e+00" cType="1" res="-4.7419745475053787e-02" rms="2.7882972359657288e-01" purity="9.3116633594036102e-02" nType="-99"/>
          <Node pos="r" depth="2" NCoef="0" IVar="-1" Cut="0.0000000000000000e+00" cType="1" res="1.4835103414952755e-02" rms="4.6130973100662231e-01" purity="6.2499421834945679e-01" nType="-99"/>
        </Node>
        <Node pos="r" depth="1" NCoef="0" IVar="2" Cut="5.6632488965988159e-01" cType="1" res="1.3756479322910309e-01" rms="3.1937783956527710e-01" purity="8.0569881200790405e-01" nType="0">
          <Node pos="l" depth="2" NCoef="0" IVar="-1" Cut="0.0000000000000000e+00" cType="1" res="-3.1608503311872482e-02" rms="4.2406934499740601e-01" purity="2.7241453528404236e-01" nType="-99"/>
          <Node pos="r" depth="2" NCoef="0" IVar="-1" Cut="0.0000000000000000e+00" cType="1" res="4.5353420078754425e-02" rms="2.8037241101264954e-01" purity="8.7978458404541016e-01" nType="-99"/>
        </Node>
      </Node>
    </BinaryTree>
    <BinaryTree type="DecisionTree" boostWeight="1.0000000000000000e+00" itree="10">
      <Node pos="s" depth="0" NCoef="0" IVar="3" Cut="8.6628067493438721e-01" cType="1" res="-1.0510197607800364e-03" rms="3.4960865974426270e-01" purity="4.9867433309555054e-01" nType="0">
        <Node pos="l" depth="1" NCoef="0" IVar="2" Cut="9.6573895215988159e-01" cType="1" res="-1.1802821606397629e-01" rms="3.3908113837242126e-01" purity="2.1327111124992371e-01" nType="0">
          <Node pos="l" depth="2" NCoef="0" IVar="-1" Cut="0.0000000000000000e+00" cType="1" res="-4.0655158460140228e-02" rms="3.0852559208869934e-01" purity="1.2816989421844482e-01" nType="-99"/>
          <Node pos="r" depth="2" NCoef="0" IVar="-1" Cut="0.0000000000000000e+00" cType="1" res="3.2851479947566986e-02" rms="4.0227195620536804e-01" purity="7.7300083637237549e-01" nType="-99"/>
        </Node>
        <Node pos="r" depth="1" NCoef="0" IVar="2" Cut="6.3312637805938721e-01" cType="1" res="1.3281284272670746e-01" rms="3.1135910749435425e-01" purity="8.2527798414230347e-01" nType="0">
          <Node pos="l" depth="2" NCoef="0" IVar="-1" Cut="0.0000000000000000e+00" cType="1" res="-1.4421245083212852e-02" rms="4.5302787423133850e-01" purity="3.6760097742080688e-01" nType="-99"/>
          <Node pos="r" depth="2" NCoef="0" IVar="-1" Cut="0.0000000000000000e+00" cType="1" res="4.5598573982715607e-02" rms="2.6266959309577942e-01" purity="9.0767711400985718e-01" nType="-99"/>
        </Node>
      </Node>
    </BinaryTree>
    <BinaryTree type="DecisionTree" boostWeight="1.0000000000000000e+00" itree="11">
      <Node pos="s" depth="0" NCoef="0" IVar="3" Cut="8.9916992187500000e-01" cType="1" res="-9.9822646006941795e-03" rms="3.4127411246299744e-01" purity="4.8337039351463318e-01" nType="0">
        <Node pos="l" depth="1" NCoef="0" IVar="2" Cut="9.3245440721511841e-01" cType="1" res="-1.0754128545522690e-01" rms="3.3383241295814514e-01" purity="2.2127684950828552e-01" nType="0">
          <Node pos="l" depth="2" NCoef="0" IVar="-1" Cut="0.0000000000000000e+00" cType="1" res="-4.1789583861827850e-02" rms="2.8700029850006104e-01" purity="1.0130598396062851e-01" nType="-99"/>
          <Node pos="r" depth="2" NCoef="0" IVar="-1" Cut="0.0000000000000000e+00" cType="1" res="1.5481489710509777e-02" rms="4.2682564258575439e-01" purity="6.7680704593658447e-01" nType="-99"/>
        </Node>
        <Node pos="r" depth="1" NCoef="0" IVar="2" Cut="5.9981864690780640e-01" cType="1" res="1.2822310626506805e-01" rms="3.0166402459144592e-01" purity="8.5466086864471436e-01" nType="0">
          <Node pos="l" depth="2" NCoef="0" IVar="-1" Cut="0.0000000000000000e+00" cType="1" res="-1.2958274222910404e-02" rms="4.7552940249443054e-01" purity="4.0285325050354004e-01" nType="-99"/>
          <Node pos="r" depth="2" NCoef="0" IVar="-1" Cut="0.0000000000000000e+00" cType="1" res="4.3994866311550140e-02" rms="2.5810211896896362e-01" purity="9.1708076000213623e-01" nType="-99"/>
        </Node>
      </Node>
    </BinaryTree>
    <BinaryTree type="DecisionTree" boostWeight="1.0000000000000000e+00" itree="12">
      <Node pos="s" depth="0" NCoef="0" IVar="3" Cut="9.3289619684219360e-01" cType="1" res="-4.4729900546371937e-03" rms="3.3662676811218262e-01" purity="4.9425590038299561e-01" nType="0">
        <Node pos="l" depth="1" NCoef="0" IVar="2" Cut="9.6620398759841919e-01" cType="1" res="-8.1703461706638336e-02" rms="3.4733068943023682e-01" purity="2.7462965250015259e-01" nType="0">
          <Node pos="l" depth="2" NCoef="0" IVar="-1" Cut="0.0000000000000000e+00" cType="1" res="-3.2081209123134613e-02" rms="3.3035519719123840e-01" purity="1.6970615088939667e-01" nType="-99"/>
          <Node pos="r" depth="2" NCoef="0" IVar="-1" Cut="0.0000000000000000e+00" cType="1" res="2.7115533128380775e-02" rms="3.6894315481185913e-01" purity="8.1087255477905273e-01" nType="-99"/>
        </Node>
        <Node pos="r" depth="1" NCoef="0" IVar="2" Cut="6.3312637805938721e-01" cType="1" res="1.3646233081817627e-01" rms="2.6307874917984009e-01" purity="8.9504456520080566e-01" nType="0">
          <Node pos="l" depth="2" NCoef="0" IVar="-1" Cut="0.0000000000000000e+00" cType="1" res="-9.9911792203783989e-03" rms="4.8613223433494568e-01" purity="4.6532064676284790e-01" nType="-99"/>
          <Node pos="r" depth="2" NCoef="0" IVar="-1" Cut="0.0000000000000000e+00" cType="1" res="4.9091260880231857e-02" rms="2.0578379929065704e-01" purity="9.5105785131454468e-01" nType="-99"/>
        </Node>
      </Node>
    </BinaryTree>
    <BinaryTree type="DecisionTree" boostWeight="1.0000000000000000e+00" itree="13">
      <Node pos="s" depth="0" NCoef="0" IVar="2" Cut="8.3297294378280640e-01" cType="1" res="4.0582604706287384e-03" rms="3.3501303195953369e-01" purity="5.0028699636459351e-01" nType="0">
        <Node pos="l" depth="1" NCoef="0" IVar="3" Cut="7.6603192090988159e-01" cType="1" res="-1.0018588602542877e-01" rms="3.2041937112808228e-01" purity="1.8505240976810455e-01" nType="0">
          <Node pos="l" depth="2" NCoef="0" IVar="-1" Cut="0.0000000000000000e+00" cType="1" res="-4.8421226441860199e-02" rms="2.0547565817832947e-01" purity="4.4512432068586349e-02" nType="-99"/>
          <Node pos="r" depth="2" NCoef="0" IVar="-1" Cut="0.0000000000000000e+00" cType="1" res="-3.5920904483646154e-03" rms="4.3203213810920715e-01" purity="4.0806248784065247e-01" nType="-99"/>
        </Node>
        <Node pos="r" depth="1" NCoef="0" IVar="3" Cut="5.9974890947341919e-01" cType="1" res="1.0165913403034210e-01" rms="3.1857350468635559e-01" purity="7.9543226957321167e-01" nType="0">
          <Node pos="l" depth="2" NCoef="0" IVar="-1" Cut="0.0000000000000000e+00" cType="1" res="-1.3460229150950909e-02" rms="4.4617825746536255e-01" purity="3.6373847723007202e-01" nType="-99"/>
          <Node pos="r" depth="2" NCoef="0" IVar="-1" Cut="0.0000000000000000e+00" cType="1" res="3.9309680461883545e-02" rms="2.7770137786865234e-01" purity="8.7700301408767700e-01" nType="-99"/>
        </Node>
      </Node>
    </BinaryTree>
    <BinaryTree type="DecisionTree" boostWeight="1.0000000000000000e+00" itree="14">
      <Node pos="s" depth="0" NCoef="0" IVar="2" Cut="6.9974189996719360e-01" cType="1" res="2.6814667508006096e-03" rms="3.2684716582298279e-01" purity="4.9828922748565674e-01" nType="0">
        <Node pos="l" depth="1" NCoef="0" IVar="3" Cut="9.6527391672134399e-01" cType="1" res="-1.2483429908752441e-01" rms="2.7447327971458435e-01" purity="1.2436937540769577e-01" nType="0">
          <Node pos="l" depth="2" NCoef="0" IVar="-1" Cut="0.0000000000000000e+00" cType="1" res="-4.4620562344789505e-02" rms="2.3984955251216888e-01" purity="7.0819586515426636e-02" nType="-99"/>
          <Node pos="r" depth="2" NCoef="0" IVar="-1" Cut="0.0000000000000000e+00" cType="1" res="1.5477956272661686e-02" rms="4.5896792411804199e-01" purity="6.6074049472808838e-01" nType="-99"/>
        </Node>
        <Node pos="r" depth="1" NCoef="0" IVar="3" Cut="6.6643416881561279e-01" cType="1" res="7.5977712869644165e-02" rms="3.3198314905166626e-01" purity="7.1321892738342285e-01" nType="0">
          <Node pos="l" depth="2" NCoef="0" IVar="-1" Cut="0.0000000000000000e+00" cType="1" res="-1.2602866627275944e-02" rms="4.0094631910324097e-01" purity="2.9251760244369507e-01" nType="-99"/>
          <Node pos="r" depth="2" NCoef="0" IVar="-1" Cut="0.0000000000000000e+00" cType="1" res="3.5747040063142776e-02" rms="2.9426562786102295e-01" purity="8.5165923833847046e-01" nType="-99"/>
        </Node>
      </Node>
    </BinaryTree>
    <BinaryTree type="DecisionTree" boostWeight="1.0000000000000000e+00" itree="15">
      <Node pos="s" depth="0" NCoef="0" IVar="2" Cut="7.3304969072341919e-01" cType="1" res="1.9706697203218937e-03" rms="3.2165154814720154e-01" purity="5.0144118070602417e-01" nType="0">
        <Node pos="l" depth="1" NCoef="0" IVar="3" Cut="9.6527391672134399e-01" cType="1" res="-1.0945023596286774e-01" rms="2.7874422073364258e-01" purity="1.2818422913551331e-01" nType="0">
          <Node pos="l" depth="2" NCoef="0" IVar="-1" Cut="0.0000000000000000e+00" cType="1" res="-4.0536634624004364e-02" rms="2.4837417900562286e-01" purity="7.7763497829437256e-02" nType="-99"/>
          <Node pos="r" depth="2" NCoef="0" IVar="-1" Cut="0.0000000000000000e+00" cType="1" res="1.0497760027647018e-02" rms="4.6306729316711426e-01" purity="6.4572823047637939e-01" nType="-99"/>
        </Node>
        <Node pos="r" depth="1" NCoef="0" IVar="3" Cut="5.6632488965988159e-01" cType="1" res="7.0319823920726776e-02" rms="3.2707098126411438e-01" purity="7.3040884733200073e-01" nType="0">
          <Node pos="l" depth="2" NCoef="0" IVar="-1" Cut="0.0000000000000000e+00" cType="1" res="-1.7814848572015762e-02" rms="3.9296922087669373e-01" purity="2.7605423331260681e-01" nType="-99"/>
          <Node pos="r" depth="2" NCoef="0" IVar="-1" Cut="0.0000000000000000e+00" cType="1" res="3.1098030507564545e-02" rms="3.0253350734710693e-01" purity="8.2739615440368652e-01" nType="-99"/>
        </Node>
      </Node>
    </BinaryTree>
    <BinaryTree type="DecisionTree" boostWeight="1.0000000000000000e+00" itree="16">
      <Node pos="s" depth="0" NCoef="0" IVar="3" Cut="7.6603192090988159e-01" cType="1" res="4.9069109372794628e-03" rms="3.2293739914894104e-01" purity="5.0738525390625000e-01" nType="0">
        <Node pos="l" depth="1" NCoef="0" IVar="2" Cut="9.6573895215988159e-01" cType="1" res="-8.6296126246452332e-02" rms="3.0930346250534058e-01" purity="1.6986423730850220e-01" nType="0">
          <Node pos="l" depth="2" NCoef="0" IVar="-1" Cut="0.0000000000000000e+00" cType="1" res="-3.6159168928861618e-02" rms="2.7946239709854126e-01" purity="9.6370391547679901e-02" nType="-99"/>
          <Node pos="r" depth="2" NCoef="0" IVar="-1" Cut="0.0000000000000000e+00" cType="1" res="2.9357699677348137e-02" rms="4.2419171333312988e-01" purity="7.5638884305953979e-01" nType="-99"/>
        </Node>
        <Node pos="r" depth="1" NCoef="0" IVar="0" Cut="1.9174867868423462e+00" cType="1" res="7.2836138308048248e-02" rms="3.1606817245483398e-01" purity="7.5877523422241211e-01" nType="0">
          <Node pos="l" depth="2" NCoef="0" IVar="-1" Cut="0.0000000000000000e+00" cType="1" res="2.7251103892922401e-02" rms="3.0822163820266724e-01" purity="7.8163999319076538e-01" nType="-99"/>
          <Node pos="r" depth="2" NCoef="0" IVar="-1" Cut="0.0000000000000000e+00" cType="1" res="-6.1387788504362106e-02" rms="3.4116616845130920e-01" purity="2.5762006640434265e-01" nType="-99"/>
        </Node>
      </Node>
    </BinaryTree>
    <BinaryTree type="DecisionTree" boostWeight="1.0000000000000000e+00" itree="17">
      <Node pos="s" depth="0" NCoef="0" IVar="2" Cut="9.3289619684219360e-01" cType="1" res="2.9259183793328702e-04" rms="3.1842303276062012e-01" purity="4.9691948294639587e-01" nType="0">
        <Node pos="l" depth="1" NCoef="0" IVar="3" Cut="9.6573895215988159e-01" cType="1" res="-5.6531451642513275e-02" rms="3.3251827955245972e-01" purity="2.7491554617881775e-01" nType="0">
          <Node pos="l" depth="2" NCoef="0" IVar="-1" Cut="0.0000000000000000e+00" cType="1" res="-2.5407364591956139e-02" rms="3.2440835237503052e-01" purity="1.8105587363243103e-01" nType="-99"/>
          <Node pos="r" depth="2" NCoef="0" IVar="-1" Cut="0.0000000000000000e+00" cType="1" res="2.5084238499403000e-02" rms="3.4317040443420410e-01" purity="8.3449524641036987e-01" nType="-99"/>
        </Node>
        <Node pos="r" depth="1" NCoef="0" IVar="2" Cut="9.8370069265365601e-01" cType="1" res="1.0221067070960999e-01" rms="2.6221784949302673e-01" purity="8.9509958028793335e-01" nType="0">
          <Node pos="l" depth="2" NCoef="0" IVar="-1" Cut="0.0000000000000000e+00" cType="1" res="1.9363304600119591e-02" rms="3.2152423262596130e-01" purity="8.2684731483459473e-01" nType="-99"/>
          <Node pos="r" depth="2" NCoef="0" IVar="-1" Cut="0.0000000000000000e+00" cType="1" res="5.0419617444276810e-02" rms="1.7982502281665802e-01" purity="9.6040517091751099e-01" nType="-99"/>
        </Node>
      </Node>
    </BinaryTree>
    <BinaryTree type="DecisionTree" boostWeight="1.0000000000000000e+00" itree="18">
      <Node pos="s" depth="0" NCoef="0" IVar="2" Cut="8.9958846569061279e-01" cType="1" res="8.2317844498902559e-04" rms="3.1569328904151917e-01" purity="4.9697059392929077e-01" nType="0">
        <Node pos="l" depth="1" NCoef="0" IVar="3" Cut="7.6603192090988159e-01" cType="1" res="-5.9670154005289078e-02" rms="3.2388091087341309e-01" purity="2.2820717096328735e-01" nType="0">
          <Node pos="l" depth="2" NCoef="0" IVar="-1" Cut="0.0000000000000000e+00" cType="1" res="-3.7456206977367401e-02" rms="2.3257032036781311e-01" purity="6.0537364333868027e-02" nType="-99"/>
          <Node pos="r" depth="2" NCoef="0" IVar="-1" Cut="0.0000000000000000e+00" cType="1" res="-5.3095578914508224e-04" rms="4.1572678089141846e-01" purity="4.7092959284782410e-01" nType="-99"/>
        </Node>
        <Node pos="r" depth="1" NCoef="0" IVar="1" Cut="1.1428550720214844e+02" cType="1" res="8.0652892589569092e-02" rms="2.8556936979293823e-01" purity="8.5164296627044678e-01" nType="0">
          <Node pos="l" depth="2" NCoef="0" IVar="-1" Cut="0.0000000000000000e+00" cType="1" res="-1.5780089423060417e-02" rms="3.6579677462577820e-01" purity="6.6576504707336426e-01" nType="-99"/>
          <Node pos="r" depth="2" NCoef="0" IVar="-1" Cut="0.0000000000000000e+00" cType="1" res="3.4434702247381210e-02" rms="2.6483941078186035e-01" purity="8.8094592094421387e-01" nType="-99"/>
        </Node>
      </Node>
    </BinaryTree>
    <BinaryTree type="DecisionTree" boostWeight="1.0000000000000000e+00" itree="19">
      <Node pos="s" depth="0" NCoef="0" IVar="3" Cut="9.3289619684219360e-01" cType="1" res="2.9555519577115774e-03" rms="3.1921774148941040e-01" purity="5.0569099187850952e-01" nType="0">
        <Node pos="l" depth="1" NCoef="0" IVar="2" Cut="9.3289619684219360e-01" cType="1" res="-4.3876539915800095e-02" rms="3.3897593617439270e-01" purity="2.8841659426689148e-01" nType="0">
          <Node pos="l" depth="2" NCoef="0" IVar="-1" Cut="0.0000000000000000e+00" cType="1" res="-2.4622349068522453e-02" rms="3.1481358408927917e-01" purity="1.4051415026187897e-01" nType="-99"/>
          <Node pos="r" depth="2" NCoef="0" IVar="-1" Cut="0.0000000000000000e+00" cType="1" res="1.2999899685382843e-02" rms="3.9137372374534607e-01" purity="7.5116831064224243e-01" nType="-99"/>
        </Node>
        <Node pos="r" depth="1" NCoef="0" IVar="2" Cut="4.9989536404609680e-01" cType="1" res="8.7165489792823792e-02" rms="2.5977072119712830e-01" purity="8.9637744426727295e-01" nType="0">
          <Node pos="l" depth="2" NCoef="0" IVar="-1" Cut="0.0000000000000000e+00" cType="1" res="-7.4959010817110538e-03" rms="4.8242911696434021e-01" purity="4.5279389619827271e-01" nType="-99"/>
          <Node pos="r" depth="2" NCoef="0" IVar="-1" Cut="0.0000000000000000e+00" cType="1" res="3.7015825510025024e-02" rms="2.3146001994609833e-01" purity="9.3033063411712646e-01" nType="-99"/>
        </Node>
      </Node>
    </BinaryTree>
    <BinaryTree type="DecisionTree" boostWeight="1.0000000000000000e+00" itree="20">
      <Node pos="s" depth="0" NCoef="0" IVar="2" Cut="9.3289619684219360e-01" cType="1" res="2.3306596558541059e-03" rms="3.1067505478858948e-01" purity="4.9485576152801514e-01" nType="0">
        <Node pos="l" depth="1" NCoef="0" IVar="3" Cut="9.6573895215988159e-01" cType="1" res="-4.0255401283502579e-02" rms="3.2522401213645935e-01" purity="2.7585655450820923e-01" nType="0">
          <Node pos="l" depth="2" NCoef="0" IVar="-1" Cut="0.0000000000000000e+00" cType="1" res="-2.0141959190368652e-02" rms="3.2097986340522766e-01" purity="1.8572324514389038e-01" nType="-99"/>
          <Node pos="r" depth="2" NCoef="0" IVar="-1" Cut="0.0000000000000000e+00" cType="1" res="2.4770682677626610e-02" rms="3.2520434260368347e-01" purity="8.4716325998306274e-01" nType="-99"/>
        </Node>
        <Node pos="r" depth="1" NCoef="0" IVar="2" Cut="9.8053848743438721e-01" cType="1" res="7.9295322299003601e-02" rms="2.6570191979408264e-01" purity="8.9064723253250122e-01" nType="0">
          <Node pos="l" depth="2" NCoef="0" IVar="-1" Cut="0.0000000000000000e+00" cType="1" res="1.1329789645969868e-02" rms="3.3402031660079956e-01" purity="8.0450999736785889e-01" nType="-99"/>
          <Node pos="r" depth="2" NCoef="0" IVar="-1" Cut="0.0000000000000000e+00" cType="1" res="4.6159833669662476e-02" rms="1.8698911368846893e-01" purity="9.5936256647109985e-01" nType="-99"/>
        </Node>
      </Node>
    </BinaryTree>
    <BinaryTree type="DecisionTree" boostWeight="1.0000000000000000e+00" itree="21">
      <Node pos="s" depth="0" NCoef="0" IVar="2" Cut="6.9974189996719360e-01" cType="1" res="-3.2338523305952549e-03" rms="3.1804677844047546e-01" purity="4.9776685237884521e-01" nType="0">
        <Node pos="l" depth="1" NCoef="0" IVar="2" Cut="4.9036225676536560e-01" cType="1" res="-7.4943110346794128e-02" rms="2.8465300798416138e-01" purity="1.2803930044174194e-01" nType="0">
          <Node pos="l" depth="2" NCoef="0" IVar="-1" Cut="0.0000000000000000e+00" cType="1" res="-3.6265637725591660e-02" rms="2.4936242401599884e-01" purity="8.7153278291225433e-02" nType="-99"/>
          <Node pos="r" depth="2" NCoef="0" IVar="-1" Cut="0.0000000000000000e+00" cType="1" res="-1.7408747225999832e-02" rms="3.1964784860610962e-01" purity="1.7677402496337891e-01" nType="-99"/>
        </Node>
        <Node pos="r" depth="1" NCoef="0" IVar="3" Cut="6.3289386034011841e-01" cType="1" res="3.5671256482601166e-02" rms="3.2828289270401001e-01" purity="6.9835865497589111e-01" nType="0">
          <Node pos="l" depth="2" NCoef="0" IVar="-1" Cut="0.0000000000000000e+00" cType="1" res="-1.4332566410303116e-02" rms="3.9119759202003479e-01" purity="2.6681908965110779e-01" nType="-99"/>
          <Node pos="r" depth="2" NCoef="0" IVar="-1" Cut="0.0000000000000000e+00" cType="1" res="2.2237088531255722e-02" rms="3.0260387063026428e-01" purity="8.2564401626586914e-01" nType="-99"/>
        </Node>
      </Node>
    </BinaryTree>
    <BinaryTree type="DecisionTree" boostWeight="1.0000000000000000e+00" itree="22">
      <Node pos="s" depth="0" NCoef="0" IVar="3" Cut="7.6635742187500000e-01" cType="1" res="1.7466355348005891e-04" rms="3.1170651316642761e-01" purity="5.0579613447189331e-01" nType="0">
        <Node pos="l" depth="1" NCoef="0" IVar="0" Cut="1.2709320783615112e+00" cType="1" res="-6.0558736324310303e-02" rms="3.0245989561080933e-01" purity="1.6934275627136230e-01" nType="0">
          <Node pos="l" depth="2" NCoef="0" IVar="-1" Cut="0.0000000000000000e+00" cType="1" res="-1.3406434096395969e-02" rms="3.1762588024139404e-01" purity="1.9801436364650726e-01" nType="-99"/>
          <Node pos="r" depth="2" NCoef="0" IVar="-1" Cut="0.0000000000000000e+00" cType="1" res="-3.8338001817464828e-02" rms="2.6364886760711670e-01" purity="1.1167948693037033e-01" nType="-99"/>
        </Node>
        <Node pos="r" depth="1" NCoef="0" IVar="2" Cut="4.9989536404609680e-01" cType="1" res="4.4393036514520645e-02" rms="3.1089365482330322e-01" purity="7.5075894594192505e-01" nType="0">
          <Node pos="l" depth="2" NCoef="0" IVar="-1" Cut="0.0000000000000000e+00" cType="1" res="-2.0974587649106979e-02" rms="3.6289498209953308e-01" purity="2.0931848883628845e-01" nType="-99"/>
          <Node pos="r" depth="2" NCoef="0" IVar="-1" Cut="0.0000000000000000e+00" cType="1" res="2.2473637014627457e-02" rms="2.9996329545974731e-01" purity="8.2137596607208252e-01" nType="-99"/>
        </Node>
      </Node>
    </BinaryTree>
    <BinaryTree type="DecisionTree" boostWeight="1.0000000000000000e+00" itree="23">
      <Node pos="s" depth="0" NCoef="0" IVar="3" Cut="8.9958846569061279e-01" cType="1" res="-5.9336336562409997e-04" rms="3.0756911635398865e-01" purity="4.9571976065635681e-01" nType="0">
        <Node pos="l" depth="1" NCoef="0" IVar="2" Cut="9.6620398759841919e-01" cType="1" res="-4.3763097375631332e-02" rms="3.2333651185035706e-01" purity="2.3231446743011475e-01" nType="0">
          <Node pos="l" depth="2" NCoef="0" IVar="-1" Cut="0.0000000000000000e+00" cType="1" res="-2.2514423355460167e-02" rms="3.1273317337036133e-01" purity="1.3987340033054352e-01" nType="-99"/>
          <Node pos="r" depth="2" NCoef="0" IVar="-1" Cut="0.0000000000000000e+00" cType="1" res="2.0944640040397644e-02" rms="3.6209392547607422e-01" purity="8.2045483589172363e-01" nType="-99"/>
        </Node>
        <Node pos="r" depth="1" NCoef="0" IVar="0" Cut="1.6663650274276733e+00" cType="1" res="6.0137294232845306e-02" rms="2.7257007360458374e-01" purity="8.6627525091171265e-01" nType="0">
          <Node pos="l" depth="2" NCoef="0" IVar="-1" Cut="0.0000000000000000e+00" cType="1" res="2.8018567711114883e-02" rms="2.6208287477493286e-01" purity="8.8089507818222046e-01" nType="-99"/>
          <Node pos="r" depth="2" NCoef="0" IVar="-1" Cut="0.0000000000000000e+00" cType="1" res="-2.6915919035673141e-02" rms="3.5691609978675842e-01" purity="6.7491209506988525e-01" nType="-99"/>
        </Node>
      </Node>
    </BinaryTree>
    <BinaryTree type="DecisionTree" boostWeight="1.0000000000000000e+00" itree="24">
      <Node pos="s" depth="0" NCoef="0" IVar="2" Cut="7.3304969072341919e-01" cType="1" res="6.7160776816308498e-03" rms="3.0728366971015930e-01" purity="5.1347422599792480e-01" nType="0">
        <Node pos="l" depth="1" NCoef="0" IVar="2" Cut="5.0617325305938721e-01" cType="1" res="-5.6776009500026703e-02" rms="2.8429251909255981e-01" purity="1.4503616094589233e-01" nType="0">
          <Node pos="l" depth="2" NCoef="0" IVar="-1" Cut="0.0000000000000000e+00" cType="1" res="-3.5164240747690201e-02" rms="2.4062052369117737e-01" purity="8.3176650106906891e-02" nType="-99"/>
          <Node pos="r" depth="2" NCoef="0" IVar="-1" Cut="0.0000000000000000e+00" cType="1" res="-8.8262213394045830e-03" rms="3.2162177562713623e-01" purity="2.1184302866458893e-01" nType="-99"/>
        </Node>
        <Node pos="r" depth="1" NCoef="0" IVar="1" Cut="1.1668166351318359e+02" cType="1" res="4.5518606901168823e-02" rms="3.1427070498466492e-01" purity="7.3864144086837769e-01" nType="0">
          <Node pos="l" depth="2" NCoef="0" IVar="-1" Cut="0.0000000000000000e+00" cType="1" res="-1.4426032081246376e-02" rms="3.4744781255722046e-01" purity="5.5160993337631226e-01" nType="-99"/>
          <Node pos="r" depth="2" NCoef="0" IVar="-1" Cut="0.0000000000000000e+00" cType="1" res="2.4821916595101357e-02" rms="3.0205160379409790e-01" purity="7.8341656923294067e-01" nType="-99"/>
        </Node>
      </Node>
    </BinaryTree>
    <BinaryTree type="DecisionTree" boostWeight="1.0000000000000000e+00" itree="25">
      <Node pos="s" depth="0" NCoef="0" IVar="0" Cut="1.9061262607574463e+00" cType="1" res="3.0762061942368746e-03" rms="3.1171375513076782e-01" purity="5.0242716073989868e-01" nType="0">
        <Node pos="l" depth="1" NCoef="0" IVar="2" Cut="4.9989536404609680e-01" cType="1" res="1.5804260969161987e-02" rms="3.1195679306983948e-01" purity="5.3537029027938843e-01" nType="0">
          <Node pos="l" depth="2" NCoef="0" IVar="-1" Cut="0.0000000000000000e+00" cType="1" res="-3.0168823897838593e-02" rms="2.3653769493103027e-01" purity="8.7746813893318176e-02" nType="-99"/>
          <Node pos="r" depth="2" NCoef="0" IVar="-1" Cut="0.0000000000000000e+00" cType="1" res="1.3221690431237221e-02" rms="3.2335743308067322e-01" purity="6.3629305362701416e-01" nType="-99"/>
        </Node>
        <Node pos="r" depth="1" NCoef="0" IVar="0" Cut="2.1486079692840576e+00" cType="1" res="-1.4313550293445587e-01" rms="2.6867356896400452e-01" purity="1.2399843335151672e-01" nType="0">
          <Node pos="l" depth="2" NCoef="0" IVar="-1" Cut="0.0000000000000000e+00" cType="1" res="-2.8522452339529991e-02" rms="3.1383362412452698e-01" purity="2.4514503777027130e-01" nType="-99"/>
          <Node pos="r" depth="2" NCoef="0" IVar="-1" Cut="0.0000000000000000e+00" cType="1" res="-7.0923328399658203e-02" rms="2.2161708772182465e-01" purity="4.0402825921773911e-02" nType="-99"/>
        </Node>
      </Node>
    </BinaryTree>
    <BinaryTree type="DecisionTree" boostWeight="1.0000000000000000e+00" itree="26">
      <Node pos="s" depth="0" NCoef="0" IVar="3" Cut="9.6573895215988159e-01" cType="1" res="-9.6076437330339104e-05" rms="3.1023228168487549e-01" purity="4.9553993344306946e-01" nType="0">
        <Node pos="l" depth="1" NCoef="0" IVar="1" Cut="1.1428736877441406e+02" cType="1" res="-2.5950521230697632e-02" rms="3.3169370889663696e-01" purity="3.5118505358695984e-01" nType="0">
          <Node pos="l" depth="2" NCoef="0" IVar="-1" Cut="0.0000000000000000e+00" cType="1" res="-3.2435044646263123e-02" rms="3.0481609702110291e-01" purity="1.8437404930591583e-01" nType="-99"/>
          <Node pos="r" depth="2" NCoef="0" IVar="-1" Cut="0.0000000000000000e+00" cType="1" res="-2.5074456352740526e-03" rms="3.3732673525810242e-01" purity="4.0281611680984497e-01" nType="-99"/>
        </Node>
        <Node pos="r" depth="1" NCoef="0" IVar="3" Cut="9.8795574903488159e-01" cType="1" res="7.9549841582775116e-02" rms="2.1307681500911713e-01" purity="9.4023239612579346e-01" nType="0">
          <Node pos="l" depth="2" NCoef="0" IVar="-1" Cut="0.0000000000000000e+00" cType="1" res="2.2777490317821503e-02" rms="2.5216305255889893e-01" purity="9.0672338008880615e-01" nType="-99"/>
          <Node pos="r" depth="2" NCoef="0" IVar="-1" Cut="0.0000000000000000e+00" cType="1" res="5.1149744540452957e-02" rms="1.5729330480098724e-01" purity="9.7506088018417358e-01" nType="-99"/>
        </Node>
      </Node>
    </BinaryTree>
    <BinaryTree type="DecisionTree" boostWeight="1.0000000000000000e+00" itree="27">
      <Node pos="s" depth="0" NCoef="0" IVar="2" Cut="9.3289619684219360e-01" cType="1" res="8.2254136214032769e-04" rms="3.0258747935295105e-01" purity="5.0597429275512695e-01" nType="0">
        <Node pos="l" depth="1" NCoef="0" IVar="3" Cut="9.6573895215988159e-01" cType="1" res="-3.0655479058623314e-02" rms="3.1910979747772217e-01" purity="2.7731639146804810e-01" nType="0">
          <Node pos="l" depth="2" NCoef="0" IVar="-1" Cut="0.0000000000000000e+00" cType="1" res="-1.6882978379726410e-02" rms="3.1499224901199341e-01" purity="1.8317958712577820e-01" nType="-99"/>
          <Node pos="r" depth="2" NCoef="0" IVar="-1" Cut="0.0000000000000000e+00" cType="1" res="1.8549207597970963e-02" rms="3.3041495084762573e-01" purity="8.4696197509765625e-01" nType="-99"/>
        </Node>
        <Node pos="r" depth="1" NCoef="0" IVar="1" Cut="1.1195480346679688e+02" cType="1" res="5.3800761699676514e-02" rms="2.6419129967689514e-01" purity="8.9081078767776489e-01" nType="0">
          <Node pos="l" depth="2" NCoef="0" IVar="-1" Cut="0.0000000000000000e+00" cType="1" res="-1.9262220710515976e-02" rms="3.6305236816406250e-01" purity="7.1209943294525146e-01" nType="-99"/>
          <Node pos="r" depth="2" NCoef="0" IVar="-1" Cut="0.0000000000000000e+00" cType="1" res="2.8898403048515320e-02" rms="2.4808785319328308e-01" purity="9.1037946939468384e-01" nType="-99"/>
        </Node>
      </Node>
    </BinaryTree>
    <BinaryTree type="DecisionTree" boostWeight="1.0000000000000000e+00" itree="28">
      <Node pos="s" depth="0" NCoef="0" IVar="2" Cut="9.6620398759841919e-01" cType="1" res="8.6740870028734207e-04" rms="3.0618801712989807e-01" purity="5.0180780887603760e-01" nType="0">
        <Node pos="l" depth="1" NCoef="0" IVar="0" Cut="1.7583253383636475e+00" cType="1" res="-2.3276342079043388e-02" rms="3.3018973469734192e-01" purity="3.4717845916748047e-01" nType="0">
          <Node pos="l" depth="2" NCoef="0" IVar="-1" Cut="0.0000000000000000e+00" cType="1" res="-4.3875616975128651e-03" rms="3.3597359061241150e-01" purity="3.7961354851722717e-01" nType="-99"/>
          <Node pos="r" depth="2" NCoef="0" IVar="-1" Cut="0.0000000000000000e+00" cType="1" res="-4.2385086417198181e-02" rms="2.7433586120605469e-01" purity="1.2309511750936508e-01" nType="-99"/>
        </Node>
        <Node pos="r" depth="1" NCoef="0" IVar="2" Cut="9.9002510309219360e-01" cType="1" res="6.9983862340450287e-02" rms="2.0875790715217590e-01" purity="9.4446617364883423e-01" nType="0">
          <Node pos="l" depth="2" NCoef="0" IVar="-1" Cut="0.0000000000000000e+00" cType="1" res="1.8083713948726654e-02" rms="2.6176074147224426e-01" purity="9.0502697229385376e-01" nType="-99"/>
          <Node pos="r" depth="2" NCoef="0" IVar="-1" Cut="0.0000000000000000e+00" cType="1" res="5.2047323435544968e-02" rms="1.2841930985450745e-01" purity="9.8422127962112427e-01" nType="-99"/>
        </Node>
      </Node>
    </BinaryTree>
    <BinaryTree type="DecisionTree" boostWeight="1.0000000000000000e+00" itree="29">
      <Node pos="s" depth="0" NCoef="0" IVar="3" Cut="6.6617840528488159e-01" cType="1" res="1.3004339998587966e-03" rms="3.0802729725837708e-01" purity="4.9426698684692383e-01" nType="0">
        <Node pos="l" depth="1" NCoef="0" IVar="1" Cut="1.0714590454101562e+02" cType="1" res="-5.5728856474161148e-02" rms="2.9034885764122009e-01" purity="1.3909579813480377e-01" nType="0">
          <Node pos="l" depth="2" NCoef="0" IVar="-1" Cut="0.0000000000000000e+00" cType="1" res="-5.3656917065382004e-02" rms="1.9587604701519012e-01" purity="3.6319840699434280e-02" nType="-99"/>
          <Node pos="r" depth="2" NCoef="0" IVar="-1" Cut="0.0000000000000000e+00" cType="1" res="-1.8215103074908257e-02" rms="3.0114570260047913e-01" purity="1.5503586828708649e-01" nType="-99"/>
        </Node>
        <Node pos="r" depth="1" NCoef="0" IVar="0" Cut="2.0578982830047607e+00" cType="1" res="3.1951293349266052e-02" rms="3.1285580992698669e-01" purity="6.8515658378601074e-01" nType="0">
          <Node pos="l" depth="2" NCoef="0" IVar="-1" Cut="0.0000000000000000e+00" cType="1" res="1.6349310055375099e-02" rms="3.1167113780975342e-01" purity="7.1191698312759399e-01" nType="-99"/>
          <Node pos="r" depth="2" NCoef="0" IVar="-1" Cut="0.0000000000000000e+00" cType="1" res="-6.4060792326927185e-02" rms="2.7689462900161743e-01" purity="1.0555391758680344e-01" nType="-99"/>
        </Node>
      </Node>
    </BinaryTree>
    <BinaryTree type="DecisionTree" boostWeight="1.0000000000000000e+00" itree="30">
      <Node pos="s" depth="0" NCoef="0" IVar="3" Cut="7.3274737596511841e-01" cType="1" res="8.2185660721734166e-04" rms="2.9749524593353271e-01" purity="5.0632905960083008e-01" nType="0">
        <Node pos="l" depth="1" NCoef="0" IVar="2" Cut="9.6573895215988159e-01" cType="1" res="-4.7035571187734604e-02" rms="2.8192424774169922e-01" purity="1.5815465152263641e-01" nType="0">
          <Node pos="l" depth="2" NCoef="0" IVar="-1" Cut="0.0000000000000000e+00" cType="1" res="-2.6410913094878197e-02" rms="2.5822955369949341e-01" purity="8.3133257925510406e-02" nType="-99"/>
          <Node pos="r" depth="2" NCoef="0" IVar="-1" Cut="0.0000000000000000e+00" cType="1" res="1.2281653471291065e-02" rms="4.1115260124206543e-01" purity="7.4653190374374390e-01" nType="-99"/>
        </Node>
        <Node pos="r" depth="1" NCoef="0" IVar="2" Cut="6.3312637805938721e-01" cType="1" res="3.3941719681024551e-02" rms="3.0342260003089905e-01" purity="7.4728411436080933e-01" nType="0">
          <Node pos="l" depth="2" NCoef="0" IVar="-1" Cut="0.0000000000000000e+00" cType="1" res="-9.2933233827352524e-03" rms="3.7977337837219238e-01" purity="2.4977833032608032e-01" nType="-99"/>
          <Node pos="r" depth="2" NCoef="0" IVar="-1" Cut="0.0000000000000000e+00" cType="1" res="2.1264169365167618e-02" rms="2.8158333897590637e-01" purity="8.5833954811096191e-01" nType="-99"/>
        </Node>
      </Node>
    </BinaryTree>
    <BinaryTree type="DecisionTree" boostWeight="1.0000000000000000e+00" itree="31">
      <Node pos="s" depth="0" NCoef="0" IVar="3" Cut="6.3289386034011841e-01" cType="1" res="-4.9256291240453720e-03" rms="3.0076035857200623e-01" purity="4.9693456292152405e-01" nType="0">
        <Node pos="l" depth="1" NCoef="0" IVar="1" Cut="1.1666883087158203e+02" cType="1" res="-5.5049415677785873e-02" rms="2.7255168557167053e-01" purity="1.2763488292694092e-01" nType="0">
          <Node pos="l" depth="2" NCoef="0" IVar="-1" Cut="0.0000000000000000e+00" cType="1" res="-4.0779545903205872e-02" rms="2.3232446610927582e-01" purity="6.1152014881372452e-02" nType="-99"/>
          <Node pos="r" depth="2" NCoef="0" IVar="-1" Cut="0.0000000000000000e+00" cType="1" res="-1.7213260754942894e-02" rms="2.8666061162948608e-01" purity="1.5553058683872223e-01" nType="-99"/>
        </Node>
        <Node pos="r" depth="1" NCoef="0" IVar="0" Cut="2.0855283737182617e+00" cType="1" res="1.7816800624132156e-02" rms="3.1006038188934326e-01" purity="6.6449517011642456e-01" nType="0">
          <Node pos="l" depth="2" NCoef="0" IVar="-1" Cut="0.0000000000000000e+00" cType="1" res="1.0272756218910217e-02" rms="3.1111344695091248e-01" purity="6.8882507085800171e-01" nType="-99"/>
          <Node pos="r" depth="2" NCoef="0" IVar="-1" Cut="0.0000000000000000e+00" cType="1" res="-7.0738337934017181e-02" rms="2.2071440517902374e-01" purity="6.7214414477348328e-02" nType="-99"/>
        </Node>
      </Node>
    </BinaryTree>
    <BinaryTree type="DecisionTree" boostWeight="1.0000000000000000e+00" itree="32">
      <Node pos="s" depth="0" NCoef="0" IVar="3" Cut="7.3304969072341919e-01" cType="1" res="3.3656649757176638e-03" rms="3.0239683389663696e-01" purity="5.0405859947204590e-01" nType="0">
        <Node pos="l" depth="1" NCoef="0" IVar="2" Cut="6.6617840528488159e-01" cType="1" res="-3.4816924482584000e-02" rms="2.9322183132171631e-01" purity="1.5589931607246399e-01" nType="0">
          <Node pos="l" depth="2" NCoef="0" IVar="-1" Cut="0.0000000000000000e+00" cType="1" res="-3.5676047205924988e-02" rms="1.6715824604034424e-01" purity="2.8999710455536842e-02" nType="-99"/>
          <Node pos="r" depth="2" NCoef="0" IVar="-1" Cut="0.0000000000000000e+00" cType="1" res="-4.8792795278131962e-03" rms="3.7810906767845154e-01" purity="2.8219515085220337e-01" nType="-99"/>
        </Node>
        <Node pos="r" depth="1" NCoef="0" IVar="0" Cut="1.6024082899093628e+00" cType="1" res="2.8646809980273247e-02" rms="3.0570855736732483e-01" purity="7.3457896709442139e-01" nType="0">
          <Node pos="l" depth="2" NCoef="0" IVar="-1" Cut="0.0000000000000000e+00" cType="1" res="1.7320703715085983e-02" rms="2.9965227842330933e-01" purity="7.6629644632339478e-01" nType="-99"/>
          <Node pos="r" depth="2" NCoef="0" IVar="-1" Cut="0.0000000000000000e+00" cType="1" res="-2.7120016515254974e-02" rms="3.3602267503738403e-01" purity="4.7001948952674866e-01" nType="-99"/>
        </Node>
      </Node>
    </BinaryTree>
    <BinaryTree type="DecisionTree" boostWeight="1.0000000000000000e+00" itree="33">
      <Node pos="s" depth="0" NCoef="0" IVar="2" Cut="9.6620398759841919e-01" cType="1" res="-1.4939199900254607e-03" rms="3.0227005481719971e-01" purity="4.9422267079353333e-01" nType="0">
        <Node pos="l" depth="1" NCoef="0" IVar="1" Cut="1.2143066406250000e+02" cType="1" res="-2.0509269088506699e-02" rms="3.2538074254989624e-01" purity="3.3582028746604919e-01" nType="0">
          <Node pos="l" depth="2" NCoef="0" IVar="-1" Cut="0.0000000000000000e+00" cType="1" res="-2.4688696488738060e-02" rms="2.9386365413665771e-01" purity="2.2269518673419952e-01" nType="-99"/>
          <Node pos="r" depth="2" NCoef="0" IVar="-1" Cut="0.0000000000000000e+00" cType="1" res="7.8828970436006784e-04" rms="3.4046158194541931e-01" purity="4.0199592709541321e-01" nType="-99"/>
        </Node>
        <Node pos="r" depth="1" NCoef="0" IVar="2" Cut="9.9318730831146240e-01" cType="1" res="5.1679763942956924e-02" rms="2.1671704947948456e-01" purity="9.3717211484909058e-01" nType="0">
          <Node pos="l" depth="2" NCoef="0" IVar="-1" Cut="0.0000000000000000e+00" cType="1" res="1.7648143693804741e-02" rms="2.5044184923171997e-01" purity="9.1211026906967163e-01" nType="-99"/>
          <Node pos="r" depth="2" NCoef="0" IVar="-1" Cut="0.0000000000000000e+00" cType="1" res="5.2473511546850204e-02" rms="1.1297469586133957e-01" purity="9.8870456218719482e-01" nType="-99"/>
        </Node>
      </Node>
    </BinaryTree>
    <BinaryTree type="DecisionTree" boostWeight="1.0000000000000000e+00" itree="34">
      <Node pos="s" depth="0" NCoef="0" IVar="3" Cut="9.3245440721511841e-01" cType="1" res="-2.8554820455610752e-03" rms="2.9514855146408081e-01" purity="5.0249689817428589e-01" nType="0">
        <Node pos="l" depth="1" NCoef="0" IVar="1" Cut="1.1190625000000000e+02" cType="1" res="-2.6385257020592690e-02" rms="3.1625056266784668e-01" purity="2.6927748322486877e-01" nType="0">
          <Node pos="l" depth="2" NCoef="0" IVar="-1" Cut="0.0000000000000000e+00" cType="1" res="-3.8718678057193756e-02" rms="2.6912009716033936e-01" purity="1.2731821835041046e-01" nType="-99"/>
          <Node pos="r" depth="2" NCoef="0" IVar="-1" Cut="0.0000000000000000e+00" cType="1" res="-4.9517564475536346e-03" rms="3.2491150498390198e-01" purity="3.0310821533203125e-01" nType="-99"/>
        </Node>
        <Node pos="r" depth="1" NCoef="0" IVar="3" Cut="9.8321241140365601e-01" cType="1" res="3.6800283938646317e-02" rms="2.5072515010833740e-01" purity="8.9555180072784424e-01" nType="0">
          <Node pos="l" depth="2" NCoef="0" IVar="-1" Cut="0.0000000000000000e+00" cType="1" res="4.7743925824761391e-03" rms="3.0151274800300598e-01" purity="8.3970153331756592e-01" nType="-99"/>
          <Node pos="r" depth="2" NCoef="0" IVar="-1" Cut="0.0000000000000000e+00" cType="1" res="3.9708197116851807e-02" rms="1.6511723399162292e-01" purity="9.6278268098831177e-01" nType="-99"/>
        </Node>
      </Node>
    </BinaryTree>
    <BinaryTree type="DecisionTree" boostWeight="1.0000000000000000e+00" itree="35">
      <Node pos="s" depth="0" NCoef="0" IVar="2" Cut="6.3312637805938721e-01" cType="1" res="2.2475118748843670e-03" rms="3.0039137601852417e-01" purity="5.0375974178314209e-01" nType="0">
        <Node pos="l" depth="1" NCoef="0" IVar="1" Cut="1.4285688781738281e+02" cType="1" res="-4.2393747717142105e-02" rms="2.5489979982376099e-01" purity="1.0910622775554657e-01" nType="0">
          <Node pos="l" depth="2" NCoef="0" IVar="-1" Cut="0.0000000000000000e+00" cType="1" res="-1.6631741076707840e-02" rms="2.6095756888389587e-01" purity="1.1487544327974319e-01" nType="-99"/>
          <Node pos="r" depth="2" NCoef="0" IVar="-1" Cut="0.0000000000000000e+00" cType="1" res="-4.2239908128976822e-02" rms="2.0919504761695862e-01" purity="7.5330480933189392e-02" nType="-99"/>
        </Node>
        <Node pos="r" depth="1" NCoef="0" IVar="1" Cut="1.0717314910888672e+02" cType="1" res="2.1461624652147293e-02" rms="3.1603908538818359e-01" purity="6.7362314462661743e-01" nType="0">
          <Node pos="l" depth="2" NCoef="0" IVar="-1" Cut="0.0000000000000000e+00" cType="1" res="-3.7554826587438583e-02" rms="3.2501420378684998e-01" purity="3.9201283454895020e-01" nType="-99"/>
          <Node pos="r" depth="2" NCoef="0" IVar="-1" Cut="0.0000000000000000e+00" cType="1" res="1.3651396147906780e-02" rms="3.1309884786605835e-01" purity="6.9761335849761963e-01" nType="-99"/>
        </Node>
      </Node>
    </BinaryTree>
    <BinaryTree type="DecisionTree" boostWeight="1.0000000000000000e+00" itree="36">
      <Node pos="s" depth="0" NCoef="0" IVar="1" Cut="1.2142945861816406e+02" cType="1" res="-2.7888293843716383e-03" rms="3.0288368463516235e-01" purity="4.9237328767776489e-01" nType="0">
        <Node pos="l" depth="1" NCoef="0" IVar="0" Cut="1.4405850172042847e+00" cType="1" res="-4.2249400168657303e-02" rms="3.0757671594619751e-01" purity="3.4926843643188477e-01" nType="0">
          <Node pos="l" depth="2" NCoef="0" IVar="-1" Cut="0.0000000000000000e+00" cType="1" res="-1.0353164747357368e-02" rms="3.1308680772781372e-01" purity="4.0363347530364990e-01" nType="-99"/>
          <Node pos="r" depth="2" NCoef="0" IVar="-1" Cut="0.0000000000000000e+00" cType="1" res="-5.3806982934474945e-02" rms="2.7394992113113403e-01" purity="1.3855110108852386e-01" nType="-99"/>
        </Node>
        <Node pos="r" depth="1" NCoef="0" IVar="2" Cut="6.9974189996719360e-01" cType="1" res="1.7177958041429520e-02" rms="2.9850015044212341e-01" purity="5.6478345394134521e-01" nType="0">
          <Node pos="l" depth="2" NCoef="0" IVar="-1" Cut="0.0000000000000000e+00" cType="1" res="-1.5183141455054283e-02" rms="2.8020998835563660e-01" purity="1.4699639379978180e-01" nType="-99"/>
          <Node pos="r" depth="2" NCoef="0" IVar="-1" Cut="0.0000000000000000e+00" cType="1" res="1.7857948318123817e-02" rms="3.0380845069885254e-01" purity="7.5970047712326050e-01" nType="-99"/>
        </Node>
      </Node>
    </BinaryTree>
    <BinaryTree type="DecisionTree" boostWeight="1.0000000000000000e+00" itree="37">
      <Node pos="s" depth="0" NCoef="0" IVar="3" Cut="9.6620398759841919e-01" cType="1" res="-6.6222129389643669e-03" rms="2.9710239171981812e-01" purity="4.9896466732025146e-01" nType="0">
        <Node pos="l" depth="1" NCoef="0" IVar="0" Cut="8.4471470117568970e-01" cType="1" res="-2.2685218602418900e-02" rms="3.1928741931915283e-01" purity="3.5250613093376160e-01" nType="0">
          <Node pos="l" depth="2" NCoef="0" IVar="-1" Cut="0.0000000000000000e+00" cType="1" res="6.6362682264298201e-04" rms="3.2000938057899475e-01" purity="4.0854129195213318e-01" nType="-99"/>
          <Node pos="r" depth="2" NCoef="0" IVar="-1" Cut="0.0000000000000000e+00" cType="1" res="-2.0618539303541183e-02" rms="3.1652683019638062e-01" purity="2.9372641444206238e-01" nType="-99"/>
        </Node>
        <Node pos="r" depth="1" NCoef="0" IVar="2" Cut="6.9974189996719360e-01" cType="1" res="4.1049651801586151e-02" rms="2.1130044758319855e-01" purity="9.3362522125244141e-01" nType="0">
          <Node pos="l" depth="2" NCoef="0" IVar="-1" Cut="0.0000000000000000e+00" cType="1" res="-3.0059232376515865e-03" rms="4.4645437598228455e-01" purity="6.3704687356948853e-01" nType="-99"/>
          <Node pos="r" depth="2" NCoef="0" IVar="-1" Cut="0.0000000000000000e+00" cType="1" res="3.6166336387395859e-02" rms="1.4998362958431244e-01" purity="9.7521620988845825e-01" nType="-99"/>
        </Node>
      </Node>
    </BinaryTree>
    <BinaryTree type="DecisionTree" boostWeight="1.0000000000000000e+00" itree="38">
      <Node pos="s" depth="0" NCoef="0" IVar="0" Cut="2.1179153919219971e+00" cType="1" res="7.3671771679073572e-04" rms="2.9938611388206482e-01" purity="4.9850037693977356e-01" nType="0">
        <Node pos="l" depth="1" NCoef="0" IVar="2" Cut="6.3312637805938721e-01" cType="1" res="7.1701607666909695e-03" rms="3.0258506536483765e-01" purity="5.2275091409683228e-01" nType="0">
          <Node pos="l" depth="2" NCoef="0" IVar="-1" Cut="0.0000000000000000e+00" cType="1" res="-1.5932556241750717e-02" rms="2.6953729987144470e-01" purity="1.1937800794839859e-01" nType="-99"/>
          <Node pos="r" depth="2" NCoef="0" IVar="-1" Cut="0.0000000000000000e+00" cType="1" res="1.0124502703547478e-02" rms="3.1370335817337036e-01" purity="6.8847250938415527e-01" nType="-99"/>
        </Node>
        <Node pos="r" depth="1" NCoef="0" IVar="-1" Cut="0.0000000000000000e+00" cType="1" res="-6.3559904694557190e-02" rms="1.9463203847408295e-01" purity="4.1620425879955292e-02" nType="-99"/>
      </Node>
    </BinaryTree>
    <BinaryTree type="DecisionTree" boostWeight="1.0000000000000000e+00" itree="39">
      <Node pos="s" depth="0" NCoef="0" IVar="3" Cut="5.9981864690780640e-01" cType="1" res="1.6309997299686074e-03" rms="2.9808124899864197e-01" purity="4.9757871031761169e-01" nType="0">
        <Node pos="l" depth="1" NCoef="0" IVar="3" Cut="4.4269672036170959e-01" cType="1" res="-4.8249442130327225e-02" rms="2.6234045624732971e-01" purity="1.2061186879873276e-01" nType="0">
          <Node pos="l" depth="2" NCoef="0" IVar="-1" Cut="0.0000000000000000e+00" cType="1" res="-3.3748555928468704e-02" rms="2.4270157516002655e-01" purity="9.1710567474365234e-02" nType="-99"/>
          <Node pos="r" depth="2" NCoef="0" IVar="-1" Cut="0.0000000000000000e+00" cType="1" res="-9.8853353410959244e-03" rms="2.8273764252662659e-01" purity="1.5674620866775513e-01" nType="-99"/>
        </Node>
        <Node pos="r" depth="1" NCoef="0" IVar="0" Cut="1.6462773084640503e+00" cType="1" res="2.2677142173051834e-02" rms="3.0953347682952881e-01" purity="6.5663295984268188e-01" nType="0">
          <Node pos="l" depth="2" NCoef="0" IVar="-1" Cut="0.0000000000000000e+00" cType="1" res="1.4424307271838188e-02" rms="3.0712202191352844e-01" purity="6.9394856691360474e-01" nType="-99"/>
          <Node pos="r" depth="2" NCoef="0" IVar="-1" Cut="0.0000000000000000e+00" cType="1" res="-2.4926781654357910e-02" rms="3.1782451272010803e-01" purity="3.6110454797744751e-01" nType="-99"/>
        </Node>
      </Node>
    </BinaryTree>
    <BinaryTree type="DecisionTree" boostWeight="1.0000000000000000e+00" itree="40">
      <Node pos="s" depth="0" NCoef="0" IVar="2" Cut="6.6643416881561279e-01" cType="1" res="4.8821452073752880e-03" rms="3.0093985795974731e-01" purity="5.1034671068191528e-01" nType="0">
        <Node pos="l" depth="1" NCoef="0" IVar="3" Cut="6.3289386034011841e-01" cType="1" res="-2.8896680101752281e-02" rms="2.6624557375907898e-01" purity="1.1991318315267563e-01" nType="0">
          <Node pos="l" depth="2" NCoef="0" IVar="-1" Cut="0.0000000000000000e+00" cType="1" res="-3.7923276424407959e-02" rms="1.3424879312515259e-01" purity="1.8377816304564476e-02" nType="-99"/>
          <Node pos="r" depth="2" NCoef="0" IVar="-1" Cut="0.0000000000000000e+00" cType="1" res="-5.1721013151109219e-03" rms="3.4708184003829956e-01" purity="2.1603015065193176e-01" nType="-99"/>
        </Node>
        <Node pos="r" depth="1" NCoef="0" IVar="1" Cut="1.1430292510986328e+02" cType="1" res="2.1677903831005096e-02" rms="3.1543594598770142e-01" purity="7.0448088645935059e-01" nType="0">
          <Node pos="l" depth="2" NCoef="0" IVar="-1" Cut="0.0000000000000000e+00" cType="1" res="-1.8851127475500107e-02" rms="3.4583011269569397e-01" purity="4.5461782813072205e-01" nType="-99"/>
          <Node pos="r" depth="2" NCoef="0" IVar="-1" Cut="0.0000000000000000e+00" cType="1" res="1.6014995053410530e-02" rms="3.0724248290061951e-01" purity="7.5350886583328247e-01" nType="-99"/>
        </Node>
      </Node>
    </BinaryTree>
    <BinaryTree type="DecisionTree" boostWeight="1.0000000000000000e+00" itree="41">
      <Node pos="s" depth="0" NCoef="0" IVar="2" Cut="9.6620398759841919e-01" cType="1" res="1.0237984824925661e-03" rms="2.9600426554679871e-01" purity="5.1548886299133301e-01" nType="0">
        <Node pos="l" depth="1" NCoef="0" IVar="1" Cut="1.1666785430908203e+02" cType="1" res="-1.4273654669523239e-02" rms="3.2134222984313965e-01" purity="3.5741397738456726e-01" nType="0">
          <Node pos="l" depth="2" NCoef="0" IVar="-1" Cut="0.0000000000000000e+00" cType="1" res="-2.6306560263037682e-02" rms="2.9603767395019531e-01" purity="2.0057970285415649e-01" nType="-99"/>
          <Node pos="r" depth="2" NCoef="0" IVar="-1" Cut="0.0000000000000000e+00" cType="1" res="4.4876578613184392e-04" rms="3.2885962724685669e-01" purity="4.1527011990547180e-01" nType="-99"/>
        </Node>
        <Node pos="r" depth="1" NCoef="0" IVar="2" Cut="9.8370069265365601e-01" cType="1" res="4.2111758142709732e-02" rms="2.0805662870407104e-01" purity="9.4006752967834473e-01" nType="0">
          <Node pos="l" depth="2" NCoef="0" IVar="-1" Cut="0.0000000000000000e+00" cType="1" res="2.5024835485965014e-03" rms="2.7836021780967712e-01" purity="8.8001883029937744e-01" nType="-99"/>
          <Node pos="r" depth="2" NCoef="0" IVar="-1" Cut="0.0000000000000000e+00" cType="1" res="3.9020162075757980e-02" rms="1.6373638808727264e-01" purity="9.6738255023956299e-01" nType="-99"/>
        </Node>
      </Node>
    </BinaryTree>
    <BinaryTree type="DecisionTree" boostWeight="1.0000000000000000e+00" itree="42">
      <Node pos="s" depth="0" NCoef="0" IVar="2" Cut="9.6620398759841919e-01" cType="1" res="-3.9958157576620579e-03" rms="2.9425442218780518e-01" purity="4.8933693766593933e-01" nType="0">
        <Node pos="l" depth="1" NCoef="0" IVar="1" Cut="1.0714464569091797e+02" cType="1" res="-1.7684873193502426e-02" rms="3.1704294681549072e-01" purity="3.3264085650444031e-01" nType="0">
          <Node pos="l" depth="2" NCoef="0" IVar="-1" Cut="0.0000000000000000e+00" cType="1" res="-4.0742985904216766e-02" rms="2.6245984435081482e-01" purity="1.2592571973800659e-01" nType="-99"/>
          <Node pos="r" depth="2" NCoef="0" IVar="-1" Cut="0.0000000000000000e+00" cType="1" res="-4.0658311918377876e-03" rms="3.2230535149574280e-01" purity="3.5861331224441528e-01" nType="-99"/>
        </Node>
        <Node pos="r" depth="1" NCoef="0" IVar="2" Cut="9.8686289787292480e-01" cType="1" res="3.5418186336755753e-02" rms="2.1067354083061218e-01" purity="9.4050151109695435e-01" nType="0">
          <Node pos="l" depth="2" NCoef="0" IVar="-1" Cut="0.0000000000000000e+00" cType="1" res="1.5664316015318036e-03" rms="2.7983188629150391e-01" purity="8.8413822650909424e-01" nType="-99"/>
          <Node pos="r" depth="2" NCoef="0" IVar="-1" Cut="0.0000000000000000e+00" cType="1" res="4.2393732815980911e-02" rms="1.4278833568096161e-01" purity="9.7839713096618652e-01" nType="-99"/>
        </Node>
      </Node>
    </BinaryTree>
    <BinaryTree type="DecisionTree" boostWeight="1.0000000000000000e+00" itree="43">
      <Node pos="s" depth="0" NCoef="0" IVar="0" Cut="2.1114547252655029e+00" cType="1" res="-8.3121918141841888e-03" rms="3.0169990658760071e-01" purity="4.9049898982048035e-01" nType="0">
        <Node pos="l" depth="1" NCoef="0" IVar="3" Cut="9.6620398759841919e-01" cType="1" res="-3.3142259344458580e-03" rms="3.0435535311698914e-01" purity="5.1359695196151733e-01" nType="0">
          <Node pos="l" depth="2" NCoef="0" IVar="-1" Cut="0.0000000000000000e+00" cType="1" res="-6.6736307926476002e-03" rms="3.2729205489158630e-01" purity="3.6955606937408447e-01" nType="-99"/>
          <Node pos="r" depth="2" NCoef="0" IVar="-1" Cut="0.0000000000000000e+00" cType="1" res="2.0823691040277481e-02" rms="2.2071023285388947e-01" purity="9.3310678005218506e-01" nType="-99"/>
        </Node>
        <Node pos="r" depth="1" NCoef="0" IVar="-1" Cut="0.0000000000000000e+00" cType="1" res="-5.6955002248287201e-02" rms="2.2626571357250214e-01" purity="5.3814433515071869e-02" nType="-99"/>
      </Node>
    </BinaryTree>
    <BinaryTree type="DecisionTree" boostWeight="1.0000000000000000e+00" itree="44">
      <Node pos="s" depth="0" NCoef="0" IVar="2" Cut="4.6658760309219360e-01" cType="1" res="3.0461291316896677e-03" rms="2.9765707254409790e-01" purity="5.0397771596908569e-01" nType="0">
        <Node pos="l" depth="1" NCoef="0" IVar="3" Cut="8.9916992187500000e-01" cType="1" res="-4.1690453886985779e-02" rms="2.3556658625602722e-01" purity="7.4769005179405212e-02" nType="0">
          <Node pos="l" depth="2" NCoef="0" IVar="-1" Cut="0.0000000000000000e+00" cType="1" res="-2.7623314410448074e-02" rms="1.7201218008995056e-01" purity="3.1435806304216385e-02" nType="-99"/>
          <Node pos="r" depth="2" NCoef="0" IVar="-1" Cut="0.0000000000000000e+00" cType="1" res="-1.9954491406679153e-02" rms="4.1206234693527222e-01" purity="2.6912030577659607e-01" nType="-99"/>
        </Node>
        <Node pos="r" depth="1" NCoef="0" IVar="0" Cut="2.1180424690246582e+00" cType="1" res="1.2523974291980267e-02" rms="3.0838313698768616e-01" purity="5.9490942955017090e-01" nType="0">
          <Node pos="l" depth="2" NCoef="0" IVar="-1" Cut="0.0000000000000000e+00" cType="1" res="7.6643829233944416e-03" rms="3.0979180335998535e-01" purity="6.1435335874557495e-01" nType="-99"/>
          <Node pos="r" depth="2" NCoef="0" IVar="-1" Cut="0.0000000000000000e+00" cType="1" res="-4.6639692038297653e-02" rms="2.4606347084045410e-01" purity="9.1632291674613953e-02" nType="-99"/>
        </Node>
      </Node>
    </BinaryTree>
    <BinaryTree type="DecisionTree" boostWeight="1.0000000000000000e+00" itree="45">
      <Node pos="s" depth="0" NCoef="0" IVar="2" Cut="7.9966515302658081e-01" cType="1" res="2.2745802998542786e-03" rms="2.9777988791465759e-01" purity="5.0154227018356323e-01" nType="0">
        <Node pos="l" depth="1" NCoef="0" IVar="3" Cut="4.9975585937500000e-01" cType="1" res="-1.7599031329154968e-02" rms="2.9240596294403076e-01" purity="1.6418020427227020e-01" nType="0">
          <Node pos="l" depth="2" NCoef="0" IVar="-1" Cut="0.0000000000000000e+00" cType="1" res="-3.1855162233114243e-02" rms="1.5302617847919464e-01" purity="2.4995742365717888e-02" nType="-99"/>
          <Node pos="r" depth="2" NCoef="0" IVar="-1" Cut="0.0000000000000000e+00" cType="1" res="-3.7797142285853624e-03" rms="3.3785286545753479e-01" purity="2.2893923521041870e-01" nType="-99"/>
        </Node>
        <Node pos="r" depth="1" NCoef="0" IVar="1" Cut="1.1190904235839844e+02" cType="1" res="1.8329327926039696e-02" rms="3.0109500885009766e-01" purity="7.7407765388488770e-01" nType="0">
          <Node pos="l" depth="2" NCoef="0" IVar="-1" Cut="0.0000000000000000e+00" cType="1" res="-1.7628803849220276e-02" rms="3.5279199481010437e-01" purity="5.4252415895462036e-01" nType="-99"/>
          <Node pos="r" depth="2" NCoef="0" IVar="-1" Cut="0.0000000000000000e+00" cType="1" res="1.3164186850190163e-02" rms="2.9238831996917725e-01" purity="8.0487716197967529e-01" nType="-99"/>
        </Node>
      </Node>
    </BinaryTree>
    <BinaryTree type="DecisionTree" boostWeight="1.0000000000000000e+00" itree="46">
      <Node pos="s" depth="0" NCoef="0" IVar="3" Cut="9.3245440721511841e-01" cType="1" res="-2.1562511101365089e-03" rms="2.9045185446739197e-01" purity="4.9554851651191711e-01" nType="0">
        <Node pos="l" depth="1" NCoef="0" IVar="1" Cut="1.4523838806152344e+02" cType="1" res="-1.9269382581114769e-02" rms="3.1313443183898926e-01" purity="2.7325177192687988e-01" nType="0">
          <Node pos="l" depth="2" NCoef="0" IVar="-1" Cut="0.0000000000000000e+00" cType="1" res="-6.1862724833190441e-03" rms="3.1184044480323792e-01" purity="2.7627649903297424e-01" nType="-99"/>
          <Node pos="r" depth="2" NCoef="0" IVar="-1" Cut="0.0000000000000000e+00" cType="1" res="-3.1164795160293579e-02" rms="3.2058107852935791e-01" purity="2.4258379638195038e-01" nType="-99"/>
        </Node>
        <Node pos="r" depth="1" NCoef="0" IVar="3" Cut="9.8321241140365601e-01" cType="1" res="2.9273129999637604e-02" rms="2.4019238352775574e-01" purity="9.0381103754043579e-01" nType="0">
          <Node pos="l" depth="2" NCoef="0" IVar="-1" Cut="0.0000000000000000e+00" cType="1" res="6.5589775331318378e-03" rms="2.8632631897926331e-01" purity="8.5447472333908081e-01" nType="-99"/>
          <Node pos="r" depth="2" NCoef="0" IVar="-1" Cut="0.0000000000000000e+00" cType="1" res="3.6562263965606689e-02" rms="1.6563411056995392e-01" purity="9.6376961469650269e-01" nType="-99"/>
        </Node>
      </Node>
    </BinaryTree>
    <BinaryTree type="DecisionTree" boostWeight="1.0000000000000000e+00" itree="47">
      <Node pos="s" depth="0" NCoef="0" IVar="3" Cut="4.3327984213829041e-01" cType="1" res="-6.0244882479310036e-03" rms="2.9992690682411194e-01" purity="4.9818775057792664e-01" nType="0">
        <Node pos="l" depth="1" NCoef="0" IVar="2" Cut="8.9916992187500000e-01" cType="1" res="-6.1410032212734222e-02" rms="2.6261967420578003e-01" purity="8.2865677773952484e-02" nType="0">
          <Node pos="l" depth="2" NCoef="0" IVar="-1" Cut="0.0000000000000000e+00" cType="1" res="-2.6224605739116669e-02" rms="1.8629515171051025e-01" purity="3.7317942827939987e-02" nType="-99"/>
          <Node pos="r" depth="2" NCoef="0" IVar="-1" Cut="0.0000000000000000e+00" cType="1" res="-4.5712247490882874e-02" rms="4.5028659701347351e-01" purity="2.8533691167831421e-01" nType="-99"/>
        </Node>
        <Node pos="r" depth="1" NCoef="0" IVar="0" Cut="1.2668824195861816e+00" cType="1" res="3.6113951355218887e-03" rms="3.0492770671844482e-01" purity="5.7044476270675659e-01" nType="0">
          <Node pos="l" depth="2" NCoef="0" IVar="-1" Cut="0.0000000000000000e+00" cType="1" res="6.4730746671557426e-03" rms="3.0215281248092651e-01" purity="6.2337160110473633e-01" nType="-99"/>
          <Node pos="r" depth="2" NCoef="0" IVar="-1" Cut="0.0000000000000000e+00" cType="1" res="-1.3302232138812542e-02" rms="3.1145757436752319e-01" purity="4.0322208404541016e-01" nType="-99"/>
        </Node>
      </Node>
    </BinaryTree>
    <BinaryTree type="DecisionTree" boostWeight="1.0000000000000000e+00" itree="48">
      <Node pos="s" depth="0" NCoef="0" IVar="3" Cut="4.3318685889244080e-01" cType="1" res="6.2532974407076836e-03" rms="2.9688331484794617e-01" purity="5.1982468366622925e-01" nType="0">
        <Node pos="l" depth="1" NCoef="0" IVar="2" Cut="8.9916992187500000e-01" cType="1" res="-4.2651515454053879e-02" rms="2.5862625241279602e-01" purity="9.7450189292430878e-02" nType="0">
          <Node pos="l" depth="2" NCoef="0" IVar="-1" Cut="0.0000000000000000e+00" cType="1" res="-2.4042321369051933e-02" rms="1.8112334609031677e-01" purity="3.6907542496919632e-02" nType="-99"/>
          <Node pos="r" depth="2" NCoef="0" IVar="-1" Cut="0.0000000000000000e+00" cType="1" res="-2.4726919829845428e-02" rms="4.5101496577262878e-01" purity="3.4705287218093872e-01" nType="-99"/>
        </Node>
        <Node pos="r" depth="1" NCoef="0" IVar="0" Cut="9.6187973022460938e-01" cType="1" res="1.4471985399723053e-02" rms="3.0206248164176941e-01" purity="5.9080672264099121e-01" nType="0">
          <Node pos="l" depth="2" NCoef="0" IVar="-1" Cut="0.0000000000000000e+00" cType="1" res="1.5596647746860981e-02" rms="2.9997798800468445e-01" purity="6.4621263742446899e-01" nType="-99"/>
          <Node pos="r" depth="2" NCoef="0" IVar="-1" Cut="0.0000000000000000e+00" cType="1" res="-6.5428190864622593e-03" rms="3.0320480465888977e-01" purity="5.0321578979492188e-01" nType="-99"/>
        </Node>
      </Node>
    </BinaryTree>
    <BinaryTree type="DecisionTree" boostWeight="1.0000000000000000e+00" itree="49">
      <Node pos="s" depth="0" NCoef="0" IVar="1" Cut="1.1666771697998047e+02" cType="1" res="-1.3144129188731313e-03" rms="2.9110369086265564e-01" purity="5.0118529796600342e-01" nType="0">
        <Node pos="l" depth="1" NCoef="0" IVar="3" Cut="9.6621561050415039e-01" cType="1" res="-3.6158449947834015e-02" rms="2.8368359804153442e-01" purity="2.9381623864173889e-01" nType="0">
          <Node pos="l" depth="2" NCoef="0" IVar="-1" Cut="0.0000000000000000e+00" cType="1" res="-2.2277228534221649e-02" rms="2.8637194633483887e-01" purity="1.9013926386833191e-01" nType="-99"/>
          <Node pos="r" depth="2" NCoef="0" IVar="-1" Cut="0.0000000000000000e+00" cType="1" res="8.4829106926918030e-03" rms="2.6169633865356445e-01" purity="8.8922852277755737e-01" nType="-99"/>
        </Node>
        <Node pos="r" depth="1" NCoef="0" IVar="0" Cut="8.2318979501724243e-01" cType="1" res="1.0270564816892147e-02" rms="2.9261150956153870e-01" purity="5.7013154029846191e-01" nType="0">
          <Node pos="l" depth="2" NCoef="0" IVar="-1" Cut="0.0000000000000000e+00" cType="1" res="1.4771883375942707e-02" rms="2.9250863194465637e-01" purity="6.3395428657531738e-01" nType="-99"/>
          <Node pos="r" depth="2" NCoef="0" IVar="-1" Cut="0.0000000000000000e+00" cType="1" res="-5.3721196018159389e-03" rms="2.9125905036926270e-01" purity="4.9847409129142761e-01" nType="-99"/>
        </Node>
      </Node>
    </BinaryTree>
    <BinaryTree type="DecisionTree" boostWeight="1.0000000000000000e+00" itree="50">
      <Node pos="s" depth="0" NCoef="0" IVar="1" Cut="1.1904988861083984e+02" cType="1" res="2.0205697510391474e-03" rms="2.9610657691955566e-01" purity="5.0241345167160034e-01" nType="0">
        <Node pos="l" depth="1" NCoef="0" IVar="0" Cut="1.4827096462249756e+00" cType="1" res="-3.6515295505523682e-02" rms="2.8902739286422729e-01" purity="3.1439846754074097e-01" nType="0">
          <Node pos="l" depth="2" NCoef="0" IVar="-1" Cut="0.0000000000000000e+00" cType="1" res="-1.3128435239195824e-02" rms="2.9254725575447083e-01" purity="3.6037352681159973e-01" nType="-99"/>
          <Node pos="r" depth="2" NCoef="0" IVar="-1" Cut="0.0000000000000000e+00" cType="1" res="-4.5853063464164734e-02" rms="2.7046608924865723e-01" purity="1.2845535576343536e-01" nType="-99"/>
        </Node>
        <Node pos="r" depth="1" NCoef="0" IVar="0" Cut="2.1530008316040039e+00" cType="1" res="1.7499117180705070e-02" rms="2.9750102758407593e-01" purity="5.7793271541595459e-01" nType="0">
          <Node pos="l" depth="2" NCoef="0" IVar="-1" Cut="0.0000000000000000e+00" cType="1" res="1.0249743238091469e-02" rms="3.0072104930877686e-01" purity="5.9844350814819336e-01" nType="-99"/>
          <Node pos="r" depth="2" NCoef="0" IVar="-1" Cut="0.0000000000000000e+00" cType="1" res="-4.8667412251234055e-02" rms="1.7549681663513184e-01" purity="5.4047394543886185e-02" nType="-99"/>
        </Node>
      </Node>
    </BinaryTree>
    <BinaryTree type="DecisionTree" boostWeight="1.0000000000000000e+00" itree="51">
      <Node pos="s" depth="0" NCoef="0" IVar="1" Cut="1.2143066406250000e+02" cType="1" res="-3.2903910614550114e-03" rms="2.9997694492340088e-01" purity="4.9778479337692261e-01" nType="0">
        <Node pos="l" depth="1" NCoef="0" IVar="1" Cut="1.0816594696044922e+02" cType="1" res="-3.1059728935360909e-02" rms="3.0436211824417114e-01" purity="3.4237894415855408e-01" nType="0">
          <Node pos="l" depth="2" NCoef="0" IVar="-1" Cut="0.0000000000000000e+00" cType="1" res="-2.8090475127100945e-02" rms="2.9599490761756897e-01" purity="2.3218125104904175e-01" nType="-99"/>
          <Node pos="r" depth="2" NCoef="0" IVar="-1" Cut="0.0000000000000000e+00" cType="1" res="-9.5334360376000404e-03" rms="3.0766218900680542e-01" purity="3.9599198102951050e-01" nType="-99"/>
        </Node>
        <Node pos="r" depth="1" NCoef="0" IVar="3" Cut="5.6632488965988159e-01" cType="1" res="1.0855164378881454e-02" rms="2.9672089219093323e-01" purity="5.7694780826568604e-01" nType="0">
          <Node pos="l" depth="2" NCoef="0" IVar="-1" Cut="0.0000000000000000e+00" cType="1" res="-1.4866543002426624e-02" rms="2.6777529716491699e-01" purity="1.4324556291103363e-01" nType="-99"/>
          <Node pos="r" depth="2" NCoef="0" IVar="-1" Cut="0.0000000000000000e+00" cType="1" res="1.1718977242708206e-02" rms="3.0401465296745300e-01" purity="7.1142572164535522e-01" nType="-99"/>
        </Node>
      </Node>
    </BinaryTree>
    <BinaryTree type="DecisionTree" boostWeight="1.0000000000000000e+00" itree="52">
      <Node pos="s" depth="0" NCoef="0" IVar="1" Cut="1.4285507202148438e+02" cType="1" res="1.5892855590209365e-03" rms="2.9656124114990234e-01" purity="4.9917289614677429e-01" nType="0">
        <Node pos="l" depth="1" NCoef="0" IVar="1" Cut="1.3061158752441406e+02" cType="1" res="1.1175725609064102e-02" rms="2.9200685024261475e-01" purity="5.0446569919586182e-01" nType="0">
          <Node pos="l" depth="2" NCoef="0" IVar="-1" Cut="0.0000000000000000e+00" cType="1" res="-1.3865138171240687e-03" rms="2.9844763875007629e-01" purity="4.3620353937149048e-01" nType="-99"/>
          <Node pos="r" depth="2" NCoef="0" IVar="-1" Cut="0.0000000000000000e+00" cType="1" res="1.8262285739183426e-02" rms="2.7911466360092163e-01" purity="6.2065446376800537e-01" nType="-99"/>
        </Node>
        <Node pos="r" depth="1" NCoef="0" IVar="3" Cut="9.3245440721511841e-01" cType="1" res="-5.6788664311170578e-02" rms="3.1670901179313660e-01" purity="4.6694207191467285e-01" nType="0">
          <Node pos="l" depth="2" NCoef="0" IVar="-1" Cut="0.0000000000000000e+00" cType="1" res="-3.1285952776670456e-02" rms="3.4104624390602112e-01" purity="2.6307237148284912e-01" nType="-99"/>
          <Node pos="r" depth="2" NCoef="0" IVar="-1" Cut="0.0000000000000000e+00" cType="1" res="-1.1522639542818069e-02" rms="2.6104196906089783e-01" purity="8.4745669364929199e-01" nType="-99"/>
        </Node>
      </Node>
    </BinaryTree>
    <BinaryTree type="DecisionTree" boostWeight="1.0000000000000000e+00" itree="53">
      <Node pos="s" depth="0" NCoef="0" IVar="3" Cut="3.9990234375000000e-01" cType="1" res="-1.9470670958980918e-03" rms="2.9618275165557861e-01" purity="4.9276193976402283e-01" nType="0">
        <Node pos="l" depth="1" NCoef="0" IVar="2" Cut="8.6509484052658081e-01" cType="1" res="-4.6003911644220352e-02" rms="2.2946007549762726e-01" purity="7.9052120447158813e-02" nType="0">
          <Node pos="l" depth="2" NCoef="0" IVar="-1" Cut="0.0000000000000000e+00" cType="1" res="-3.0095854774117470e-02" rms="1.5044133365154266e-01" purity="2.4251487106084824e-02" nType="-99"/>
          <Node pos="r" depth="2" NCoef="0" IVar="-1" Cut="0.0000000000000000e+00" cType="1" res="-2.5972971692681313e-02" rms="3.8728988170623779e-01" purity="2.6281166076660156e-01" nType="-99"/>
        </Node>
        <Node pos="r" depth="1" NCoef="0" IVar="2" Cut="6.9974189996719360e-01" cType="1" res="3.8241795264184475e-03" rms="3.0336606502532959e-01" purity="5.4695600271224976e-01" nType="0">
          <Node pos="l" depth="2" NCoef="0" IVar="-1" Cut="0.0000000000000000e+00" cType="1" res="-1.0093091055750847e-02" rms="2.9390981793403625e-01" purity="1.4524963498115540e-01" nType="-99"/>
          <Node pos="r" depth="2" NCoef="0" IVar="-1" Cut="0.0000000000000000e+00" cType="1" res="7.6742847450077534e-03" rms="3.0733287334442139e-01" purity="7.4902158975601196e-01" nType="-99"/>
        </Node>
      </Node>
    </BinaryTree>
    <BinaryTree type="DecisionTree" boostWeight="1.0000000000000000e+00" itree="54">
      <Node pos="s" depth="0" NCoef="0" IVar="0" Cut="8.4718054533004761e-01" cType="1" res="1.6463747015222907e-03" rms="2.9905512928962708e-01" purity="4.9418070912361145e-01" nType="0">
        <Node pos="l" depth="1" NCoef="0" IVar="3" Cut="3.9997211098670959e-01" cType="1" res="1.6381720080971718e-02" rms="3.0294701457023621e-01" purity="5.6315267086029053e-01" nType="0">
          <Node pos="l" depth="2" NCoef="0" IVar="-1" Cut="0.0000000000000000e+00" cType="1" res="-2.8309246525168419e-02" rms="2.4337224662303925e-01" purity="9.1024674475193024e-02" nType="-99"/>
          <Node pos="r" depth="2" NCoef="0" IVar="-1" Cut="0.0000000000000000e+00" cType="1" res="1.1619968339800835e-02" rms="3.0819001793861389e-01" purity="6.1744832992553711e-01" nType="-99"/>
        </Node>
        <Node pos="r" depth="1" NCoef="0" IVar="1" Cut="1.0714584350585938e+02" cType="1" res="-1.5087605454027653e-02" rms="2.9367783665657043e-01" purity="4.1585376858711243e-01" nType="0">
          <Node pos="l" depth="2" NCoef="0" IVar="-1" Cut="0.0000000000000000e+00" cType="1" res="-4.4808324426412582e-02" rms="2.1998284757137299e-01" purity="1.3340438902378082e-01" nType="-99"/>
          <Node pos="r" depth="2" NCoef="0" IVar="-1" Cut="0.0000000000000000e+00" cType="1" res="-3.9039733819663525e-03" rms="3.0027848482131958e-01" purity="4.4895952939987183e-01" nType="-99"/>
        </Node>
      </Node>
    </BinaryTree>
    <BinaryTree type="DecisionTree" boostWeight="1.0000000000000000e+00" itree="55">
      <Node pos="s" depth="0" NCoef="0" IVar="3" Cut="4.3327984213829041e-01" cType="1" res="-9.5826311735436320e-04" rms="2.9344201087951660e-01" purity="4.9941718578338623e-01" nType="0">
        <Node pos="l" depth="1" NCoef="0" IVar="1" Cut="1.3090139770507812e+02" cType="1" res="-4.4376734644174576e-02" rms="2.4293179810047150e-01" purity="8.6506865918636322e-02" nType="0">
          <Node pos="l" depth="2" NCoef="0" IVar="-1" Cut="0.0000000000000000e+00" cType="1" res="-1.0228834114968777e-02" rms="2.3837560415267944e-01" purity="8.8486962020397186e-02" nType="-99"/>
          <Node pos="r" depth="2" NCoef="0" IVar="-1" Cut="0.0000000000000000e+00" cType="1" res="-4.5649129897356033e-02" rms="2.4314981698989868e-01" purity="8.3684571087360382e-02" nType="-99"/>
        </Node>
        <Node pos="r" depth="1" NCoef="0" IVar="0" Cut="2.2636239528656006e+00" cType="1" res="6.8025360815227032e-03" rms="3.0092129111289978e-01" purity="5.7322257757186890e-01" nType="0">
          <Node pos="l" depth="2" NCoef="0" IVar="-1" Cut="0.0000000000000000e+00" cType="1" res="4.6766167506575584e-03" rms="3.0376839637756348e-01" purity="5.9192186594009399e-01" nType="-99"/>
          <Node pos="r" depth="2" NCoef="0" IVar="-1" Cut="0.0000000000000000e+00" cType="1" res="-5.3159702569246292e-02" rms="1.8566384911537170e-01" purity="3.0227569863200188e-02" nType="-99"/>
        </Node>
      </Node>
    </BinaryTree>
    <BinaryTree type="DecisionTree" boostWeight="1.0000000000000000e+00" itree="56">
      <Node pos="s" depth="0" NCoef="0" IVar="2" Cut="9.6620398759841919e-01" cType="1" res="-4.2323297820985317e-03" rms="2.9891631007194519e-01" purity="4.9392399191856384e-01" nType="0">
        <Node pos="l" depth="1" NCoef="0" IVar="2" Cut="4.5856586098670959e-01" cType="1" res="-1.5137547627091408e-02" rms="3.2438221573829651e-01" purity="3.3290386199951172e-01" nType="0">
          <Node pos="l" depth="2" NCoef="0" IVar="-1" Cut="0.0000000000000000e+00" cType="1" res="-2.7978526428341866e-02" rms="2.1137985587120056e-01" purity="5.8402478694915771e-02" nType="-99"/>
          <Node pos="r" depth="2" NCoef="0" IVar="-1" Cut="0.0000000000000000e+00" cType="1" res="-3.3246465027332306e-03" rms="3.4910544753074646e-01" purity="4.0953236818313599e-01" nType="-99"/>
        </Node>
        <Node pos="r" depth="1" NCoef="0" IVar="2" Cut="9.7895741462707520e-01" cType="1" res="2.5585813447833061e-02" rms="2.1150763332843781e-01" purity="9.3420141935348511e-01" nType="0">
          <Node pos="l" depth="2" NCoef="0" IVar="-1" Cut="0.0000000000000000e+00" cType="1" res="-1.1758918873965740e-02" rms="2.9029777646064758e-01" purity="8.6101603507995605e-01" nType="-99"/>
          <Node pos="r" depth="2" NCoef="0" IVar="-1" Cut="0.0000000000000000e+00" cType="1" res="2.7855545282363892e-02" rms="1.8385329842567444e-01" purity="9.5314329862594604e-01" nType="-99"/>
        </Node>
      </Node>
    </BinaryTree>
    <BinaryTree type="DecisionTree" boostWeight="1.0000000000000000e+00" itree="57">
      <Node pos="s" depth="0" NCoef="0" IVar="1" Cut="1.1667346954345703e+02" cType="1" res="-2.0589639898389578e-03" rms="2.9492151737213135e-01" purity="4.9824783205986023e-01" nType="0">
        <Node pos="l" depth="1" NCoef="0" IVar="2" Cut="6.6617840528488159e-01" cType="1" res="-2.7113785967230797e-02" rms="2.8494071960449219e-01" purity="2.9319337010383606e-01" nType="0">
          <Node pos="l" depth="2" NCoef="0" IVar="-1" Cut="0.0000000000000000e+00" cType="1" res="-8.1330202519893646e-03" rms="2.4289859831333160e-01" purity="8.2851193845272064e-02" nType="-99"/>
          <Node pos="r" depth="2" NCoef="0" IVar="-1" Cut="0.0000000000000000e+00" cType="1" res="-1.7634991556406021e-02" rms="3.1466230750083923e-01" purity="4.6598649024963379e-01" nType="-99"/>
        </Node>
        <Node pos="r" depth="1" NCoef="0" IVar="2" Cut="5.9981864690780640e-01" cType="1" res="6.2139891088008881e-03" rms="2.9768100380897522e-01" purity="5.6595557928085327e-01" nType="0">
          <Node pos="l" depth="2" NCoef="0" IVar="-1" Cut="0.0000000000000000e+00" cType="1" res="-1.2702043168246746e-02" rms="2.6111653447151184e-01" purity="1.1818427592515945e-01" nType="-99"/>
          <Node pos="r" depth="2" NCoef="0" IVar="-1" Cut="0.0000000000000000e+00" cType="1" res="7.7341524884104729e-03" rms="3.0768325924873352e-01" purity="7.0637756586074829e-01" nType="-99"/>
        </Node>
      </Node>
    </BinaryTree>
    <BinaryTree type="DecisionTree" boostWeight="1.0000000000000000e+00" itree="58">
      <Node pos="s" depth="0" NCoef="0" IVar="2" Cut="9.6620398759841919e-01" cType="1" res="-3.9245042717084289e-04" rms="2.9243332147598267e-01" purity="4.9848291277885437e-01" nType="0">
        <Node pos="l" depth="1" NCoef="0" IVar="3" Cut="9.6620398759841919e-01" cType="1" res="-9.5649510622024536e-03" rms="3.1553298234939575e-01" purity="3.4032255411148071e-01" nType="0">
          <Node pos="l" depth="2" NCoef="0" IVar="-1" Cut="0.0000000000000000e+00" cType="1" res="-6.8415892310440540e-03" rms="3.2200440764427185e-01" purity="2.2638395428657532e-01" nType="-99"/>
          <Node pos="r" depth="2" NCoef="0" IVar="-1" Cut="0.0000000000000000e+00" cType="1" res="7.5644580647349358e-03" rms="2.8182211518287659e-01" purity="8.7654143571853638e-01" nType="-99"/>
        </Node>
        <Node pos="r" depth="1" NCoef="0" IVar="2" Cut="9.8844403028488159e-01" cType="1" res="2.4961337447166443e-02" rms="2.1406359970569611e-01" purity="9.3565535545349121e-01" nType="0">
          <Node pos="l" depth="2" NCoef="0" IVar="-1" Cut="0.0000000000000000e+00" cType="1" res="-7.8479090007022023e-04" rms="2.7498608827590942e-01" purity="8.8389682769775391e-01" nType="-99"/>
          <Node pos="r" depth="2" NCoef="0" IVar="-1" Cut="0.0000000000000000e+00" cType="1" res="4.0248323231935501e-02" rms="1.4422251284122467e-01" purity="9.7737580537796021e-01" nType="-99"/>
        </Node>
      </Node>
    </BinaryTree>
    <BinaryTree type="DecisionTree" boostWeight="1.0000000000000000e+00" itree="59">
      <Node pos="s" depth="0" NCoef="0" IVar="1" Cut="1.4523747253417969e+02" cType="1" res="2.1698519121855497e-03" rms="3.0529913306236267e-01" purity="5.0019681453704834e-01" nType="0">
        <Node pos="l" depth="1" NCoef="0" IVar="0" Cut="1.9061841964721680e+00" cType="1" res="5.8615081943571568e-03" rms="3.0571711063385010e-01" purity="5.0654047727584839e-01" nType="0">
          <Node pos="l" depth="2" NCoef="0" IVar="-1" Cut="0.0000000000000000e+00" cType="1" res="4.6104872599244118e-03" rms="3.0892762541770935e-01" purity="5.3931736946105957e-01" nType="-99"/>
          <Node pos="r" depth="2" NCoef="0" IVar="-1" Cut="0.0000000000000000e+00" cType="1" res="-2.3985104635357857e-02" rms="2.6173293590545654e-01" purity="1.1808573454618454e-01" nType="-99"/>
        </Node>
        <Node pos="r" depth="1" NCoef="0" IVar="1" Cut="1.4705168151855469e+02" cType="1" res="-3.6643136292695999e-02" rms="2.9811528325080872e-01" purity="4.3350067734718323e-01" nType="0">
          <Node pos="l" depth="2" NCoef="0" IVar="-1" Cut="0.0000000000000000e+00" cType="1" res="-4.4540115632116795e-03" rms="2.8918299078941345e-01" purity="4.4887688755989075e-01" nType="-99"/>
          <Node pos="r" depth="2" NCoef="0" IVar="-1" Cut="0.0000000000000000e+00" cType="1" res="-2.8734326362609863e-02" rms="3.0211526155471802e-01" purity="4.2428842186927795e-01" nType="-99"/>
        </Node>
      </Node>
    </BinaryTree>
    <BinaryTree type="DecisionTree" boostWeight="1.0000000000000000e+00" itree="60">
      <Node pos="s" depth="0" NCoef="0" IVar="2" Cut="5.3320312500000000e-01" cType="1" res="2.5049096439033747e-03" rms="2.9510191082954407e-01" purity="4.9724653363227844e-01" nType="0">
        <Node pos="l" depth="1" NCoef="0" IVar="1" Cut="1.0714489746093750e+02" cType="1" res="-2.2673059254884720e-02" rms="2.3784475028514862e-01" purity="8.2372382283210754e-02" nType="0">
          <Node pos="l" depth="2" NCoef="0" IVar="-1" Cut="0.0000000000000000e+00" cType="1" res="1.0850218124687672e-02" rms="2.5897261500358582e-01" purity="8.6064621806144714e-02" nType="-99"/>
          <Node pos="r" depth="2" NCoef="0" IVar="-1" Cut="0.0000000000000000e+00" cType="1" res="-1.8630109727382660e-02" rms="2.3311191797256470e-01" purity="8.1683672964572906e-02" nType="-99"/>
        </Node>
        <Node pos="r" depth="1" NCoef="0" IVar="1" Cut="1.0478377532958984e+02" cType="1" res="1.0117015801370144e-02" rms="3.0993741750717163e-01" purity="6.2267631292343140e-01" nType="0">
          <Node pos="l" depth="2" NCoef="0" IVar="-1" Cut="0.0000000000000000e+00" cType="1" res="-2.2005422040820122e-02" rms="3.1791576743125916e-01" purity="3.1130984425544739e-01" nType="-99"/>
          <Node pos="r" depth="2" NCoef="0" IVar="-1" Cut="0.0000000000000000e+00" cType="1" res="6.3552837818861008e-03" rms="3.0924570560455322e-01" purity="6.3888710737228394e-01" nType="-99"/>
        </Node>
      </Node>
    </BinaryTree>
    <BinaryTree type="DecisionTree" boostWeight="1.0000000000000000e+00" itree="61">
      <Node pos="s" depth="0" NCoef="0" IVar="0" Cut="6.3559925556182861e-01" cType="1" res="4.0598097257316113e-03" rms="3.0049592256546021e-01" purity="5.0230687856674194e-01" nType="0">
        <Node pos="l" depth="1" NCoef="0" IVar="3" Cut="3.6661782860755920e-01" cType="1" res="1.7796568572521210e-02" rms="3.0612015724182129e-01" purity="5.7351016998291016e-01" nType="0">
          <Node pos="l" depth="2" NCoef="0" IVar="-1" Cut="0.0000000000000000e+00" cType="1" res="-2.3671014234423637e-02" rms="2.3868052661418915e-01" purity="8.6639419198036194e-02" nType="-99"/>
          <Node pos="r" depth="2" NCoef="0" IVar="-1" Cut="0.0000000000000000e+00" cType="1" res="1.1012943461537361e-02" rms="3.1018239259719849e-01" purity="6.0992419719696045e-01" nType="-99"/>
        </Node>
        <Node pos="r" depth="1" NCoef="0" IVar="2" Cut="8.9916992187500000e-01" cType="1" res="-5.1981923170387745e-03" rms="2.9628622531890869e-01" purity="4.5431882143020630e-01" nType="0">
          <Node pos="l" depth="2" NCoef="0" IVar="-1" Cut="0.0000000000000000e+00" cType="1" res="-8.7421620264649391e-03" rms="2.9992449283599854e-01" purity="1.9679068028926849e-01" nType="-99"/>
          <Node pos="r" depth="2" NCoef="0" IVar="-1" Cut="0.0000000000000000e+00" cType="1" res="5.9039983898401260e-03" rms="2.9012259840965271e-01" purity="8.3014029264450073e-01" nType="-99"/>
        </Node>
      </Node>
    </BinaryTree>
    <BinaryTree type="DecisionTree" boostWeight="1.0000000000000000e+00" itree="62">
      <Node pos="s" depth="0" NCoef="0" IVar="0" Cut="9.6187973022460938e-01" cType="1" res="4.0838341228663921e-03" rms="2.9942098259925842e-01" purity="5.0227797031402588e-01" nType="0">
        <Node pos="l" depth="1" NCoef="0" IVar="3" Cut="4.9989536404609680e-01" cType="1" res="1.4286939054727554e-02" rms="2.9871943593025208e-01" purity="5.6479769945144653e-01" nType="0">
          <Node pos="l" depth="2" NCoef="0" IVar="-1" Cut="0.0000000000000000e+00" cType="1" res="-1.5415871515870094e-02" rms="2.5714665651321411e-01" purity="1.1487411707639694e-01" nType="-99"/>
          <Node pos="r" depth="2" NCoef="0" IVar="-1" Cut="0.0000000000000000e+00" cType="1" res="1.1871904134750366e-02" rms="3.0637770891189575e-01" purity="6.6431570053100586e-01" nType="-99"/>
        </Node>
        <Node pos="r" depth="1" NCoef="0" IVar="3" Cut="9.3245440721511841e-01" cType="1" res="-1.0896205902099609e-02" rms="2.9981952905654907e-01" purity="4.1048741340637207e-01" nType="0">
          <Node pos="l" depth="2" NCoef="0" IVar="-1" Cut="0.0000000000000000e+00" cType="1" res="-9.8446523770689964e-03" rms="3.0487102270126343e-01" purity="2.2093981504440308e-01" nType="-99"/>
          <Node pos="r" depth="2" NCoef="0" IVar="-1" Cut="0.0000000000000000e+00" cType="1" res="3.8704127073287964e-03" rms="2.8690680861473083e-01" purity="8.5259324312210083e-01" nType="-99"/>
        </Node>
      </Node>
    </BinaryTree>
    <BinaryTree type="DecisionTree" boostWeight="1.0000000000000000e+00" itree="63">
      <Node pos="s" depth="0" NCoef="0" IVar="2" Cut="9.6620398759841919e-01" cType="1" res="-3.2507812138646841e-03" rms="2.9032358527183533e-01" purity="4.9449807405471802e-01" nType="0">
        <Node pos="l" depth="1" NCoef="0" IVar="2" Cut="6.4878624677658081e-01" cType="1" res="-1.2167412787675858e-02" rms="3.1348961591720581e-01" purity="3.3690118789672852e-01" nType="0">
